{"learner":{"attributes":{"scikit_learn":"{\"use_label_encoder\": true, \"n_estimators\": 500, \"objective\": \"binary:logistic\", \"max_depth\": 4, \"learning_rate\": null, \"verbosity\": null, \"booster\": null, \"tree_method\": null, \"gamma\": null, \"min_child_weight\": 3, \"max_delta_step\": null, \"subsample\": null, \"colsample_bytree\": null, \"colsample_bylevel\": null, \"colsample_bynode\": null, \"reg_alpha\": null, \"reg_lambda\": null, \"scale_pos_weight\": 66.57692307692308, \"base_score\": null, \"missing\": NaN, \"num_parallel_tree\": null, \"kwargs\": {\"eta\": 0.3, \"silent\": 1, \"sub_sample\": 0.8}, \"random_state\": null, \"n_jobs\": null, \"monotone_constraints\": null, \"interaction_constraints\": null, \"importance_type\": \"gain\", \"gpu_id\": null, \"validate_parameters\": null, \"classes_\": [0, 1], \"n_classes_\": 2, \"_le\": {\"classes_\": [0, 1]}, \"_estimator_type\": \"classifier\"}"},"feature_names":[],"feature_types":[],"gradient_booster":{"model":{"gbtree_model_param":{"num_trees":"500","size_leaf_vector":"0"},"tree_info":[0,0,0,0,0,0,0,0,0,0,0,0,0,0,0,0,0,0,0,0,0,0,0,0,0,0,0,0,0,0,0,0,0,0,0,0,0,0,0,0,0,0,0,0,0,0,0,0,0,0,0,0,0,0,0,0,0,0,0,0,0,0,0,0,0,0,0,0,0,0,0,0,0,0,0,0,0,0,0,0,0,0,0,0,0,0,0,0,0,0,0,0,0,0,0,0,0,0,0,0,0,0,0,0,0,0,0,0,0,0,0,0,0,0,0,0,0,0,0,0,0,0,0,0,0,0,0,0,0,0,0,0,0,0,0,0,0,0,0,0,0,0,0,0,0,0,0,0,0,0,0,0,0,0,0,0,0,0,0,0,0,0,0,0,0,0,0,0,0,0,0,0,0,0,0,0,0,0,0,0,0,0,0,0,0,0,0,0,0,0,0,0,0,0,0,0,0,0,0,0,0,0,0,0,0,0,0,0,0,0,0,0,0,0,0,0,0,0,0,0,0,0,0,0,0,0,0,0,0,0,0,0,0,0,0,0,0,0,0,0,0,0,0,0,0,0,0,0,0,0,0,0,0,0,0,0,0,0,0,0,0,0,0,0,0,0,0,0,0,0,0,0,0,0,0,0,0,0,0,0,0,0,0,0,0,0,0,0,0,0,0,0,0,0,0,0,0,0,0,0,0,0,0,0,0,0,0,0,0,0,0,0,0,0,0,0,0,0,0,0,0,0,0,0,0,0,0,0,0,0,0,0,0,0,0,0,0,0,0,0,0,0,0,0,0,0,0,0,0,0,0,0,0,0,0,0,0,0,0,0,0,0,0,0,0,0,0,0,0,0,0,0,0,0,0,0,0,0,0,0,0,0,0,0,0,0,0,0,0,0,0,0,0,0,0,0,0,0,0,0,0,0,0,0,0,0,0,0,0,0,0,0,0,0,0,0,0,0,0,0,0,0,0,0,0,0,0,0,0,0,0,0,0,0,0,0,0,0,0,0,0,0,0,0,0,0,0,0,0,0,0,0,0,0,0,0,0,0,0,0,0,0,0,0,0,0,0,0,0,0,0,0,0,0,0,0,0,0,0,0,0,0,0,0,0,0,0,0,0,0,0,0,0,0,0,0,0,0,0,0],"trees":[{"base_weights":[-5.2859548E-8,1.0733876E0,-7.5481725E-1,-1.9692308E0,1.375297E0,-7.5060956E-2,-1.826341E0,-1.942029E0,1.5582592E0,7.330632E-1,-1.0513362E0,-1.9947054E0,1.7795442E0,-1.8961039E0,1.666533E0,1.1238022E0,-1.9542857E0,1.0252342E0,-1.6841873E0],"categories":[],"categories_nodes":[],"categories_segments":[],"categories_sizes":[],"default_left":[true,true,true,false,true,true,true,false,true,true,true,false,false,false,false,false,false,false,false],"id":0,"left_children":[1,3,5,-1,7,9,11,-1,13,15,17,-1,-1,-1,-1,-1,-1,-1,-1],"loss_changes":[1.4040964E3,6.599717E2,7.409775E2,0E0,3.9845703E2,4.9275787E2,2.4329114E2,0E0,2.3430591E2,3.6107166E2,3.7340643E2,0E0,0E0,0E0,0E0,0E0,0E0,0E0,0E0],"parents":[2147483647,0,0,1,1,2,2,4,4,5,5,6,6,8,8,9,9,10,10],"right_children":[2,4,6,-1,8,10,12,-1,14,16,18,-1,-1,-1,-1,-1,-1,-1,-1],"split_conditions":[-2.2693549E-1,2.3730874E-2,8.838256E-2,-5.9076923E-1,-2.520569E-1,5.550258E-1,6.216518E-1,-5.826087E-1,-3.007665E-1,-4.5534682E-1,1.7551245E-1,-5.984117E-1,5.338633E-1,-5.688312E-1,4.9995992E-1,3.3714068E-1,-5.8628577E-1,3.0757028E-1,-5.0525624E-1],"split_indices":[38,764,538,0,370,433,193,0,239,596,666,0,0,0,0,0,0,0,0],"split_type":[0,0,0,0,0,0,0,0,0,0,0,0,0,0,0,0,0,0,0],"sum_hessian":[1.731E3,7.145096E2,1.01649036E3,6.4E1,6.505096E2,6.225961E2,3.9389423E2,3.35E1,6.170096E2,3.4076923E2,2.818269E2,3.7675E2,1.714423E1,1.825E1,5.987596E2,2.9801923E2,4.275E1,6.568269E1,2.1614423E2],"tree_param":{"num_deleted":"0","num_feature":"768","num_nodes":"19","size_leaf_vector":"0"}},{"base_weights":[-3.4922229E-3,-4.7769335E-1,1.040114E0,1.910391E-2,-1.373245E0,1.3256129E0,-1.7800602E0,-8.119912E-1,5.978261E-1,-1.6307617E0,4.2921212E-1,-1.6933299E0,1.4170177E0,-1.4814987E0,8.8708496E-1,-1.0087993E0,9.6952605E-1,-1.6449271E0,1.610479E0,-1.6508404E0,1.4711317E0],"categories":[],"categories_nodes":[],"categories_segments":[],"categories_sizes":[],"default_left":[true,true,true,true,true,true,false,true,true,false,true,false,true,false,false,false,false,false,false,false,false],"id":1,"left_children":[1,3,5,7,9,11,-1,13,15,-1,17,-1,19,-1,-1,-1,-1,-1,-1,-1,-1],"loss_changes":[8.057669E2,4.9810504E2,4.1193835E2,3.4729105E2,1.8611493E2,1.3002557E2,0E0,3.3849487E2,2.5516208E2,0E0,1.2693877E2,0E0,7.704468E1,0E0,0E0,0E0,0E0,0E0,0E0,0E0,0E0],"parents":[2147483647,0,0,1,1,2,2,3,3,4,4,5,5,7,7,8,8,10,10,12,12],"right_children":[2,4,6,8,10,12,-1,14,16,-1,18,-1,20,-1,-1,-1,-1,-1,-1,-1,-1],"split_conditions":[-1.12794355E-1,7.538371E-1,4.2419982E-1,6.331261E-1,-2.238357E-1,4.886316E-1,-5.340181E-1,8.7141715E-2,-3.2206196E-1,-4.8922855E-1,9.004468E-1,-5.07999E-1,1.3620874E-2,-4.4444963E-1,2.661255E-1,-3.026398E-1,2.9085782E-1,-4.9347815E-1,4.8314372E-1,-4.9525213E-1,4.4133952E-1],"split_indices":[370,288,316,357,678,412,0,218,175,0,14,0,646,0,0,0,0,0,0,0,0],"split_type":[0,0,0,0,0,0,0,0,0,0,0,0,0,0,0,0,0,0,0,0,0],"sum_hessian":[1.6262051E3,1.1185106E3,5.0769443E2,7.2004974E2,3.984609E2,4.615042E2,4.6190186E1,2.9541098E2,4.2463876E2,3.4873276E2,4.9728146E1,1.30473385E1,4.4845688E2,2.1200153E2,8.340947E1,7.946169E1,3.4517706E2,1.7902084E1,3.1826063E1,7.261771E0,4.4119513E2],"tree_param":{"num_deleted":"0","num_feature":"768","num_nodes":"21","size_leaf_vector":"0"}},{"base_weights":[-6.9703455E-3,9.0494543E-1,-3.9764786E-1,-1.5995835E0,1.076928E0,-9.408654E-1,1.9500598E-1,-1.5190386E0,1.165181E0,-1.4078515E0,5.52156E-1,-1.4795107E0,5.11668E-1,1.2282311E0,-1.4618587E0,1.026934E0,-1.511993E0,-1.4248914E0,1.1665205E0,7.4501854E-1,-1.4735901E0],"categories":[],"categories_nodes":[],"categories_segments":[],"categories_sizes":[],"default_left":[true,true,true,false,true,true,true,false,true,true,true,false,true,false,false,false,false,false,false,false,false],"id":2,"left_children":[1,3,5,-1,7,9,11,-1,13,15,17,-1,19,-1,-1,-1,-1,-1,-1,-1,-1],"loss_changes":[5.1801764E2,1.8956519E2,3.2789136E2,0E0,9.5397644E1,3.7119724E2,2.5932843E2,0E0,6.735419E1,1.0424078E2,1.5628412E2,0E0,1.9141858E2,0E0,0E0,0E0,0E0,0E0,0E0,0E0,0E0],"parents":[2147483647,0,0,1,1,2,2,4,4,5,5,6,6,8,8,9,9,10,10,12,12],"right_children":[2,4,6,-1,8,10,12,-1,14,16,18,-1,20,-1,-1,-1,-1,-1,-1,-1,-1],"split_conditions":[3.3411622E-1,-9.6657634E-2,-2.852382E-1,-4.7987506E-1,-3.677448E-2,8.7219626E-1,-5.7381636E-1,-4.5571157E-1,2.5358254E-1,-2.3443215E-1,2.3523489E-1,-4.4385323E-1,1.5146989E-1,3.6846933E-1,-4.3855765E-1,3.0808023E-1,-4.5359793E-1,-4.2746744E-1,3.4995615E-1,2.2350557E-1,-4.4207707E-1],"split_indices":[316,63,556,0,574,358,455,0,404,149,363,0,538,0,0,0,0,0,0,0,0],"split_type":[0,0,0,0,0,0,0,0,0,0,0,0,0,0,0,0,0,0,0,0,0],"sum_hessian":[1.4520134E3,4.3509723E2,1.0169162E3,2.7424337E1,4.0767288E2,5.3028107E2,4.8663513E2,1.2870615E1,3.9480228E2,4.0398117E2,1.2629987E2,7.6806786E1,4.0982834E2,3.8606894E2,8.733348E0,1.6207024E1,3.8777414E2,2.9630041E1,9.666984E1,3.6728214E2,4.2546215E1],"tree_param":{"num_deleted":"0","num_feature":"768","num_nodes":"21","size_leaf_vector":"0"}},{"base_weights":[-1.4383376E-2,-4.7157702E-1,5.6709754E-1,4.6069464E-1,-8.685775E-1,8.2859457E-1,-7.662995E-1,-1.5077714E0,7.987898E-1,9.458344E-1,-1.1077335E0,-1.6126397E0,9.640194E-1,-1.46381E0,1.1464021E0,1.0542408E0,-1.3570478E0,-1.3170965E0,1.2599782E0,-1.3270166E0,3.171202E-1,-2.1488914E0,-1.348043E0,1.0888528E0,-4.5011684E-1],"categories":[],"categories_nodes":[],"categories_segments":[],"categories_sizes":[],"default_left":[true,true,true,true,true,true,true,false,true,true,true,true,true,false,false,false,false,false,false,false,false,false,false,false,false],"id":3,"left_children":[1,3,5,7,9,11,13,-1,15,17,19,21,23,-1,-1,-1,-1,-1,-1,-1,-1,-1,-1,-1,-1],"loss_changes":[3.3603577E2,2.622961E2,1.9463666E2,1.4228914E2,2.165463E2,1.5549881E2,1.24077286E2,0E0,1.0142284E2,4.3157864E1,1.3766217E2,6.288452E-1,7.848129E1,0E0,0E0,0E0,0E0,0E0,0E0,0E0,0E0,0E0,0E0,0E0,0E0],"parents":[2147483647,0,0,1,1,2,2,3,3,4,4,5,5,6,6,8,8,9,9,10,10,11,11,12,12],"right_children":[2,4,6,8,10,12,14,-1,16,18,20,22,24,-1,-1,-1,-1,-1,-1,-1,-1,-1,-1,-1,-1],"split_conditions":[-2.7015358E-2,-3.0378914E-1,3.8171214E-1,5.3384304E-1,-1.909428E-1,-2.5548303E-1,-1.0581909E-1,-4.5233142E-1,-2.3922503E-1,6.331152E-2,5.654489E-1,-2.9333717E-1,3.417812E-1,-4.39143E-1,3.4392065E-1,3.1627226E-1,-4.0711436E-1,-3.9512897E-1,3.7799346E-1,-3.98105E-1,9.513606E-2,-6.4466745E-1,-4.044129E-1,3.2665583E-1,-1.3503505E-1],"split_indices":[620,477,147,178,200,670,444,0,118,592,231,38,206,0,0,0,0,0,0,0,0,0,0,0,0],"split_type":[0,0,0,0,0,0,0,0,0,0,0,0,0,0,0,0,0,0,0,0,0,0,0,0,0],"sum_hessian":[1.2620022E3,7.066122E2,5.5539E2,2.109889E2,4.9562326E2,4.6464542E2,9.07446E1,3.0419596E1,1.8056932E2,5.737557E1,4.382477E2,2.3847677E1,4.4079773E2,6.6667465E1,2.407713E1,1.6189673E2,1.8672592E1,6.6048617E0,5.0770706E1,3.798569E2,5.839081E1,5.52629E0,1.8321386E1,4.052538E2,3.5543903E1],"tree_param":{"num_deleted":"0","num_feature":"768","num_nodes":"25","size_leaf_vector":"0"}},{"base_weights":[-1.762925E-2,-8.369753E-1,2.5944754E-1,1.6281326E-1,-1.3187207E0,-8.669019E-1,4.653626E-1,-1.3365704E0,8.648332E-1,-1.2999378E0,9.458709E-1,5.8823127E-1,-1.3477415E0,-1.245517E0,1.1281753E0,6.716295E-1,1.1700308E0,-9.399964E-1,7.0988494E-1],"categories":[],"categories_nodes":[],"categories_segments":[],"categories_sizes":[],"default_left":[true,true,true,true,false,true,true,false,true,false,true,true,false,false,false,false,false,false,false],"id":4,"left_children":[1,3,5,7,-1,9,11,-1,13,-1,15,17,-1,-1,-1,-1,-1,-1,-1],"loss_changes":[2.4515071E2,1.31648E2,1.8757607E2,9.549304E1,0E0,9.941808E1,1.5293211E2,0E0,3.5666676E1,0E0,7.3239326E-1,1.1970572E2,0E0,0E0,0E0,0E0,0E0,0E0,0E0],"parents":[2147483647,0,0,1,1,2,2,3,3,5,5,6,6,8,8,10,10,11,11],"right_children":[2,4,6,8,-1,10,12,-1,14,-1,16,18,-1,-1,-1,-1,-1,-1,-1],"split_conditions":[-8.274741E-3,-1.2484439E-1,-2.419555E-1,3.9493956E-2,-3.9561623E-1,4.5873955E-2,5.4319453E-1,-4.0097114E-1,-2.9002517E-1,-3.8998136E-1,4.0093094E-1,-1.13678165E-1,-4.0432248E-1,-3.736551E-1,3.3845258E-1,2.0148885E-1,3.5100925E-1,-2.8199893E-1,2.1296549E-1],"split_indices":[574,302,67,446,0,136,662,0,26,0,4,302,0,0,0,0,0,0,0],"split_type":[0,0,0,0,0,0,0,0,0,0,0,0,0,0,0,0,0,0,0],"sum_hessian":[1.077899E3,2.7188498E2,8.0601404E2,8.862321E1,1.8326178E2,1.2408156E2,6.8193243E2,2.7973383E1,6.0649822E1,1.0038455E2,2.3697008E1,6.392856E2,4.2646896E1,6.3148355E0,5.4334988E1,1.2455242E1,1.1241765E1,4.664161E1,5.92644E2],"tree_param":{"num_deleted":"0","num_feature":"768","num_nodes":"19","size_leaf_vector":"0"}},{"base_weights":[-2.4353575E-2,-3.8176906E-1,5.420528E-1,-8.52298E-1,3.129002E-1,-1.2875595E0,7.0174927E-1,-1.2384881E0,7.757556E-2,5.5897003E-1,-1.247725E0,7.9645115E-1,-1.4338623E0,-1.3105972E0,6.026209E-1,8.2832485E-1,-1.2092252E0,7.409357E-1,-1.3241856E0,-1.33343E0,8.779175E-1],"categories":[],"categories_nodes":[],"categories_segments":[],"categories_sizes":[],"default_left":[true,true,true,true,true,false,true,true,true,true,false,true,false,false,false,false,false,false,false,false,false],"id":5,"left_children":[1,3,5,7,9,-1,11,13,15,17,-1,19,-1,-1,-1,-1,-1,-1,-1,-1,-1],"loss_changes":[1.9100946E2,1.8933891E2,1.0756657E2,1.2403412E2,9.0681305E1,0E0,6.917723E1,3.317157E1,9.974932E1,7.057588E1,0E0,5.717334E1,0E0,0E0,0E0,0E0,0E0,0E0,0E0,0E0,0E0],"parents":[2147483647,0,0,1,1,2,2,3,3,4,4,6,6,7,7,8,8,9,9,11,11],"right_children":[2,4,6,8,10,-1,12,14,16,18,-1,20,-1,-1,-1,-1,-1,-1,-1,-1,-1],"split_conditions":[-2.3299593E-1,-6.1116493E-3,-2.0050049E-1,5.057857E-1,-9.903755E-2,-3.8626787E-1,1.3202769E-1,8.3633155E-1,2.0119713E-1,4.4607352E-2,-3.7431753E-1,3.5626322E-2,-4.301587E-1,-3.9317918E-1,1.8078628E-1,2.4849747E-1,-3.6276758E-1,2.2228071E-1,-3.972557E-1,-4.0002903E-1,2.6337528E-1],"split_indices":[556,406,649,584,387,0,139,610,333,588,0,607,0,0,0,0,0,0,0,0,0],"split_type":[0,0,0,0,0,0,0,0,0,0,0,0,0,0,0,0,0,0,0,0,0],"sum_hessian":[9.4150275E2,5.774466E2,3.6405612E2,3.4412753E2,2.3331909E2,2.8658495E1,3.353976E2,2.429111E2,1.01216415E2,2.020957E2,3.1223383E1,3.2175665E2,1.3640965E1,2.3403308E2,8.8780155E0,6.4147545E1,3.706887E1,1.8484138E2,1.725432E1,1.1287411E1,3.1046924E2],"tree_param":{"num_deleted":"0","num_feature":"768","num_nodes":"21","size_leaf_vector":"0"}},{"base_weights":[-3.199523E-2,-8.400979E-1,1.7205444E-1,5.96457E-1,-1.2224218E0,-5.77792E-1,3.669839E-1,1.0816263E0,-1.0564803E0,4.0014607E-1,-1.2010328E0,-1.3214175E0,4.7567135E-1,-1.1710129E0,9.081884E-1,-1.3568043E0,5.6320816E-1],"categories":[],"categories_nodes":[],"categories_segments":[],"categories_sizes":[],"default_left":[true,true,true,true,false,true,true,false,false,true,false,false,true,false,false,false,false],"id":6,"left_children":[1,3,5,7,-1,9,11,-1,-1,13,-1,-1,15,-1,-1,-1,-1],"loss_changes":[1.316036E2,8.9096275E1,9.337097E1,2.8803242E1,0E0,8.0864944E1,9.356757E1,0E0,0E0,4.263925E1,0E0,0E0,7.7209076E1,0E0,0E0,0E0,0E0],"parents":[2147483647,0,0,1,1,2,2,3,3,5,5,6,6,9,9,12,12],"right_children":[2,4,6,8,-1,10,12,-1,-1,14,-1,-1,16,-1,-1,-1,-1],"split_conditions":[1.11793056E-1,8.772899E-2,-8.287853E-3,-5.434282E-1,-3.6672655E-1,-1.2484439E-1,-4.794941E-1,3.244879E-1,-3.169441E-1,-6.2595356E-1,-3.6030984E-1,-3.9642525E-1,-1.134851E-1,-3.5130388E-1,2.7245653E-1,-4.0704128E-1,1.6896245E-1],"split_indices":[250,708,574,28,0,302,410,0,0,536,0,0,302,0,0,0,0],"split_type":[0,0,0,0,0,0,0,0,0,0,0,0,0,0,0,0,0],"sum_hessian":[7.9623816E2,1.5989302E2,6.3634515E2,3.3491394E1,1.2640163E2,1.3088771E2,5.0545746E2,2.6158884E1,7.3325086E0,5.108589E1,7.980181E1,2.9895105E1,4.7556235E2,1.2163721E1,3.8922173E1,2.1020666E1,4.545417E2],"tree_param":{"num_deleted":"0","num_feature":"768","num_nodes":"17","size_leaf_vector":"0"}},{"base_weights":[-3.8145628E-2,3.9422703E-1,-3.905351E-1,-1.2433836E0,5.514982E-1,1.0823003E-1,-8.621331E-1,-1.3040603E0,6.50508E-1,5.0732255E-1,-1.2299489E0,-1.0766829E0,7.1596843E-1,-1.3385456E0,7.307354E-1,-1.305334E0,7.251852E-1,8.262294E-3,-1.2311075E0,-9.809964E-1,1.0148E0],"categories":[],"categories_nodes":[],"categories_segments":[],"categories_sizes":[],"default_left":[true,true,true,false,true,true,true,false,true,true,false,true,true,false,false,false,false,false,false,false,false],"id":7,"left_children":[1,3,5,-1,7,9,11,-1,13,15,-1,17,19,-1,-1,-1,-1,-1,-1,-1,-1],"loss_changes":[1.0572619E2,8.094722E1,9.000743E1,0E0,5.321221E1,1.00315285E2,6.733362E1,0E0,4.4263557E1,5.800868E1,0E0,2.9072647E1,1.3231711E1,0E0,0E0,0E0,0E0,0E0,0E0,0E0,0E0],"parents":[2147483647,0,0,1,1,2,2,4,4,5,5,6,6,8,8,9,9,11,11,12,12],"right_children":[2,4,6,-1,8,10,12,-1,14,16,-1,18,20,-1,-1,-1,-1,-1,-1,-1,-1],"split_conditions":[-4.7747515E-2,-7.7582193E-3,-6.0622346E-1,-3.730151E-1,2.804134E-1,-1.6321588E-1,-8.198859E-2,-3.9121813E-1,-2.8954893E-1,1.1395121E-1,-3.6898467E-1,-5.141058E-1,5.5877936E-1,-4.0156367E-1,2.1922064E-1,-3.9160022E-1,2.1755557E-1,2.4786885E-3,-3.6933225E-1,-2.9429892E-1,3.0444E-1],"split_indices":[227,76,589,0,724,326,515,0,670,363,0,462,178,0,0,0,0,0,0,0,0],"split_type":[0,0,0,0,0,0,0,0,0,0,0,0,0,0,0,0,0,0,0,0,0],"sum_hessian":[6.918968E2,3.1063593E2,3.8126086E2,2.6613428E1,2.840225E2,1.8566785E2,1.9559302E2,1.3770796E1,2.702517E2,1.4349379E2,4.2174065E1,1.7246358E2,2.3129444E1,9.869747E0,2.6038196E2,1.486047E1,1.2863332E2,2.160677E1,1.5085681E2,3.121381E0,2.0008062E1],"tree_param":{"num_deleted":"0","num_feature":"768","num_nodes":"21","size_leaf_vector":"0"}},{"base_weights":[-4.424253E-2,-2.4559386E-1,6.0928386E-1,-4.9314868E-1,4.7894087E-1,-1.1955156E0,7.887295E-1,3.0759495E-1,-8.280149E-1,7.227977E-1,-1.1736541E0,8.970262E-1,-1.3091176E0,6.279405E-1,-1.591045E0,-1.0768973E0,3.5432108E-2,-1.0961671E0,8.865783E-1,-1.114534E0,9.585334E-1],"categories":[],"categories_nodes":[],"categories_segments":[],"categories_sizes":[],"default_left":[true,true,true,true,true,false,true,true,true,true,false,true,false,false,false,false,false,false,false,false,false],"id":8,"left_children":[1,3,5,7,9,-1,11,13,15,17,-1,19,-1,-1,-1,-1,-1,-1,-1,-1,-1],"loss_changes":[7.737678E1,8.083552E1,4.5803658E1,9.019554E1,4.7170425E1,0E0,2.9934998E1,6.1600864E1,5.0922424E1,3.0996162E1,0E0,1.6035652E1,0E0,0E0,0E0,0E0,0E0,0E0,0E0,0E0,0E0],"parents":[2147483647,0,0,1,1,2,2,3,3,4,4,6,6,7,7,8,8,9,9,11,11],"right_children":[2,4,6,8,10,-1,12,14,16,18,-1,20,-1,-1,-1,-1,-1,-1,-1,-1,-1],"split_conditions":[1.2974381E-1,8.5236144E-1,-2.6375633E-1,3.3411664E-1,-6.723443E-2,-3.586547E-1,2.172028E-1,3.3537441E-1,1.920751E-1,-4.620154E-1,-3.5209623E-1,2.6740186E-2,-3.9273527E-1,1.8838215E-1,-4.7731352E-1,-3.2306919E-1,1.06296325E-2,-3.2885015E-1,2.659735E-1,-3.343602E-1,2.8756005E-1],"split_indices":[166,358,145,316,6,0,8,249,382,497,0,363,0,0,0,0,0,0,0,0,0],"split_type":[0,0,0,0,0,0,0,0,0,0,0,0,0,0,0,0,0,0,0,0,0],"sum_hessian":[5.858841E2,4.4836664E2,1.3751746E2,3.3442245E2,1.1394417E2,1.1924349E1,1.255931E2,9.86378E1,2.3578467E2,9.9782845E1,1.41613245E1,1.19972206E2,5.6208944E0,8.497053E1,1.3667273E1,1.8283623E2,5.294844E1,7.7721057E0,9.201074E1,3.0515776E0,1.1692063E2],"tree_param":{"num_deleted":"0","num_feature":"768","num_nodes":"21","size_leaf_vector":"0"}},{"base_weights":[-4.3317933E-2,-6.294031E-1,1.6345443E-1,3.9738017E-1,-9.844361E-1,2.7443248E-1,-1.1394176E0,-1.0744153E0,9.149957E-1,-1.1798131E0,8.6655444E-1,3.655266E-1,-1.1618152E0,1.0486104E0,4.6847668E-1,-7.2689843E-1,4.7280297E-1],"categories":[],"categories_nodes":[],"categories_segments":[],"categories_sizes":[],"default_left":[true,true,true,true,true,true,false,false,true,false,false,true,false,false,false,false,false],"id":9,"left_children":[1,3,5,7,9,11,-1,-1,13,-1,-1,15,-1,-1,-1,-1,-1],"loss_changes":[6.045434E1,4.7811916E1,5.3655334E1,2.69879E1,3.6082794E1,4.500897E1,0E0,0E0,1.047636E0,0E0,0E0,3.7986393E1,0E0,0E0,0E0,0E0,0E0],"parents":[2147483647,0,0,1,1,2,2,3,3,4,4,5,5,8,8,11,11],"right_children":[2,4,6,8,10,12,-1,-1,14,-1,-1,16,-1,-1,-1,-1,-1],"split_conditions":[-2.476744E-1,1.4741985E-1,7.9535544E-1,-2.3249568E-1,8.5553065E-2,5.4319453E-1,-3.418253E-1,-3.223246E-1,-6.7107934E-1,-3.5394394E-1,2.5996634E-1,-2.4206612E-1,-3.4854457E-1,3.1458315E-1,1.4054301E-1,-2.1806954E-1,1.4184089E-1],"split_indices":[129,493,278,556,175,662,0,0,155,0,0,67,0,0,0,0,0],"split_type":[0,0,0,0,0,0,0,0,0,0,0,0,0,0,0,0,0],"sum_hessian":[4.9700598E2,1.2908304E2,3.6792294E2,3.3134933E1,9.5948105E1,3.3977078E2,2.8152159E1,8.341341E0,2.4793592E1,8.711544E1,8.832667E0,3.2020712E2,1.9563658E1,1.8045353E1,6.7482386E0,2.81162E1,2.920909E2],"tree_param":{"num_deleted":"0","num_feature":"768","num_nodes":"17","size_leaf_vector":"0"}},{"base_weights":[-4.5311663E-2,-1.9706891E-1,6.9815475E-1,1.11826114E-1,-6.296065E-1,9.2932904E-1,-1.0609366E0,-5.979402E-1,4.1374952E-1,-9.2012846E-1,3.6994198E-1,9.943341E-1,1.6245914E-1,1.9181943E-1,-1.2124863E0,-1.1482643E0,6.018423E-1,5.544373E-1,-1.1521013E0,8.3209246E-1,-9.917239E-1,3.488793E-1,1.0329694E0],"categories":[],"categories_nodes":[],"categories_segments":[],"categories_sizes":[],"default_left":[true,true,true,true,true,true,false,true,true,true,true,true,false,false,false,false,false,false,false,false,false,false,false],"id":10,"left_children":[1,3,5,7,9,11,-1,13,15,17,19,21,-1,-1,-1,-1,-1,-1,-1,-1,-1,-1,-1],"loss_changes":[4.9466827E1,4.8687614E1,3.121521E1,4.591975E1,4.440696E1,3.140297E0,0E0,3.1301315E1,4.4795227E1,4.0954636E1,2.277936E1,1.1573944E0,0E0,0E0,0E0,0E0,0E0,0E0,0E0,0E0,0E0,0E0,0E0],"parents":[2147483647,0,0,1,1,2,2,3,3,4,4,5,5,7,7,8,8,9,9,10,10,11,11],"right_children":[2,4,6,8,10,12,-1,14,16,18,20,22,-1,-1,-1,-1,-1,-1,-1,-1,-1,-1,-1],"split_conditions":[2.2023678E-1,-3.5889316E-1,-2.437385E-1,-5.148513E-2,4.537739E-1,1.069452E-1,-3.18281E-1,2.0228042E-1,-4.6985757E-1,-7.7094674E-1,2.5581104E-1,-6.685658E-2,4.8737742E-2,5.754583E-2,-3.637459E-1,-3.444793E-1,1.8055269E-1,1.6633119E-1,-3.456304E-1,2.4962775E-1,-2.9751718E-1,1.046638E-1,3.098908E-1],"split_indices":[574,704,38,63,417,232,0,152,552,138,579,676,0,0,0,0,0,0,0,0,0,0,0],"split_type":[0,0,0,0,0,0,0,0,0,0,0,0,0,0,0,0,0,0,0,0,0,0,0],"sum_hessian":[4.362136E2,3.6287753E2,7.333606E1,2.1212836E2,1.5074918E2,6.523481E1,8.1012535E0,6.301389E1,1.4911447E2,1.1686224E2,3.3886932E1,5.986374E1,5.371068E0,2.7876883E1,3.5137005E1,1.54774475E1,1.3363702E2,1.5696339E1,1.0116591E2,2.5590433E1,8.296497E0,3.9473844E0,5.5916355E1],"tree_param":{"num_deleted":"0","num_feature":"768","num_nodes":"23","size_leaf_vector":"0"}},{"base_weights":[-4.4799685E-2,2.2443078E-1,-4.3135455E-1,-1.1683985E0,3.5407782E-1,-3.3278115E-2,-1.183347E0,5.298979E-1,-4.8816913E-1,2.3299833E-1,-1.1504256E0,-1.0641683E0,6.221753E-1,7.458501E-1,-1.2787076E0,4.4579104E-1,-1.1121542E0],"categories":[],"categories_nodes":[],"categories_segments":[],"categories_sizes":[],"default_left":[true,true,true,false,true,true,false,true,true,true,false,false,false,false,false,false,false],"id":11,"left_children":[1,3,5,-1,7,9,-1,11,13,15,-1,-1,-1,-1,-1,-1,-1],"loss_changes":[3.872302E1,4.00379E1,4.5676125E1,0E0,3.0099613E1,3.0278227E1,0E0,2.5255367E1,3.541162E1,2.4052761E1,0E0,0E0,0E0,0E0,0E0,0E0,0E0],"parents":[2147483647,0,0,1,1,2,2,4,4,5,5,7,7,8,8,9,9],"right_children":[2,4,6,-1,8,10,-1,12,14,16,-1,-1,-1,-1,-1,-1,-1],"split_conditions":[4.280131E-1,-1.2496221E-1,-5.080837E-3,-3.5051957E-1,-3.0287743E-2,1.7903322E-1,-3.550041E-1,1.7730418E-1,1.5273806E-1,-1.4855808E-1,-3.4512767E-1,-3.1925052E-1,1.8665259E-1,2.2375503E-1,-3.836123E-1,1.3373731E-1,-3.336463E-1],"split_indices":[153,63,328,0,164,441,0,372,16,436,0,0,0,0,0,0,0],"split_type":[0,0,0,0,0,0,0,0,0,0,0,0,0,0,0,0,0],"sum_hessian":[3.7014764E2,2.1843199E2,1.5171565E2,1.791838E1,2.0051361E2,9.988471E1,5.1830944E1,1.6619173E2,3.432188E1,8.129836E1,1.8586348E1,8.517741E0,1.57674E2,1.3423898E1,2.0897984E1,7.077146E1,1.0526902E1],"tree_param":{"num_deleted":"0","num_feature":"768","num_nodes":"17","size_leaf_vector":"0"}},{"base_weights":[-5.165181E-2,-7.09597E-1,8.701352E-2,5.706899E-1,-1.0686187E0,2.4007685E-1,-5.468904E-1,9.403245E-1,-5.0986502E-2,-1.2006009E0,5.443976E-1,3.4714562E-1,-8.2795763E-1,-1.1543494E0,3.8581073E-1,4.4761747E-1,-9.7375035E-1,2.6661226E-1,-1.0393082E0,-1.3980694E0,7.736643E-1],"categories":[],"categories_nodes":[],"categories_segments":[],"categories_sizes":[],"default_left":[true,true,true,true,true,true,true,false,false,false,false,true,true,false,true,false,false,false,false,false,false],"id":12,"left_children":[1,3,5,7,9,11,13,-1,-1,-1,-1,15,17,-1,19,-1,-1,-1,-1,-1,-1],"loss_changes":[2.922535E1,2.6236103E1,2.5834345E1,3.0035224E0,9.997257E0,2.4767742E1,2.9810226E1,0E0,0E0,0E0,0E0,2.6351458E1,4.8577833E0,0E0,1.5743581E1,0E0,0E0,0E0,0E0,0E0,0E0],"parents":[2147483647,0,0,1,1,2,2,3,3,4,4,5,5,6,6,11,11,12,12,14,14],"right_children":[2,4,6,8,10,12,14,-1,-1,-1,-1,16,18,-1,20,-1,-1,-1,-1,-1,-1],"split_conditions":[-2.9201107E-2,1.7286745E-1,-4.4667625E-1,2.8016892E-1,2.607665E-1,-6.6882715E-2,2.7558404E-1,2.8209737E-1,-1.5295952E-2,-3.6018026E-1,1.6331929E-1,2.2147158E-1,-1.3720402E-1,-3.4630483E-1,3.1570178E-1,1.3428524E-1,-2.921251E-1,7.998368E-2,-3.1179246E-1,-4.1942084E-1,2.320993E-1],"split_indices":[46,287,596,316,450,38,709,0,0,0,0,19,397,0,346,0,0,0,0,0,0],"split_type":[0,0,0,0,0,0,0,0,0,0,0,0,0,0,0,0,0,0,0,0,0],"sum_hessian":[3.1865656E2,5.475158E1,2.6390497E2,1.1861912E1,4.2889668E1,2.1307649E2,5.082848E1,7.1174664E0,4.7444453E0,3.988207E1,3.007602E0,1.9427563E2,1.880086E1,3.0637157E1,2.0191324E1,1.8115732E2,1.3118318E1,3.000421E0,1.5800438E1,3.1408372E0,1.7050488E1],"tree_param":{"num_deleted":"0","num_feature":"768","num_nodes":"21","size_leaf_vector":"0"}},{"base_weights":[-5.293501E-2,1.6855693E-1,-4.4597596E-1,3.5240483E-1,-5.063963E-1,8.7330125E-2,-8.457811E-1,4.7439384E-1,-6.659288E-1,-1.1400096E0,3.7733936E-1,-6.7102534E-1,5.3334075E-1,5.8447E-1,-1.1779612E0,-1.0284835E0,5.431451E-1,8.0752534E-1,-1.1167775E0,-1.0740824E0,7.905456E-1,5.682208E-1,-1.0463693E0,-4.2522812E-1,7.7548414E-1,-3.4560196E-2,9.1769487E-1],"categories":[],"categories_nodes":[],"categories_segments":[],"categories_sizes":[],"default_left":[true,true,true,true,true,true,true,true,true,false,true,true,true,true,false,false,false,false,false,false,false,false,false,false,false,false,false],"id":13,"left_children":[1,3,5,7,9,11,13,15,17,-1,19,21,23,25,-1,-1,-1,-1,-1,-1,-1,-1,-1,-1,-1,-1,-1],"loss_changes":[2.4684534E1,2.2703693E1,2.1856472E1,1.8111824E1,2.2419487E1,1.546979E1,2.847343E1,1.3837263E1,1.13587055E1,0E0,1.1134478E1,8.496728E0,6.9890547E0,2.4432917E0,0E0,0E0,0E0,0E0,0E0,0E0,0E0,0E0,0E0,0E0,0E0,0E0,0E0],"parents":[2147483647,0,0,1,1,2,2,3,3,4,4,5,5,6,6,7,7,8,8,10,10,11,11,12,12,13,13],"right_children":[2,4,6,8,10,12,14,16,18,-1,20,22,24,26,-1,-1,-1,-1,-1,-1,-1,-1,-1,-1,-1,-1,-1],"split_conditions":[2.685008E-1,-1.0807793E-1,-5.9489153E-2,-1.4985025E-1,5.428344E-1,-2.3393033E-1,-4.2564946E-1,-1.3118464E-1,-6.549872E-1,-3.420029E-1,-4.2104703E-1,-3.9287195E-1,-2.3341645E-2,3.465626E-1,-3.5338837E-1,-3.0854505E-1,1.6294354E-1,2.4225761E-1,-3.3503327E-1,-3.2222474E-1,2.3716368E-1,1.7046624E-1,-3.139108E-1,-1.2756844E-1,2.3264526E-1,-1.0368059E-2,2.7530846E-1],"split_indices":[488,387,451,124,133,556,426,369,65,0,573,758,620,85,0,0,0,0,0,0,0,0,0,0,0,0,0],"split_type":[0,0,0,0,0,0,0,0,0,0,0,0,0,0,0,0,0,0,0,0,0,0,0,0,0,0,0],"sum_hessian":[2.8168622E2,1.8052525E2,1.0116097E2,1.4225487E2,3.8270374E1,4.3678772E1,5.74822E1,1.2751379E2,1.4741085E1,2.2120565E1,1.6149809E1,1.5988644E1,2.7690126E1,1.0691001E1,4.67912E1,4.967459E0,1.22546326E2,3.2683642E0,1.1472721E1,3.2244103E0,1.2925398E1,3.5974233E0,1.239122E1,5.4316897E0,2.2258436E1,4.054767E0,6.6362343E0],"tree_param":{"num_deleted":"0","num_feature":"768","num_nodes":"27","size_leaf_vector":"0"}},{"base_weights":[-5.576067E-2,-2.6220438E-1,3.7565824E-1,3.6838722E-1,-4.9315208E-1,-1.0364648E0,5.3491175E-1,-9.239577E-1,6.3463944E-1,-8.0710244E-1,3.3003494E-2,-9.442394E-1,6.384488E-1,1.1227577E-1,9.285531E-1,3.303706E-1,-1.0248874E0,-9.1647434E-1,4.4763714E-1,7.195998E-1,-4.2631316E-1],"categories":[],"categories_nodes":[],"categories_segments":[],"categories_sizes":[],"default_left":[true,true,true,true,true,false,true,false,true,true,true,false,true,false,false,false,false,false,false,false,false],"id":14,"left_children":[1,3,5,7,9,-1,11,-1,13,15,17,-1,19,-1,-1,-1,-1,-1,-1,-1,-1],"loss_changes":[2.1513407E1,2.3951115E1,1.81474E1,1.5837877E1,1.9830833E1,0E0,1.1470453E1,0E0,5.629347E0,1.8949104E1,1.8426834E1,0E0,6.0887833E0,0E0,0E0,0E0,0E0,0E0,0E0,0E0,0E0],"parents":[2147483647,0,0,1,1,2,2,3,3,4,4,6,6,8,8,9,9,10,10,12,12],"right_children":[2,4,6,8,10,-1,12,-1,14,16,18,-1,20,-1,-1,-1,-1,-1,-1,-1,-1],"split_conditions":[-1.4398658E-1,-5.4356515E-1,-1.6340223E-1,-2.297027E-1,-3.1488535E-1,-3.1093946E-1,-2.8116357E-1,-2.7718732E-1,2.9496396E-1,-4.4052988E-1,2.928115E-2,-2.8327182E-1,1.524656E-1,3.3682734E-2,2.7856594E-1,9.9111184E-2,-3.0746624E-1,-2.749423E-1,1.3429114E-1,2.1587995E-1,-1.2789395E-1],"split_indices":[148,207,398,356,211,0,129,0,548,184,615,0,325,0,0,0,0,0,0,0,0],"split_type":[0,0,0,0,0,0,0,0,0,0,0,0,0,0,0,0,0,0,0,0,0],"sum_hessian":[2.3944475E2,1.6221394E2,7.723082E1,4.3324192E1,1.1888975E2,7.26883E0,6.996199E1,6.9790044E0,3.634519E1,7.412583E1,4.4763912E1,4.0456176E0,6.591637E1,1.3584277E1,2.276091E1,1.1828674E1,6.229716E1,1.3238495E1,3.1525417E1,6.154953E1,4.366839E0],"tree_param":{"num_deleted":"0","num_feature":"768","num_nodes":"21","size_leaf_vector":"0"}},{"base_weights":[-5.2423075E-2,-1.6999733E-1,6.018781E-1,2.5472552E-1,-4.4038522E-1,-4.9773443E-1,7.912961E-1,-9.4883454E-1,4.1281107E-1,3.7579817E-1,-7.2523785E-1,9.221708E-1,-1.7156476E-1,5.416189E-1,-9.0332437E-1,6.2974757E-1,-1.0315994E0,-9.056969E-1,2.4594344E-1,4.7893205E-1,9.6792674E-1],"categories":[],"categories_nodes":[],"categories_segments":[],"categories_sizes":[],"default_left":[true,true,true,true,true,false,true,false,true,true,true,true,false,false,false,false,false,false,false,false,false],"id":15,"left_children":[1,3,5,7,9,-1,11,-1,13,15,17,19,-1,-1,-1,-1,-1,-1,-1,-1,-1],"loss_changes":[1.6079971E1,2.0420105E1,7.029174E0,1.3600012E1,2.5478481E1,0E0,3.6313667E0,0E0,1.1009802E1,1.0909909E1,1.4367668E1,3.1698227E-2,0E0,0E0,0E0,0E0,0E0,0E0,0E0,0E0,0E0],"parents":[2147483647,0,0,1,1,2,2,3,3,4,4,6,6,8,8,9,9,10,10,11,11],"right_children":[2,4,6,8,10,-1,12,-1,14,16,18,20,-1,-1,-1,-1,-1,-1,-1,-1,-1],"split_conditions":[2.2023678E-1,-4.8467636E-1,2.215091E-1,3.550581E-1,-2.9904234E-1,-1.4932033E-1,-1.5509883E-1,-2.846504E-1,3.7396938E-1,4.238937E-1,4.7255236E-1,-4.3478024E-1,-5.146943E-2,1.6248567E-1,-2.7099732E-1,1.8892428E-1,-3.0947983E-1,-2.7170908E-1,7.378303E-2,1.4367962E-1,2.9037803E-1],"split_indices":[574,207,400,564,326,0,388,0,666,652,495,170,0,0,0,0,0,0,0,0,0],"split_type":[0,0,0,0,0,0,0,0,0,0,0,0,0,0,0,0,0,0,0,0,0],"sum_hessian":[2.0669357E2,1.7583685E2,3.0856714E1,6.842049E1,1.0741636E2,4.295089E0,2.6561626E1,7.362814E0,6.1057674E1,2.7707441E1,7.970892E1,2.3420506E1,3.141121E0,5.615078E1,4.9068975E0,2.3940233E1,3.7672074E0,6.7275604E1,1.2433318E1,3.2644832E0,2.0156023E1],"tree_param":{"num_deleted":"0","num_feature":"768","num_nodes":"21","size_leaf_vector":"0"}},{"base_weights":[-4.5371123E-2,1.07084334E-1,-5.1808286E-1,-8.686742E-1,2.0526494E-1,3.6503804E-1,-8.500522E-1,-1.0461345E0,-2.1353133E-1,2.9947746E-1,-1.0221541E0,7.1483696E-1,-3.1112435E-1,4.0316057E-1,-1.1160938E0,3.7629098E-1,-9.224072E-1,-1.2037311E0,-3.136741E-1],"categories":[],"categories_nodes":[],"categories_segments":[],"categories_sizes":[],"default_left":[true,true,true,true,true,true,true,false,false,true,false,false,false,false,true,false,false,false,false],"id":16,"left_children":[1,3,5,7,9,11,13,-1,-1,15,-1,-1,-1,-1,17,-1,-1,-1,-1],"loss_changes":[1.3245967E1,1.3516058E1,1.3445901E1,1.2786207E0,1.5027438E1,3.2831495E0,1.1407324E1,0E0,0E0,1.1516431E1,0E0,0E0,0E0,0E0,1.5474892E0,0E0,0E0,0E0,0E0],"parents":[2147483647,0,0,1,1,2,2,3,3,4,4,5,5,6,6,9,9,14,14],"right_children":[2,4,6,8,10,12,14,-1,-1,16,-1,-1,-1,-1,18,-1,-1,-1,-1],"split_conditions":[-3.6519134E-1,-2.791953E-2,-2.823179E-1,3.0163306E-1,-2.6536867E-2,-3.7239435E-1,-1.929785E-1,-3.1384036E-1,-6.40594E-2,5.4319453E-1,-3.0664623E-1,2.1445109E-1,-9.333731E-2,1.2094817E-1,2.6767194E-1,1.128873E-1,-2.7672216E-1,-3.6111933E-1,-9.410223E-2],"split_indices":[634,636,519,257,729,527,261,0,0,662,0,0,0,0,501,0,0,0,0],"split_type":[0,0,0,0,0,0,0,0,0,0,0,0,0,0,0,0,0,0,0],"sum_hessian":[1.8202968E2,1.3822414E2,4.3805546E1,1.1919144E1,1.26304985E2,1.1940701E1,3.1864845E1,8.909107E0,3.0100362E0,1.1800345E2,8.301536E0,7.831853E0,4.1088476E0,5.4897027E0,2.6375143E1,1.11675064E2,6.3283887E0,2.3327297E1,3.0478458E0],"tree_param":{"num_deleted":"0","num_feature":"768","num_nodes":"19","size_leaf_vector":"0"}},{"base_weights":[-4.9530786E-2,-1.2958804E-1,7.6743865E-1,-2.3392688E-2,-1.1433272E0,9.282535E-1,1.311694E-1,1.9393979E-1,-3.793457E-1,-2.8813803E-1,4.884019E-1,3.6211684E-2,-9.352656E-1],"categories":[],"categories_nodes":[],"categories_segments":[],"categories_sizes":[],"default_left":[true,true,true,true,false,false,false,true,true,false,false,false,false],"id":17,"left_children":[1,3,5,7,-1,-1,-1,9,11,-1,-1,-1,-1],"loss_changes":[1.0926116E1,1.6295425E1,1.4046717E0,1.0769431E1,0E0,0E0,0E0,1.2420816E1,1.2220658E1,0E0,0E0,0E0,0E0],"parents":[2147483647,0,0,1,1,2,2,3,3,7,7,8,8],"right_children":[2,4,6,8,-1,-1,-1,10,12,-1,-1,-1,-1],"split_conditions":[2.6363978E-1,2.2147158E-1,-5.9286773E-1,4.280131E-1,-3.4299818E-1,2.7847606E-1,3.935082E-2,-5.329819E-1,-7.884239E-1,-8.644141E-2,1.4652057E-1,1.0863505E-2,-2.805797E-1],"split_indices":[166,19,291,153,0,0,0,91,334,0,0,0,0],"split_type":[0,0,0,0,0,0,0,0,0,0,0,0,0],"sum_hessian":[1.645344E2,1.5061642E2,1.3917969E1,1.3726062E2,1.3355808E1,1.0743649E1,3.1743202E0,8.550773E1,5.1752884E1,3.2432476E1,5.3075256E1,3.0150131E1,2.1602753E1],"tree_param":{"num_deleted":"0","num_feature":"768","num_nodes":"13","size_leaf_vector":"0"}},{"base_weights":[-4.2043857E-2,8.01277E-2,-5.6560045E-1,1.4853226E-1,-9.6282864E-1,-1.0322212E0,4.9147543E-2,2.908277E-1,-3.7004095E-1,4.7512382E-1,-9.003158E-1,-8.713008E-1,3.541141E-1,-1.1252413E0,1.2762794E-1,1.0238072E-1,8.0493194E-1],"categories":[],"categories_nodes":[],"categories_segments":[],"categories_sizes":[],"default_left":[true,true,true,true,false,false,true,true,true,true,false,false,false,false,false,false,false],"id":18,"left_children":[1,3,5,7,-1,-1,9,11,13,15,-1,-1,-1,-1,-1,-1,-1],"loss_changes":[9.777992E0,9.007136E0,8.344423E0,8.775476E0,0E0,0E0,5.8597507E0,7.128791E0,9.814819E0,1.1377909E0,0E0,0E0,0E0,0E0,0E0,0E0,0E0],"parents":[2147483647,0,0,1,1,2,2,3,3,6,6,7,7,8,8,9,9],"right_children":[2,4,6,8,-1,-1,10,12,14,16,-1,-1,-1,-1,-1,-1,-1],"split_conditions":[-9.92771E-2,-1.19108334E-1,3.7263006E-1,-3.6519134E-1,-2.888486E-1,-3.0966637E-1,-8.303141E-2,1.3082458E-1,-1.2129782E-1,1.14787845E-2,-2.7009475E-1,-2.6139027E-1,1.0623423E-1,-3.375724E-1,3.8288385E-2,3.0714218E-2,2.4147959E-1],"split_indices":[387,124,310,634,0,0,105,205,299,758,0,0,0,0,0,0,0],"split_type":[0,0,0,0,0,0,0,0,0,0,0,0,0,0,0,0,0],"sum_hessian":[1.5115924E2,1.2324667E2,2.7912567E1,1.1646561E2,6.781064E0,1.5481973E1,1.2430594E1,9.1733345E1,2.4732265E1,8.925679E0,3.5049148E0,4.0781755E0,8.765517E1,9.323325E0,1.540894E1,4.805273E0,4.1204066E0],"tree_param":{"num_deleted":"0","num_feature":"768","num_nodes":"17","size_leaf_vector":"0"}},{"base_weights":[-4.7332484E-2,3.6745352E-1,-1.8369533E-1,-9.2538476E-1,5.305136E-1,-7.745899E-1,-2.3671554E-2,7.058172E-1,-3.3184204E-1,-1.0081158E0,3.1763178E-1,1.04271926E-1,-1.0201752E0,8.230278E-1,-1.0244955E-1,2.385463E-1,-6.797609E-1],"categories":[],"categories_nodes":[],"categories_segments":[],"categories_sizes":[],"default_left":[true,true,true,false,true,true,true,true,false,false,false,true,false,false,false,false,false],"id":19,"left_children":[1,3,5,-1,7,9,11,13,-1,-1,-1,15,-1,-1,-1,-1,-1],"loss_changes":[7.908074E0,7.791333E0,9.909259E0,0E0,4.9791555E0,6.018897E0,1.0771178E1,2.5858068E0,0E0,0E0,0E0,8.0617695E0,0E0,0E0,0E0,0E0,0E0],"parents":[2147483647,0,0,1,1,2,2,4,4,5,5,6,6,7,7,11,11],"right_children":[2,4,6,-1,8,10,12,14,-1,-1,-1,16,-1,-1,-1,-1,-1],"split_conditions":[3.1172287E-2,-1.8874669E-1,-7.600881E-2,-2.7761543E-1,5.4689556E-1,5.055233E-1,-2.5417203E-1,-7.2649014E-1,-9.955262E-2,-3.0243474E-1,9.5289536E-2,-4.4674128E-1,-3.0605257E-1,2.4690835E-1,-3.0734867E-2,7.156389E-2,-2.0392828E-1],"split_indices":[468,299,64,0,433,254,618,443,0,0,0,596,0,0,0,0,0],"split_type":[0,0,0,0,0,0,0,0,0,0,0,0,0,0,0,0,0],"sum_hessian":[1.3762059E2,3.36302E1,1.0399039E2,3.2429585E0,3.038724E1,2.1342358E1,8.2648026E1,2.5404434E1,4.9828053E0,1.7646416E1,3.6959426E0,7.403754E1,8.610493E0,2.2171043E1,3.2333906E0,6.380582E1,1.0231715E1],"tree_param":{"num_deleted":"0","num_feature":"768","num_nodes":"17","size_leaf_vector":"0"}},{"base_weights":[-4.7462955E-2,-2.9361326E-1,1.7294538E-1,5.899545E-2,-8.3550656E-1,3.8133153E-1,-6.881324E-1,3.033225E-1,-6.401793E-1,-1.0333647E0,1.3460177E-1,-2.435358E-1,5.6744665E-1,-1.0642715E0,3.762566E-1,5.713381E-1,-2.7091518E-1,-9.3846685E-1,3.351116E-2,-1.023172E0,5.545943E-1,-3.5995337E-1,6.63837E-1],"categories":[],"categories_nodes":[],"categories_segments":[],"categories_sizes":[],"default_left":[true,true,true,true,true,true,true,true,true,false,false,true,true,false,false,false,false,false,false,false,false,false,false],"id":20,"left_children":[1,3,5,7,9,11,13,15,17,-1,-1,19,21,-1,-1,-1,-1,-1,-1,-1,-1,-1,-1],"loss_changes":[6.842871E0,1.1420778E1,1.2227026E1,6.512599E0,4.6546936E0,6.4566007E0,5.7448187E0,4.4775925E0,2.0208082E0,0E0,0E0,8.76127E0,4.0078926E0,0E0,0E0,0E0,0E0,0E0,0E0,0E0,0E0,0E0,0E0],"parents":[2147483647,0,0,1,1,2,2,3,3,4,4,5,5,6,6,7,7,8,8,11,11,12,12],"right_children":[2,4,6,8,10,12,14,16,18,-1,-1,20,22,-1,-1,-1,-1,-1,-1,-1,-1,-1,-1],"split_conditions":[-7.991345E-2,-2.1725276E-1,-1.863673E-1,-7.5165963E-1,4.777679E-1,1.7670947E-1,1.4060198E-1,-1.3820419E-1,2.0018019E-1,-3.1000942E-1,4.0380534E-2,4.079483E-2,-2.4986401E-1,-3.1928146E-1,1.1287698E-1,1.7140144E-1,-8.1274554E-2,-2.8154007E-1,1.0053349E-2,-3.069516E-1,1.6637829E-1,-1.0798602E-1,1.9915111E-1],"split_indices":[240,324,426,334,254,85,271,461,367,0,0,620,229,0,0,0,0,0,0,0,0,0,0],"split_type":[0,0,0,0,0,0,0,0,0,0,0,0,0,0,0,0,0,0,0,0,0,0,0],"sum_hessian":[1.241916E2,5.851281E1,6.567879E1,3.598717E1,2.2525639E1,5.3329792E1,1.2348993E1,2.7087572E1,8.899599E0,1.8655546E1,3.870091E0,1.2168034E1,4.116176E1,9.124606E0,3.2243876E0,1.8471409E1,8.616164E0,5.8960166E0,3.0035825E0,6.012697E0,6.155336E0,3.6179602E0,3.75438E1],"tree_param":{"num_deleted":"0","num_feature":"768","num_nodes":"23","size_leaf_vector":"0"}},{"base_weights":[-5.116314E-2,3.8359013E-1,-1.7997698E-1,-5.2123684E-1,5.576886E-1,1.1314514E-2,-6.4524263E-1,-1.6478859E-1,7.32948E-1,5.514255E-1,-2.3097503E-1,2.858019E-1,-9.2869335E-1,8.7843585E-1,2.9453465E-1,-2.2227317E-1,7.514993E-1,1.8203421E-3,-9.2728716E-1,-1.05551E0,-1.9045393E-1],"categories":[],"categories_nodes":[],"categories_segments":[],"categories_sizes":[],"default_left":[true,true,true,false,true,true,true,false,true,true,true,false,true,false,false,false,false,false,false,false,false],"id":21,"left_children":[1,3,5,-1,7,9,11,-1,13,15,17,-1,19,-1,-1,-1,-1,-1,-1,-1,-1],"loss_changes":[6.1159143E0,4.2287865E0,7.481315E0,0E0,2.8365932E0,8.0435705E0,6.7269373E0,0E0,8.53961E-1,3.1125288E0,6.885041E0,0E0,1.5782585E0,0E0,0E0,0E0,0E0,0E0,0E0,0E0,0E0],"parents":[2147483647,0,0,1,1,2,2,4,4,5,5,6,6,8,8,9,9,10,10,12,12],"right_children":[2,4,6,-1,8,10,12,-1,14,16,18,-1,20,-1,-1,-1,-1,-1,-1,-1,-1],"split_conditions":[-5.1953224E-3,5.257997E-2,5.910103E-2,-1.5637106E-1,-1.1584602E-1,3.8064754E-1,-3.941009E-1,-4.943658E-2,-1.7821309E-1,9.170014E-2,2.0197408E-1,8.5740566E-2,-2.6404718E-1,2.6353076E-1,8.83604E-2,-6.668195E-2,2.254498E-1,5.4610264E-4,-2.7818617E-1,-3.16653E-1,-5.713618E-2],"split_indices":[325,295,141,0,602,591,658,0,343,365,512,0,138,0,0,0,0,0,0,0,0],"split_type":[0,0,0,0,0,0,0,0,0,0,0,0,0,0,0,0,0,0,0,0,0],"sum_hessian":[1.0697562E2,2.3999207E1,8.297641E1,3.550835E0,2.0448372E1,5.949219E1,2.3484219E1,4.0036693E0,1.6444702E1,1.8028107E1,4.1464085E1,5.4790397E0,1.8005178E1,1.1593664E1,4.851038E0,3.6813037E0,1.4346802E1,3.1822409E1,9.641678E0,1.4998867E1,3.006311E0],"tree_param":{"num_deleted":"0","num_feature":"768","num_nodes":"21","size_leaf_vector":"0"}},{"base_weights":[-4.4630744E-2,-1.1546929E-1,6.851701E-1,-3.190642E-2,-9.7969526E-1,8.2907134E-1,3.0678254E-1,8.085639E-2,-6.60416E-1,-6.0687006E-1,2.0112815E-1,3.3769393E-1,-1.02818E0],"categories":[],"categories_nodes":[],"categories_segments":[],"categories_sizes":[],"default_left":[true,true,true,true,false,false,false,true,true,false,false,false,false],"id":22,"left_children":[1,3,5,7,-1,-1,-1,9,11,-1,-1,-1,-1],"loss_changes":[5.1244917E0,6.4548693E0,2.2367668E-1,5.9308033E0,0E0,0E0,0E0,6.011709E0,5.017915E0,0E0,0E0,0E0,0E0],"parents":[2147483647,0,0,1,1,2,2,3,3,7,7,8,8],"right_children":[2,4,6,8,-1,-1,-1,10,12,-1,-1,-1,-1],"split_conditions":[2.6363978E-1,2.2147158E-1,4.3078226E-1,-3.0208725E-1,-2.939086E-1,2.487214E-1,9.2034765E-2,-1.16906956E-1,-1.24329925E-1,-1.8206102E-1,6.033845E-2,1.0130818E-1,-3.08454E-1],"split_indices":[166,19,305,692,0,0,0,22,750,0,0,0,0],"split_type":[0,0,0,0,0,0,0,0,0,0,0,0,0],"sum_hessian":[9.6593185E1,8.881416E1,7.7790194E0,8.192926E1,6.884903E0,4.7728386E0,3.0061808E0,7.020493E1,1.1724328E1,9.847885E0,6.0357048E1,3.1788113E0,8.545516E0],"tree_param":{"num_deleted":"0","num_feature":"768","num_nodes":"13","size_leaf_vector":"0"}},{"base_weights":[-4.0813416E-2,1.265558E-1,-3.3874664E-1,-2.2564366E-1,3.4599453E-1,-8.644485E-1,6.466683E-2,2.8120172E-1,-7.5957704E-1,5.121825E-1,-2.2913714E-1,-9.746098E-1,-3.341334E-1,-8.287717E-1,3.1742272E-1,-2.104714E-1,5.258049E-1,-1.5136226E-1,-9.53721E-1,-1.8765707E-1,6.645528E-1,-8.961136E-1,3.9717063E-1,5.049866E-1,-3.5193315E-1],"categories":[],"categories_nodes":[],"categories_segments":[],"categories_sizes":[],"default_left":[true,true,true,true,true,true,true,true,true,true,true,false,false,false,true,false,false,false,false,false,false,false,false,false,false],"id":23,"left_children":[1,3,5,7,9,11,13,15,17,19,21,-1,-1,-1,23,-1,-1,-1,-1,-1,-1,-1,-1,-1,-1],"loss_changes":[4.59236E0,4.649295E0,7.073407E0,6.5218725E0,3.6381793E0,5.1775455E-1,4.7011147E0,1.6366254E0,1.2279825E0,3.2051244E0,4.0941277E0,0E0,0E0,0E0,2.191761E0,0E0,0E0,0E0,0E0,0E0,0E0,0E0,0E0,0E0,0E0],"parents":[2147483647,0,0,1,1,2,2,3,3,4,4,5,5,6,6,7,7,8,8,9,9,10,10,14,14],"right_children":[2,4,6,8,10,12,14,16,18,20,22,-1,-1,-1,24,-1,-1,-1,-1,-1,-1,-1,-1,-1,-1],"split_conditions":[5.5480456E-1,2.6734525E-1,2.6271385E-1,-3.114871E-2,-3.6508548E-1,3.443723E-2,2.2707116E-3,1.9054748E-1,-5.0050966E-2,5.471436E-1,1.9754407E-1,-2.9238296E-1,-1.0024002E-1,-2.4863152E-1,1.07842855E-1,-6.314143E-2,1.5774147E-1,-4.5408677E-2,-2.861163E-1,-5.6297123E-2,1.9936585E-1,-2.6883408E-1,1.191512E-1,1.5149598E-1,-1.0557995E-1],"split_indices":[433,372,4,179,634,500,102,501,338,357,52,0,0,0,643,0,0,0,0,0,0,0,0,0,0],"split_type":[0,0,0,0,0,0,0,0,0,0,0,0,0,0,0,0,0,0,0,0,0,0,0,0,0],"sum_hessian":[9.0236404E1,5.8146698E1,3.2089706E1,2.2310322E1,3.5836372E1,1.34368515E1,1.8652853E1,1.1688322E1,1.0622E1,2.7887543E1,7.9488306E0,1.0432032E1,3.0048192E0,3.6107337E0,1.504212E1,3.9294112E0,7.758911E0,3.0007808E0,7.621219E0,4.9447293E0,2.2942814E1,3.640815E0,4.3080153E0,1.1941492E1,3.1006274E0],"tree_param":{"num_deleted":"0","num_feature":"768","num_nodes":"25","size_leaf_vector":"0"}},{"base_weights":[-4.6856098E-2,-1.5000649E-1,4.2012435E-1,1.4182869E-1,-4.0051034E-1,-2.0370917E-1,6.3009596E-1,3.292104E-1,-9.336877E-1,-8.000901E-1,2.2176662E-2,2.5695792E-1,8.095859E-1,-4.21292E-1,5.084729E-1,1.2356148E-1,-9.996657E-1,3.255852E-1,-6.5510786E-1],"categories":[],"categories_nodes":[],"categories_segments":[],"categories_sizes":[],"default_left":[true,true,true,true,true,false,true,true,false,true,true,false,false,false,false,false,false,false,false],"id":24,"left_children":[1,3,5,7,9,-1,11,13,-1,15,17,-1,-1,-1,-1,-1,-1,-1,-1],"loss_changes":[3.9310122E0,4.9189796E0,2.0658324E0,6.647288E0,6.106515E0,0E0,5.495081E-1,3.9180486E0,0E0,3.5445805E0,4.013199E0,0E0,0E0,0E0,0E0,0E0,0E0,0E0,0E0],"parents":[2147483647,0,0,1,1,2,2,3,3,4,4,6,6,7,7,9,9,10,10],"right_children":[2,4,6,8,10,-1,12,14,-1,16,18,-1,-1,-1,-1,-1,-1,-1,-1],"split_conditions":[1.9678216E-1,3.5297066E-1,3.570336E-2,-6.478177E-2,9.543349E-3,-6.1112754E-2,1.13273054E-1,-2.4776646E-1,-2.801063E-1,-1.5343069E-1,-1.2324048E-1,7.708738E-2,2.4287578E-1,-1.2638761E-1,1.5254188E-1,3.7068445E-2,-2.9989973E-1,9.767556E-2,-1.9653237E-1],"split_indices":[574,20,369,676,63,0,764,129,0,273,143,0,0,0,0,0,0,0,0],"split_type":[0,0,0,0,0,0,0,0,0,0,0,0,0,0,0,0,0,0,0],"sum_hessian":[7.930004E1,6.550872E1,1.3791321E1,3.0458555E1,3.505017E1,3.4804873E0,1.0310833E1,2.6530233E1,3.9283216E0,1.7558594E1,1.7491575E1,4.1386585E0,6.1721745E0,4.8548255E0,2.1675407E1,3.1874948E0,1.4371099E1,1.2438624E1,5.052951E0],"tree_param":{"num_deleted":"0","num_feature":"768","num_nodes":"19","size_leaf_vector":"0"}},{"base_weights":[-4.6949532E-2,-1.806911E-1,3.1840235E-1,4.455362E-2,-5.649043E-1,-2.9962152E-1,4.7291893E-1,-4.1620955E-1,3.2541144E-1,-8.5411805E-1,1.0948748E-1,5.915378E-1,-2.1220226E-2,-9.3313E-1,1.8067512E-1,4.7600976E-1,-3.3700052E-1,-9.6849227E-1,-3.3092853E-1,1.554978E-1,7.111485E-1],"categories":[],"categories_nodes":[],"categories_segments":[],"categories_sizes":[],"default_left":[true,true,true,true,true,false,true,true,true,true,false,true,false,false,false,false,false,false,false,false,false],"id":25,"left_children":[1,3,5,7,9,-1,11,13,15,17,-1,19,-1,-1,-1,-1,-1,-1,-1,-1,-1],"loss_changes":[3.544557E0,4.60137E0,2.0024438E0,4.5692983E0,3.919488E0,0E0,9.489646E-1,4.3074436E0,2.3399467E0,5.078039E-1,0E0,5.6314945E-1,0E0,0E0,0E0,0E0,0E0,0E0,0E0,0E0,0E0],"parents":[2147483647,0,0,1,1,2,2,3,3,4,4,6,6,7,7,8,8,9,9,11,11],"right_children":[2,4,6,8,10,-1,12,14,16,18,-1,20,-1,-1,-1,-1,-1,-1,-1,-1,-1],"split_conditions":[4.7069058E-1,2.504754E-1,3.2019484E-1,6.4663246E-2,-5.669017E-2,-8.988646E-2,7.8277963E-1,1.4917976E-1,3.3007288E-1,1.2052395E0,3.2846246E-2,6.051781E-1,-6.366068E-3,-2.7993903E-1,5.4202538E-2,1.4280294E-1,-1.0110016E-1,-2.905477E-1,-9.927856E-2,4.6649344E-2,2.1334456E-1],"split_indices":[448,488,724,561,751,0,560,574,16,752,0,59,0,0,0,0,0,0,0,0,0],"split_type":[0,0,0,0,0,0,0,0,0,0,0,0,0,0,0,0,0,0,0,0,0],"sum_hessian":[7.0363686E1,5.187839E1,1.8485292E1,3.3262383E1,1.861601E1,3.5094333E0,1.497586E1,1.2414224E1,2.0848158E1,1.284214E1,5.77387E0,1.1917853E1,3.058006E0,6.350854E0,6.0633693E0,1.7215616E1,3.632543E0,9.8399105E0,3.0022297E0,3.0605764E0,8.857277E0],"tree_param":{"num_deleted":"0","num_feature":"768","num_nodes":"21","size_leaf_vector":"0"}},{"base_weights":[-4.6475776E-2,4.7027376E-1,-1.3428767E-1,7.205102E-1,-2.9843021E-2,-4.6844098E-1,9.9210545E-2,-9.5442754E-1,-5.1527288E-2,-6.560403E-1,2.203066E-1,6.5602654E-1,-3.335526E-1,3.2640445E-1,-5.3777426E-1],"categories":[],"categories_nodes":[],"categories_segments":[],"categories_sizes":[],"default_left":[true,true,true,false,false,true,true,false,true,false,true,false,false,false,false],"id":26,"left_children":[1,3,5,-1,-1,7,9,-1,11,-1,13,-1,-1,-1,-1],"loss_changes":[2.9934673E0,1.2231591E0,4.413921E0,0E0,0E0,4.651434E0,3.2335882E0,0E0,2.9215722E0,0E0,2.576963E0,0E0,0E0,0E0,0E0],"parents":[2147483647,0,0,1,1,2,2,5,5,6,6,8,8,10,10],"right_children":[2,4,6,-1,-1,8,10,-1,12,-1,14,-1,-1,-1,-1],"split_conditions":[1.9572909E-1,1.8496743E-1,2.4148294E-1,2.1615307E-1,-8.952906E-3,-8.01325E-2,6.654361E-2,-2.863283E-1,-5.589217E-1,-1.9681211E-1,-2.8981456E-1,1.9680797E-1,-1.0006578E-1,9.792134E-2,-1.6133228E-1],"split_indices":[518,486,4,0,0,569,19,0,207,0,704,0,0,0,0],"split_type":[0,0,0,0,0,0,0,0,0,0,0,0,0,0,0],"sum_hessian":[6.3577465E1,8.601931E0,5.4975533E1,5.4395404E0,3.1623902E0,2.2199793E1,3.277574E1,9.655423E0,1.254437E1,3.9186177E0,2.8857124E1,3.1971457E0,9.347223E0,2.5813768E1,3.0433552E0],"tree_param":{"num_deleted":"0","num_feature":"768","num_nodes":"15","size_leaf_vector":"0"}},{"base_weights":[-4.2762227E-2,1.11743614E-1,-3.3381742E-1,2.0084889E-1,-6.37732E-1,-6.235304E-1,1.3910626E-1,2.9352275E-1,-5.7251245E-1,-5.018974E-2,-9.138052E-1,4.5907587E-1,-3.0753186E-1,1.3751271E-1,7.136526E-1],"categories":[],"categories_nodes":[],"categories_segments":[],"categories_sizes":[],"default_left":[true,true,true,true,false,true,true,true,false,false,false,false,false,false,false],"id":27,"left_children":[1,3,5,7,-1,9,11,13,-1,-1,-1,-1,-1,-1,-1],"loss_changes":[2.6896596E0,2.7511282E0,2.9233592E0,2.738466E0,0E0,2.1211653E0,1.3820004E0,2.0443635E0,0E0,0E0,0E0,0E0,0E0,0E0,0E0],"parents":[2147483647,0,0,1,1,2,2,3,3,5,5,6,6,7,7],"right_children":[2,4,6,8,-1,10,12,14,-1,-1,-1,-1,-1,-1,-1],"split_conditions":[5.5480456E-1,5.0686836E-1,-1.2905684E-1,-3.95897E-1,-1.9131961E-1,1.7422295E-1,-2.8077978E-1,2.7429488E-1,-1.7175373E-1,-1.5056923E-2,-2.7414158E-1,1.3772276E-1,-9.225956E-2,4.1253816E-2,2.1409579E-1],"split_indices":[433,15,385,107,0,474,490,709,0,0,0,0,0,0,0],"split_type":[0,0,0,0,0,0,0,0,0,0,0,0,0,0,0],"sum_hessian":[5.7980953E1,3.8277515E1,1.9703438E1,3.4864487E1,3.4130301E0,1.2020949E1,7.6824894E0,3.1687725E1,3.1767614E0,4.4346633E0,7.5862865E0,4.4597187E0,3.2227705E0,2.4075058E1,7.612665E0],"tree_param":{"num_deleted":"0","num_feature":"768","num_nodes":"15","size_leaf_vector":"0"}},{"base_weights":[-4.1341666E-2,-3.1204385E-1,1.0205409E-1,-8.083165E-1,1.1417196E-1,-3.2343155E-1,2.238205E-1,4.8665327E-1,-4.1233206E-1,-7.6577723E-1,2.5632796E-1,3.1320477E-1,-3.5427588E-1,2.2989371E-1,6.221558E-1,4.2069075E-1,-1.9447236E-1],"categories":[],"categories_nodes":[],"categories_segments":[],"categories_sizes":[],"default_left":[true,true,true,false,true,true,true,true,false,false,false,true,false,false,false,false,false],"id":28,"left_children":[1,3,5,-1,7,9,11,13,-1,-1,-1,15,-1,-1,-1,-1,-1],"loss_changes":[2.1512218E0,4.1435246E0,1.9606203E0,0E0,2.3932106E0,2.3808365E0,1.605703E0,1.0073435E-1,0E0,0E0,0E0,1.4778934E0,0E0,0E0,0E0,0E0,0E0],"parents":[2147483647,0,0,1,1,2,2,4,4,5,5,6,6,7,7,11,11],"right_children":[2,4,6,-1,8,10,12,14,-1,-1,-1,16,-1,-1,-1,-1,-1],"split_conditions":[-9.999399E-2,3.0354863E-1,-7.322307E-2,-2.4249497E-1,-7.257096E-2,5.5598044E-1,3.37213E-3,-2.7918875E-1,-1.2369962E-1,-2.2973318E-1,7.689839E-2,-1.7388564E-1,-1.0628277E-1,6.896812E-2,1.8664674E-1,1.2620723E-1,-5.8341708E-2],"split_indices":[737,258,481,0,391,231,686,703,0,0,0,426,0,0,0,0,0],"split_type":[0,0,0,0,0,0,0,0,0,0,0,0,0,0,0,0,0],"sum_hessian":[5.359842E1,1.8153042E1,3.5445377E1,7.9730134E0,1.0180029E1,7.5182743E0,2.7927101E1,6.006413E0,4.173616E0,4.082528E0,3.435746E0,2.4584154E1,3.3429468E0,3.0063584E0,3.0000544E0,2.0430029E1,4.154126E0],"tree_param":{"num_deleted":"0","num_feature":"768","num_nodes":"17","size_leaf_vector":"0"}},{"base_weights":[-3.964814E-2,-1.7518166E-1,2.2136234E-1,-3.1411862E-1,3.2809776E-1,-1.16583705E-1,5.3581375E-1,-9.024517E-1,-8.894057E-2,-1.3410285E-1,6.500917E-1,-6.0994285E-1,3.1886685E-1,7.523891E-1,6.4615175E-2,2.1347067E-1,-4.182873E-1],"categories":[],"categories_nodes":[],"categories_segments":[],"categories_sizes":[],"default_left":[true,true,true,true,true,true,true,false,true,false,false,false,false,false,false,false,false],"id":29,"left_children":[1,3,5,7,9,11,13,-1,15,-1,-1,-1,-1,-1,-1,-1,-1],"loss_changes":[1.8133534E0,2.4508786E0,1.9314026E0,3.473313E0,1.2410374E0,2.1920455E0,8.9931774E-1,0E0,2.1318698E0,0E0,0E0,0E0,0E0,0E0,0E0,0E0,0E0],"parents":[2147483647,0,0,1,1,2,2,3,3,4,4,5,5,6,6,8,8],"right_children":[2,4,6,8,10,12,14,-1,16,-1,-1,-1,-1,-1,-1,-1,-1],"split_conditions":[-5.229E-1,7.428473E-2,2.941888E-1,-9.999399E-2,6.246432E-1,4.5150858E-1,-1.1317151E-1,-2.7073553E-1,-3.7893528E-1,-4.0230855E-2,1.9502752E-1,-1.8298286E-1,9.566006E-2,2.2571672E-1,1.9384554E-2,6.4041205E-2,-1.254862E-1],"split_indices":[194,446,346,737,412,617,183,0,527,0,0,0,0,0,0,0,0],"split_type":[0,0,0,0,0,0,0,0,0,0,0,0,0,0,0,0,0],"sum_hessian":[4.9163708E1,3.2576645E1,1.6587067E1,2.5823563E1,6.7530804E0,8.298153E0,8.288913E0,6.3153725E0,1.950819E1,3.0124438E0,3.7406366E0,3.702527E0,4.595626E0,5.269949E0,3.018964E0,1.0353387E1,9.154803E0],"tree_param":{"num_deleted":"0","num_feature":"768","num_nodes":"17","size_leaf_vector":"0"}},{"base_weights":[-3.114975E-2,-1.0969628E-1,3.813391E-1,1.4459269E-1,-2.9283446E-1,-2.0530269E-2,6.638026E-1,-8.438069E-2,4.6906543E-1,-6.6930187E-1,9.073003E-3,2.5982988E-1,-4.9351317E-1,6.715714E-1,1.3736373E-1,-9.016847E-1,-7.067269E-2,-2.0825663E-1,5.5285037E-1],"categories":[],"categories_nodes":[],"categories_segments":[],"categories_sizes":[],"default_left":[true,true,true,true,true,false,false,true,true,true,true,false,false,false,false,false,false,false,false],"id":30,"left_children":[1,3,5,7,9,-1,-1,11,13,15,17,-1,-1,-1,-1,-1,-1,-1,-1],"loss_changes":[1.5428169E0,1.8908625E0,8.801856E-1,1.3239968E0,2.6662965E0,0E0,0E0,1.6749468E0,3.9843023E-1,1.3871841E0,1.7667551E0,0E0,0E0,0E0,0E0,0E0,0E0,0E0,0E0],"parents":[2147483647,0,0,1,1,2,2,3,3,4,4,7,7,8,8,9,9,10,10],"right_children":[2,4,6,8,10,-1,-1,12,14,16,18,-1,-1,-1,-1,-1,-1,-1,-1],"split_conditions":[2.2023678E-1,-4.8467636E-1,-4.3868616E-2,2.5781375E-1,1.4152998E-1,-6.1590807E-3,1.991408E-1,1.7427993E-1,-3.013268E-1,1.7792778E-1,1.7093924E-1,7.7948965E-2,-1.4805396E-1,2.0147142E-1,4.120912E-2,-2.7050543E-1,-2.1201808E-2,-6.2476993E-2,1.6585511E-1],"split_indices":[574,207,649,548,311,0,0,493,184,716,680,0,0,0,0,0,0,0,0],"split_type":[0,0,0,0,0,0,0,0,0,0,0,0,0,0,0,0,0,0,0],"sum_hessian":[4.5327328E1,3.8693363E1,6.6339645E0,1.628792E1,2.2405445E1,3.1209753E0,3.5129895E0,9.983046E0,6.3048735E0,9.429855E0,1.297559E1,5.619871E0,4.363175E0,3.2786274E0,3.0262463E0,6.4282236E0,3.0016313E0,9.711319E0,3.2642708E0],"tree_param":{"num_deleted":"0","num_feature":"768","num_nodes":"19","size_leaf_vector":"0"}},{"base_weights":[-2.0750599E-2,-3.7676513E-1,7.710553E-2,-6.929683E-1,5.54776E-2,2.2327058E-1,-1.6268484E-1,-1.5037355E-1,3.4441558E-1,-7.46817E-1,1.1045647E-1,4.7371975E-1,-1.7786609E-1,3.3684966E-1,-3.2353166E-1],"categories":[],"categories_nodes":[],"categories_segments":[],"categories_sizes":[],"default_left":[true,true,true,false,false,true,true,false,true,false,true,false,false,false,false],"id":31,"left_children":[1,3,5,-1,-1,7,9,-1,11,-1,13,-1,-1,-1,-1],"loss_changes":[1.5286139E0,1.330071E0,1.2487857E0,0E0,0E0,1.0437332E0,2.2650383E0,0E0,1.2223616E0,0E0,1.110369E0,0E0,0E0,0E0,0E0],"parents":[2147483647,0,0,1,1,2,2,5,5,6,6,8,8,10,10],"right_children":[2,4,6,-1,-1,8,10,-1,12,-1,14,-1,-1,-1,-1],"split_conditions":[-2.476744E-1,2.400536E-1,-3.278014E-2,-2.078905E-1,1.664328E-2,-1.2044839E-1,-1.12498544E-1,-4.5112066E-2,-1.5040699E-1,-2.2404511E-1,-8.551468E-2,1.4211594E-1,-5.335983E-2,1.010549E-1,-9.70595E-2],"split_indices":[129,466,665,0,0,626,343,0,239,0,721,0,0,0,0],"split_type":[0,0,0,0,0,0,0,0,0,0,0,0,0,0,0],"sum_hessian":[4.2043644E1,8.450247E0,3.35934E1,4.5318336E0,3.9184132E0,2.0914055E1,1.2679342E1,5.0615597E0,1.5852495E1,3.4873078E0,9.192035E0,1.2781171E1,3.0713246E0,6.187898E0,3.0041363E0],"tree_param":{"num_deleted":"0","num_feature":"768","num_nodes":"15","size_leaf_vector":"0"}},{"base_weights":[-2.5438422E-2,1.7004092E-1,-1.7796214E-1,5.9464264E-1,-1.553855E-2,-3.2798022E-1,3.7674147E-1,2.0737697E-1,-4.010743E-1,9.44208E-2,-6.228939E-1,-1.845702E-2,4.4862917E-1,2.9776627E-1,-1.5918796E-1,3.351275E-2,-8.693666E-1],"categories":[],"categories_nodes":[],"categories_segments":[],"categories_sizes":[],"default_left":[true,true,true,false,true,true,false,true,false,true,true,false,false,false,false,false,false],"id":32,"left_children":[1,3,5,-1,7,9,-1,11,-1,13,15,-1,-1,-1,-1,-1,-1],"loss_changes":[1.2281617E0,1.4370854E0,2.0422654E0,0E0,1.2505977E0,2.3862307E0,0E0,5.1314044E-1,0E0,4.883132E-1,1.8303943E0,0E0,0E0,0E0,0E0,0E0,0E0],"parents":[2147483647,0,0,1,1,2,2,4,4,5,5,7,7,9,9,10,10],"right_children":[2,4,6,-1,8,10,-1,12,-1,14,16,-1,-1,-1,-1,-1,-1],"split_conditions":[-1.2882167E-1,4.345231E-1,-9.75847E-2,1.783928E-1,-9.8148584E-2,-5.444199E-1,1.1302245E-1,1.9629386E-1,-1.20322295E-1,5.4964566E-1,6.304015E-2,-5.537106E-3,1.3458876E-1,8.932988E-2,-4.775639E-2,1.0053825E-2,-2.6081E-1],"split_indices":[611,480,632,0,238,207,0,709,0,433,468,0,0,0,0,0,0],"split_type":[0,0,0,0,0,0,0,0,0,0,0,0,0,0,0,0,0],"sum_hessian":[3.917748E1,1.7120474E1,2.2057005E1,4.536596E0,1.2583878E1,1.7683327E1,4.373678E0,8.266386E0,4.317491E0,7.5497527E0,1.0133574E1,4.7466164E0,3.51977E0,4.0934644E0,3.4562883E0,3.0021822E0,7.131391E0],"tree_param":{"num_deleted":"0","num_feature":"768","num_nodes":"17","size_leaf_vector":"0"}},{"base_weights":[-1.9459663E-2,-2.1959303E-1,1.260263E-1,-6.016043E-1,3.144553E-2,2.4608943E-1,-3.3317524E-1,-1.8503179E-1,2.7500966E-1,4.302498E-1,-2.0213513E-2,6.544526E-1,1.964758E-1,-4.8476392E-1,3.523253E-1],"categories":[],"categories_nodes":[],"categories_segments":[],"categories_sizes":[],"default_left":[true,true,true,false,true,true,false,false,false,true,true,false,false,false,false],"id":33,"left_children":[1,3,5,-1,7,9,-1,-1,-1,11,13,-1,-1,-1,-1],"loss_changes":[1.1113061E0,1.5562694E0,1.3051817E0,0E0,6.110519E-1,8.994458E-1,0E0,0E0,0E0,4.3654537E-1,1.6211543E0,0E0,0E0,0E0,0E0],"parents":[2147483647,0,0,1,1,2,2,4,4,5,5,9,9,10,10],"right_children":[2,4,6,-1,8,10,-1,-1,-1,12,14,-1,-1,-1,-1],"split_conditions":[2.6690865E-1,6.0001266E-1,7.437137E-1,-1.8048128E-1,-1.4570184E-1,-2.9856974E-1,-9.995258E-2,-5.5509537E-2,8.25029E-2,-4.9751702E-1,-2.803052E-1,1.9633579E-1,5.8942743E-2,-1.4542918E-1,1.05697595E-1],"split_indices":[372,412,288,0,539,184,0,0,0,506,715,0,0,0,0],"split_type":[0,0,0,0,0,0,0,0,0,0,0,0,0,0,0],"sum_hessian":[3.6216972E1,1.5030855E1,2.1186117E1,5.406776E0,9.624079E0,1.7162811E1,4.0233064E0,5.222601E0,4.4014783E0,9.782284E0,7.3805275E0,4.0748024E0,5.707481E0,3.1505694E0,4.229958E0],"tree_param":{"num_deleted":"0","num_feature":"768","num_nodes":"15","size_leaf_vector":"0"}},{"base_weights":[-1.4472234E-2,4.5483593E-2,-4.8748115E-1,-3.489807E-1,1.17450126E-1,-2.7747738E-1,1.8783559E-1,1.6231103E-2,4.135986E-1],"categories":[],"categories_nodes":[],"categories_segments":[],"categories_sizes":[],"default_left":[true,true,false,false,true,false,true,false,false],"id":34,"left_children":[1,3,-1,-1,5,-1,7,-1,-1],"loss_changes":[1.0257488E0,9.5853037E-1,0E0,0E0,8.327342E-1,0E0,9.397893E-1,0E0,0E0],"parents":[2147483647,0,0,1,1,4,4,6,6],"right_children":[2,4,-1,-1,6,-1,8,-1,-1],"split_conditions":[3.836263E-1,2.4650913E-1,-1.4624435E-1,-1.0469421E-1,4.2589247E-1,-8.324322E-2,2.578895E-1,4.869331E-3,1.24079585E-1],"split_indices":[666,75,0,0,656,0,548,0,0],"split_type":[0,0,0,0,0,0,0,0,0],"sum_hessian":[3.438749E1,3.1321234E1,3.0662534E0,4.2387133E0,2.7082521E1,3.6515718E0,2.343095E1,1.3921209E1,9.50974E0],"tree_param":{"num_deleted":"0","num_feature":"768","num_nodes":"9","size_leaf_vector":"0"}},{"base_weights":[-1.5812185E-2,-4.380138E-1,4.667834E-2,2.8658128E-1,-6.718456E-2,-2.1751668E-2,4.7395232E-1,5.4642987E-2,-5.154081E-1,-3.6934736E-1,2.0211576E-1],"categories":[],"categories_nodes":[],"categories_segments":[],"categories_sizes":[],"default_left":[true,false,true,true,true,false,false,true,false,false,false],"id":35,"left_children":[1,-1,3,5,7,-1,-1,9,-1,-1,-1],"loss_changes":[9.2520267E-1,0E0,8.599006E-1,5.935293E-1,1.2120072E0,0E0,0E0,1.1970512E0,0E0,0E0,0E0],"parents":[2147483647,0,0,2,2,3,3,4,4,7,7],"right_children":[2,-1,4,6,8,-1,-1,10,-1,-1,-1],"split_conditions":[-2.9201107E-2,-1.3140415E-1,-2.905885E-1,1.765878E-1,1.6711225E-1,-6.5255007E-3,1.421857E-1,2.4142602E-1,-1.5462244E-1,-1.10804215E-1,6.063473E-2],"split_indices":[46,0,477,85,682,0,0,4,0,0,0],"split_type":[0,0,0,0,0,0,0,0,0,0,0],"sum_hessian":[3.32924E1,3.5175653E0,2.9774836E1,9.095086E0,2.0679749E1,3.7719588E0,5.323127E0,1.695064E1,3.7291093E0,3.986055E0,1.2964585E1],"tree_param":{"num_deleted":"0","num_feature":"768","num_nodes":"11","size_leaf_vector":"0"}},{"base_weights":[-1.7371336E-2,-1.0925157E-1,2.7451962E-1,1.970586E-2,-5.2297825E-1,5.392271E-1,-2.3554897E-2,1.4960007E-1,-3.627055E-1,3.1145638E-1,-6.262098E-2],"categories":[],"categories_nodes":[],"categories_segments":[],"categories_sizes":[],"default_left":[true,true,true,true,false,false,false,true,false,false,false],"id":36,"left_children":[1,3,5,7,-1,-1,-1,9,-1,-1,-1],"loss_changes":[9.08093E-1,1.3771186E0,6.536676E-1,1.0722739E0,0E0,0E0,0E0,5.692982E-1,0E0,0E0,0E0],"parents":[2147483647,0,0,1,1,2,2,3,3,7,7],"right_children":[2,4,6,8,-1,-1,-1,10,-1,-1,-1],"split_conditions":[-1.467109E-1,-1.0883212E-1,9.811334E-2,-3.748088E-1,-1.5689348E-1,1.6176814E-1,-7.066469E-3,4.092555E-1,-1.08811654E-1,9.343692E-2,-1.8786296E-2],"split_indices":[510,581,468,207,0,0,0,153,0,0,0],"split_type":[0,0,0,0,0,0,0,0,0,0,0],"sum_hessian":[3.1741747E1,2.461823E1,7.123515E0,1.9494287E1,5.1239448E0,3.344431E0,3.779084E0,1.5005982E1,4.488305E0,8.247892E0,6.7580895E0],"tree_param":{"num_deleted":"0","num_feature":"768","num_nodes":"11","size_leaf_vector":"0"}},{"base_weights":[-1.3228568E-2,-1.711742E-1,1.6042721E-1,-3.602225E-1,1.6033636E-1,-1.9288722E-1,2.9823083E-1,6.963408E-2,-7.7232635E-1,-3.547551E-2,4.5812643E-1,7.022822E-2,6.8951833E-1],"categories":[],"categories_nodes":[],"categories_segments":[],"categories_sizes":[],"default_left":[true,true,true,true,false,false,true,false,false,false,true,false,false],"id":37,"left_children":[1,3,5,7,-1,-1,9,-1,-1,-1,11,-1,-1],"loss_changes":[8.922771E-1,1.1229091E0,8.138645E-1,2.0256836E0,0E0,0E0,6.3351774E-1,0E0,0E0,0E0,6.60007E-1,0E0,0E0],"parents":[2147483647,0,0,1,1,2,2,3,3,6,6,10,10],"right_children":[2,4,6,8,-1,-1,10,-1,-1,-1,12,-1,-1],"split_conditions":[-5.7700676E-1,2.2636436E-1,3.0866426E-1,-4.4690794E-1,4.810091E-2,-5.7866167E-2,5.741477E-2,2.0890225E-2,-2.3169792E-1,-1.0642653E-2,2.9947096E-1,2.1068467E-2,2.068555E-1],"split_indices":[194,41,724,444,0,0,561,0,0,0,346,0,0],"split_type":[0,0,0,0,0,0,0,0,0,0,0,0,0],"sum_hessian":[3.0530214E1,1.59958E1,1.4534415E1,1.0131543E1,5.8642564E0,3.9660754E0,1.0568339E1,5.365713E0,4.7658305E0,3.675535E0,6.8928046E0,3.062473E0,3.8303316E0],"tree_param":{"num_deleted":"0","num_feature":"768","num_nodes":"13","size_leaf_vector":"0"}},{"base_weights":[-1.0895362E-2,-2.0583306E-1,1.0038858E-1,1.07175566E-1,-4.6793482E-1,4.674969E-1,-4.2000334E-4,-3.107293E-1,1.3840759E-1,3.0320966E-1,-3.6592033E-2],"categories":[],"categories_nodes":[],"categories_segments":[],"categories_sizes":[],"default_left":[true,true,true,false,false,false,true,false,true,false,false],"id":38,"left_children":[1,3,5,-1,-1,-1,7,-1,9,-1,-1],"loss_changes":[6.683835E-1,9.672348E-1,7.2848547E-1,0E0,0E0,0E0,7.511805E-1,0E0,3.5860318E-1,0E0,0E0],"parents":[2147483647,0,0,1,1,2,2,6,6,8,8],"right_children":[2,4,6,-1,-1,-1,8,-1,10,-1,-1],"split_conditions":[-3.2064036E-1,-3.2968092E-1,-5.1953224E-3,3.215267E-2,-1.4038046E-1,1.4024907E-1,-3.550949E-1,-9.321879E-2,3.491638E-1,9.09629E-2,-1.097761E-2],"split_indices":[36,184,325,0,0,0,289,0,297,0,0],"split_type":[0,0,0,0,0,0,0,0,0,0,0],"sum_hessian":[2.8857887E1,1.0178478E1,1.8679409E1,4.9081416E0,5.2703366E0,3.2406533E0,1.5438756E1,4.3893604E0,1.1049396E1,5.3131876E0,5.736208E0],"tree_param":{"num_deleted":"0","num_feature":"768","num_nodes":"11","size_leaf_vector":"0"}},{"base_weights":[-6.617431E-3,-3.561521E-1,5.3363618E-2,1.3294537E-1,-2.3081513E-1,-6.5588936E-2,3.048291E-1,1.5045111E-1,-3.235584E-1,-1.9507488E-2,4.795859E-1],"categories":[],"categories_nodes":[],"categories_segments":[],"categories_sizes":[],"default_left":[true,false,true,true,false,true,true,false,false,false,false],"id":39,"left_children":[1,-1,3,5,-1,7,9,-1,-1,-1,-1],"loss_changes":[6.239086E-1,0E0,6.0729146E-1,7.213509E-1,0E0,6.260568E-1,6.437626E-1,0E0,0E0,0E0,0E0],"parents":[2147483647,0,0,2,2,3,3,5,5,6,6],"right_children":[2,-1,4,6,-1,8,10,-1,-1,-1,-1],"split_conditions":[1.11793056E-1,-1.0684563E-1,-8.824101E-2,-1.8590027E-1,-6.924454E-2,9.974321E-2,2.1262906E-1,4.5135334E-2,-9.706752E-2,-5.8522467E-3,1.4387578E-1],"split_indices":[250,0,266,675,0,349,85,0,0,0,0],"split_type":[0,0,0,0,0,0,0,0,0,0,0],"sum_hessian":[2.7852365E1,3.3562646E0,2.4496101E1,1.9552711E1,4.9433885E0,9.359932E0,1.01927805E1,5.320769E0,4.039163E0,3.8800497E0,6.312731E0],"tree_param":{"num_deleted":"0","num_feature":"768","num_nodes":"11","size_leaf_vector":"0"}},{"base_weights":[-6.498431E-3,-2.9469585E-1,7.47686E-2,-1.5299627E-1,1.6380371E-1,7.592103E-2,3.9406797E-1,-1.398561E-1,1.6425307E-1],"categories":[],"categories_nodes":[],"categories_segments":[],"categories_sizes":[],"default_left":[true,false,true,false,true,true,false,false,false],"id":40,"left_children":[1,-1,3,-1,5,7,-1,-1,-1],"loss_changes":[6.8523544E-1,0E0,4.8916274E-1,0E0,3.1281808E-1,2.8022304E-1,0E0,0E0,0E0],"parents":[2147483647,0,0,2,2,4,4,5,5],"right_children":[2,-1,4,-1,6,8,-1,-1,-1],"split_conditions":[1.3711312E-1,-8.840876E-2,1.6430281E-1,-4.5898885E-2,2.1465871E-2,2.2959784E-2,1.182204E-1,-4.195683E-2,4.9275924E-2],"split_indices":[362,0,627,0,503,95,0,0,0],"split_type":[0,0,0,0,0,0,0,0,0],"sum_hessian":[2.7316591E1,5.430859E0,2.1885733E1,5.9489822E0,1.5936749E1,1.2496895E1,3.4398544E0,3.4604423E0,9.036453E0],"tree_param":{"num_deleted":"0","num_feature":"768","num_nodes":"9","size_leaf_vector":"0"}},{"base_weights":[-4.096729E-3,1.9560483E-1,-1.1083635E-1,4.114867E-1,-2.9316934E-2,2.7427178E-2,-4.2418113E-1,-2.6436564E-1,1.5093014E-1,3.1183442E-1,-3.6321066E-2],"categories":[],"categories_nodes":[],"categories_segments":[],"categories_sizes":[],"default_left":[true,true,true,false,false,true,false,false,true,false,false],"id":41,"left_children":[1,3,5,-1,-1,7,-1,-1,9,-1,-1],"loss_changes":[6.1103857E-1,4.9725175E-1,8.199032E-1,0E0,0E0,5.4023516E-1,0E0,0E0,3.24418E-1,0E0,0E0],"parents":[2147483647,0,0,1,1,2,2,5,5,8,8],"right_children":[2,4,6,-1,-1,8,-1,-1,10,-1,-1],"split_conditions":[1.6460645E-1,-1.1249755E-1,-4.949146E-1,1.2344601E-1,-8.795081E-3,2.2344163E-1,-1.2725435E-1,-7.9309694E-2,2.670294E-1,9.355033E-2,-1.089632E-2],"split_indices":[488,9,739,0,0,376,0,0,186,0,0],"split_type":[0,0,0,0,0,0,0,0,0,0,0],"sum_hessian":[2.664855E1,8.992234E0,1.7656317E1,4.1650844E0,4.82715E0,1.2883802E1,4.772514E0,3.49227E0,9.391533E0,4.693284E0,4.698249E0],"tree_param":{"num_deleted":"0","num_feature":"768","num_nodes":"11","size_leaf_vector":"0"}},{"base_weights":[-2.5156958E-3,1.7548604E-1,-1.0878604E-1,4.12642E-1,4.4025E-3,-5.0444716E-1,4.581184E-2,1.8598826E-1,-1.7962444E-1,2.1362036E-1,-1.7943543E-1,-9.947941E-3,4.0238842E-1],"categories":[],"categories_nodes":[],"categories_segments":[],"categories_sizes":[],"default_left":[true,true,true,false,true,false,true,false,false,true,false,false,false],"id":42,"left_children":[1,3,5,-1,7,-1,9,-1,-1,11,-1,-1,-1],"loss_changes":[5.256698E-1,4.19902E-1,1.0865883E0,0E0,2.6895797E-1,0E0,5.4551506E-1,0E0,0E0,3.4778488E-1,0E0,0E0,0E0],"parents":[2147483647,0,0,1,1,2,2,4,4,6,6,9,9],"right_children":[2,4,6,-1,8,-1,10,-1,-1,12,-1,-1,-1],"split_conditions":[6.91813E-1,-2.105104E-1,9.1406435E-2,1.237926E-1,3.604853E-2,-1.5133415E-1,-2.4657017E-2,5.579648E-2,-5.3887334E-2,2.572015E-1,-5.383063E-2,-2.9843824E-3,1.20716535E-1],"split_indices":[348,324,382,0,258,0,265,0,0,548,0,0,0],"split_type":[0,0,0,0,0,0,0,0,0,0,0,0,0],"sum_hessian":[2.5780035E1,9.3939495E0,1.6386086E1,3.345075E0,6.048875E0,3.9679585E0,1.2418128E1,3.0392668E0,3.0096078E0,7.145999E0,5.2721286E0,3.7051218E0,3.4408772E0],"tree_param":{"num_deleted":"0","num_feature":"768","num_nodes":"13","size_leaf_vector":"0"}},{"base_weights":[4.977495E-4,-6.2017046E-2,3.1454608E-1,-3.1792438E-1,4.9994495E-2,1.4609857E-1,-1.3999279E-1,3.2854127E-3,2.8739354E-1],"categories":[],"categories_nodes":[],"categories_segments":[],"categories_sizes":[],"default_left":[true,true,false,false,true,true,false,false,false],"id":43,"left_children":[1,3,-1,-1,5,7,-1,-1,-1],"loss_changes":[5.2686226E-1,6.576225E-1,0E0,0E0,3.20547E-1,2.291749E-1,0E0,0E0,0E0],"parents":[2147483647,0,0,1,1,4,4,5,5],"right_children":[2,4,-1,-1,6,8,-1,-1,-1],"split_conditions":[2.2744311E-1,-7.229042E-2,9.436383E-2,-9.537732E-2,-9.536962E-2,2.6644123E-1,-4.199784E-2,9.856238E-4,8.621807E-2],"split_indices":[574,737,0,0,456,372,0,0,0],"split_type":[0,0,0,0,0,0,0,0,0],"sum_hessian":[2.4842392E1,2.1387497E1,3.4548943E0,5.9516754E0,1.5435822E1,1.0404014E1,5.0318074E0,5.683101E0,4.720913E0],"tree_param":{"num_deleted":"0","num_feature":"768","num_nodes":"9","size_leaf_vector":"0"}},{"base_weights":[2.751078E-3,1.863565E-1,-8.977134E-2,-1.2017485E-1,3.7599376E-1,2.8134538E-2,-4.262554E-1,2.0028013E-1,-1.2291453E-1,-3.5981235E-1,1.1219875E-1],"categories":[],"categories_nodes":[],"categories_segments":[],"categories_sizes":[],"default_left":[true,true,true,false,false,true,false,false,true,false,false],"id":44,"left_children":[1,3,5,-1,-1,7,-1,-1,9,-1,-1],"loss_changes":[4.459503E-1,5.5621773E-1,7.053037E-1,0E0,0E0,3.8550434E-1,0E0,0E0,4.8662975E-1,0E0,0E0],"parents":[2147483647,0,0,1,1,2,2,5,5,8,8],"right_children":[2,4,6,-1,-1,8,-1,-1,10,-1,-1],"split_conditions":[2.5945407E-1,3.1032968E-1,1.21576175E-1,-3.6052454E-2,1.1279813E-1,1.8806976E-1,-1.2787662E-1,6.008404E-2,2.222687E-1,-1.07943706E-1,3.3659626E-2],"split_indices":[486,346,639,0,0,414,0,0,681,0,0],"split_type":[0,0,0,0,0,0,0,0,0,0,0],"sum_hessian":[2.4266687E1,7.7912407E0,1.6475447E1,3.117835E0,4.6734056E0,1.2878971E1,3.5964758E0,5.866822E0,7.0121493E0,3.2286325E0,3.783517E0],"tree_param":{"num_deleted":"0","num_feature":"768","num_nodes":"11","size_leaf_vector":"0"}},{"base_weights":[1.3917641E-4,9.02564E-2,-1.8190865E-1,2.022553E-1,-1.5935925E-1,-3.7981144E-1,1.15069345E-1,3.929293E-2,4.522846E-1,-1.3221541E-1,2.2116952E-1],"categories":[],"categories_nodes":[],"categories_segments":[],"categories_sizes":[],"default_left":[true,true,true,true,false,false,false,true,false,false,false],"id":45,"left_children":[1,3,5,7,-1,-1,-1,9,-1,-1,-1],"loss_changes":[4.1818565E-1,5.088688E-1,5.397718E-1,4.797046E-1,0E0,0E0,0E0,2.939747E-1,0E0,0E0,0E0],"parents":[2147483647,0,0,1,1,2,2,3,3,7,7],"right_children":[2,4,6,8,-1,-1,-1,10,-1,-1,-1],"split_conditions":[2.685008E-1,1.3159941E-1,6.683025E-3,-8.151496E-2,-4.7807775E-2,-1.13943435E-1,3.4520805E-2,-3.2069352E-1,1.3568538E-1,-3.9664626E-2,6.6350855E-2],"split_indices":[488,325,214,398,0,0,0,552,0,0,0],"split_type":[0,0,0,0,0,0,0,0,0,0,0],"sum_hessian":[2.3489574E1,1.6049149E1,7.4404254E0,1.1209392E1,4.839758E0,4.2976193E0,3.142806E0,7.4868307E0,3.7225611E0,3.9937763E0,3.4930542E0],"tree_param":{"num_deleted":"0","num_feature":"768","num_nodes":"11","size_leaf_vector":"0"}},{"base_weights":[2.5718214E-3,7.6919615E-2,-1.9715293E-1,-2.8235788E-2,3.3282864E-1,-3.0827454E-1,1.2135366E-1,-7.65209E-2,2.3602909E-1],"categories":[],"categories_nodes":[],"categories_segments":[],"categories_sizes":[],"default_left":[true,true,false,true,false,false,true,false,false],"id":46,"left_children":[1,3,-1,5,-1,-1,7,-1,-1],"loss_changes":[3.7212762E-1,5.001736E-1,0E0,6.175097E-1,0E0,0E0,2.3916149E-1,0E0,0E0],"parents":[2147483647,0,0,1,1,3,3,6,6],"right_children":[2,4,-1,6,-1,-1,8,-1,-1],"split_conditions":[-3.6519134E-1,3.0122852E-1,-5.914588E-2,3.6780802E-3,9.98486E-2,-9.2482366E-2,-2.1473894E-1,-2.295627E-2,7.080873E-2],"split_indices":[634,376,0,374,0,0,577,0,0],"split_type":[0,0,0,0,0,0,0,0,0],"sum_hessian":[2.3039356E1,1.7237534E1,5.801822E0,1.2847883E1,4.3896503E0,4.1040664E0,8.743816E0,3.3302045E0,5.413612E0],"tree_param":{"num_deleted":"0","num_feature":"768","num_nodes":"9","size_leaf_vector":"0"}},{"base_weights":[2.7442675E-3,1.4058664E-1,-1.1066671E-1,3.0763897E-1,-1.096858E-1,7.021661E-2,-3.7387148E-1,1.9435664E-1,-1.18383914E-1],"categories":[],"categories_nodes":[],"categories_segments":[],"categories_sizes":[],"default_left":[true,true,true,false,false,true,false,false,false],"id":47,"left_children":[1,3,5,-1,-1,7,-1,-1,-1],"loss_changes":[3.8446498E-1,4.9749425E-1,6.6926193E-1,0E0,0E0,2.3013486E-1,0E0,0E0,0E0],"parents":[2147483647,0,0,1,1,2,2,5,5],"right_children":[2,4,6,-1,-1,8,-1,-1,-1],"split_conditions":[6.1061982E-2,3.1015515E-1,-5.34526E-1,9.22917E-2,-3.2905743E-2,-1.0463899E0,-1.1216145E-1,5.8306992E-2,-3.5515174E-2],"split_indices":[101,469,341,0,0,198,0,0,0],"split_type":[0,0,0,0,0,0,0,0,0],"sum_hessian":[2.2598192E1,1.0092232E1,1.25059595E1,5.9149165E0,4.1773157E0,7.8466783E0,4.6592813E0,4.7135925E0,3.1330857E0],"tree_param":{"num_deleted":"0","num_feature":"768","num_nodes":"9","size_leaf_vector":"0"}},{"base_weights":[1.5022918E-3,7.695155E-2,-1.9735536E-1,-9.03805E-2,1.9829665E-1,1.03895195E-1,-2.6069283E-1,4.5023575E-2,4.2416778E-1,2.1527675E-1,-1.4949499E-1],"categories":[],"categories_nodes":[],"categories_segments":[],"categories_sizes":[],"default_left":[true,true,false,true,true,false,false,true,false,false,false],"id":48,"left_children":[1,3,-1,5,7,-1,-1,9,-1,-1,-1],"loss_changes":[3.608869E-1,3.716945E-1,0E0,2.9213735E-1,3.4137714E-1,0E0,0E0,2.7466148E-1,0E0,0E0,0E0],"parents":[2147483647,0,0,1,1,3,3,4,4,7,7],"right_children":[2,4,-1,6,8,-1,-1,10,-1,-1,-1],"split_conditions":[-6.396261E-2,2.6690865E-1,-5.920661E-2,1.0411763E-1,7.087679E-1,3.116856E-2,-7.820785E-2,-2.9840487E-1,1.2725034E-1,6.4583026E-2,-4.4848498E-2],"split_indices":[732,372,0,209,61,0,0,658,0,0,0],"split_type":[0,0,0,0,0,0,0,0,0,0,0],"sum_hessian":[2.204105E1,1.6422983E1,5.6180677E0,7.010646E0,9.412337E0,3.457098E0,3.5535476E0,6.3217897E0,3.0905476E0,3.314257E0,3.0075326E0],"tree_param":{"num_deleted":"0","num_feature":"768","num_nodes":"11","size_leaf_vector":"0"}},{"base_weights":[3.990255E-3,-2.0699541E-1,6.169656E-2,-5.381888E-2,1.7820276E-1,1.2036967E-1,-2.676149E-1,-4.7289845E-2,2.9264617E-1],"categories":[],"categories_nodes":[],"categories_segments":[],"categories_sizes":[],"default_left":[true,false,true,true,true,false,false,false,false],"id":49,"left_children":[1,-1,3,5,7,-1,-1,-1,-1],"loss_changes":[2.9026487E-1,0E0,2.6081872E-1,4.0989032E-1,2.596607E-1,0E0,0E0,0E0,0E0],"parents":[2147483647,0,0,2,2,3,3,4,4],"right_children":[2,-1,4,6,8,-1,-1,-1,-1],"split_conditions":[1.0042251E-1,-6.2098626E-2,-1.9417273E-1,4.9303237E-1,3.0432576E-1,3.6110904E-2,-8.028448E-2,-1.4186954E-2,8.779386E-2],"split_indices":[344,0,148,173,724,0,0,0,0],"split_type":[0,0,0,0,0,0,0,0,0],"sum_hessian":[2.1791735E1,4.124542E0,1.7667192E1,9.141496E0,8.525697E0,5.2781525E0,3.863343E0,3.0678227E0,5.4578743E0],"tree_param":{"num_deleted":"0","num_feature":"768","num_nodes":"9","size_leaf_vector":"0"}},{"base_weights":[2.1358787E-3,-2.0176451E-1,5.987728E-2,1.6981143E-1,-9.557105E-2,3.7034756E-1,2.7244385E-2,-3.101465E-1,1.5880333E-1,-5.9270367E-2,9.833029E-2],"categories":[],"categories_nodes":[],"categories_segments":[],"categories_sizes":[],"default_left":[true,false,true,true,true,false,true,false,false,false,false],"id":50,"left_children":[1,-1,3,5,7,-1,9,-1,-1,-1,-1],"loss_changes":[2.7505162E-1,0E0,3.2686913E-1,3.0461988E-1,4.9518847E-1,0E0,5.2034028E-2,0E0,0E0,0E0,0E0],"parents":[2147483647,0,0,2,2,3,3,4,4,6,6],"right_children":[2,-1,4,6,8,-1,10,-1,-1,-1,-1],"split_conditions":[-2.476744E-1,-6.0529355E-2,-2.7320694E-2,8.857133E-2,-7.3892903E-1,1.1110427E-1,4.888808E-1,-9.304395E-2,4.7641E-2,-1.778111E-2,2.9499087E-2],"split_indices":[129,0,630,521,318,0,674,0,0,0,0],"split_type":[0,0,0,0,0,0,0,0,0,0,0],"sum_hessian":[2.133581E1,4.158114E0,1.7177694E1,1.0007748E1,7.1699476E0,3.4945595E0,6.5131884E0,3.770294E0,3.3996534E0,3.0127504E0,3.500438E0],"tree_param":{"num_deleted":"0","num_feature":"768","num_nodes":"11","size_leaf_vector":"0"}},{"base_weights":[2.947029E-3,7.900252E-2,-1.4987284E-1,1.5271576E-1,-1.593443E-1,1.096616E-1,-4.0045875E-1,3.3610994E-1,4.0120687E-2,1.5275316E-1,-1.26053E-1],"categories":[],"categories_nodes":[],"categories_segments":[],"categories_sizes":[],"default_left":[true,true,true,true,false,false,false,false,true,false,false],"id":51,"left_children":[1,3,5,7,-1,-1,-1,-1,9,-1,-1],"loss_changes":[2.6777273E-1,2.9415464E-1,5.4224443E-1,2.3927113E-1,0E0,0E0,0E0,0E0,1.824575E-1,0E0,0E0],"parents":[2147483647,0,0,1,1,2,2,3,3,8,8],"right_children":[2,4,6,8,-1,-1,-1,-1,10,-1,-1],"split_conditions":[-3.5889316E-1,7.5413644E-1,-6.454755E-1,3.0414486E-1,-4.7803294E-2,3.2898482E-2,-1.2013763E-1,1.00832984E-1,3.2516837E-2,4.582595E-2,-3.7815902E-2],"split_indices":[704,288,314,469,0,0,0,0,76,0,0],"split_type":[0,0,0,0,0,0,0,0,0,0,0],"sum_hessian":[2.1019876E1,1.4357473E1,6.662402E0,1.1240431E1,3.1170433E0,3.5490222E0,3.11338E0,3.5207431E0,7.719687E0,4.649214E0,3.0704732E0],"tree_param":{"num_deleted":"0","num_feature":"768","num_nodes":"11","size_leaf_vector":"0"}},{"base_weights":[1.3252033E-3,6.0913566E-2,-1.892127E-1,-3.9733354E-2,2.2347389E-1,1.0205035E-1,-2.9138264E-1,2.1483575E-1,-2.1129062E-2],"categories":[],"categories_nodes":[],"categories_segments":[],"categories_sizes":[],"default_left":[true,true,false,true,false,true,false,false,false],"id":52,"left_children":[1,3,-1,5,-1,7,-1,-1,-1],"loss_changes":[2.5564298E-1,2.892303E-1,0E0,4.3762383E-1,0E0,1.16414785E-1,0E0,0E0,0E0],"parents":[2147483647,0,0,1,1,3,3,5,5],"right_children":[2,4,-1,6,-1,8,-1,-1,-1],"split_conditions":[5.9841216E-1,-2.7417254E-1,-5.676381E-2,-1.3919948E-1,6.704217E-2,-1.9076328E-1,-8.741479E-2,6.4450726E-2,-6.338719E-3],"split_indices":[433,715,0,683,0,190,0,0,0],"split_type":[0,0,0,0,0,0,0,0,0],"sum_hessian":[2.050086E1,1.613511E1,4.3657484E0,1.0431916E1,5.703195E0,7.052747E0,3.3791697E0,3.2932744E0,3.7594724E0],"tree_param":{"num_deleted":"0","num_feature":"768","num_nodes":"9","size_leaf_vector":"0"}},{"base_weights":[7.156416E-4,5.157937E-2,-2.1649925E-1,-1.839069E-2,2.8679007E-1,6.990627E-2,-2.0329194E-1,-5.0839186E-2,2.308002E-1],"categories":[],"categories_nodes":[],"categories_segments":[],"categories_sizes":[],"default_left":[true,true,false,true,false,true,false,false,false],"id":53,"left_children":[1,3,-1,5,-1,7,-1,-1,-1],"loss_changes":[2.4512015E-1,3.009416E-1,0E0,2.556116E-1,0E0,2.2060247E-1,0E0,0E0,0E0],"parents":[2147483647,0,0,1,1,3,3,5,5],"right_children":[2,4,-1,6,-1,8,-1,-1,-1],"split_conditions":[-3.0287743E-2,4.4999626E-1,-6.494978E-2,4.296034E-1,8.6037025E-2,6.772226E-1,-6.0987584E-2,-1.5251757E-2,6.924006E-2],"split_indices":[164,614,0,652,0,178,0,0,0],"split_type":[0,0,0,0,0,0,0,0,0],"sum_hessian":[2.0175383E1,1.6965282E1,3.2101018E0,1.3786045E1,3.1792364E0,9.751352E0,4.0346932E0,5.9614816E0,3.7898705E0],"tree_param":{"num_deleted":"0","num_feature":"768","num_nodes":"9","size_leaf_vector":"0"}},{"base_weights":[2.0055922E-3,1.8867075E-1,-4.9952365E-2,7.679903E-2,-1.8722363E-1,-1.00322224E-1,1.7526345E-1,4.3921895E-2,-3.790829E-1],"categories":[],"categories_nodes":[],"categories_segments":[],"categories_sizes":[],"default_left":[true,false,true,true,true,false,false,false,false],"id":54,"left_children":[1,-1,3,5,7,-1,-1,-1,-1],"loss_changes":[2.1244007E-1,0E0,3.1303865E-1,1.8559423E-1,3.9499694E-1,0E0,0E0,0E0,0E0],"parents":[2147483647,0,0,2,2,3,3,4,4],"right_children":[2,-1,4,6,8,-1,-1,-1,-1],"split_conditions":[-6.693336E-1,5.660123E-2,-3.0444947E-1,1.15214884E-1,2.262074E-1,-3.0096669E-2,5.2579038E-2,1.3176569E-2,-1.1372487E-1],"split_indices":[268,0,648,197,486,0,0,0,0],"split_type":[0,0,0,0,0,0,0,0,0],"sum_hessian":[1.9932154E1,3.7671168E0,1.6165037E1,8.633604E0,7.531432E0,3.077972E0,5.5556326E0,3.7657077E0,3.7657244E0],"tree_param":{"num_deleted":"0","num_feature":"768","num_nodes":"9","size_leaf_vector":"0"}},{"base_weights":[7.010931E-4,1.474348E-1,-7.047502E-2,-1.7975198E-2,2.7638316E-1,-3.2489178E-1,2.5168374E-2,-1.3897648E-1,1.1417069E-1,-1.8057132E-2,2.1912138E-1],"categories":[],"categories_nodes":[],"categories_segments":[],"categories_sizes":[],"default_left":[true,true,true,false,false,false,true,false,true,false,false],"id":55,"left_children":[1,3,5,-1,-1,-1,7,-1,9,-1,-1],"loss_changes":[2.2479706E-1,1.5489028E-1,3.610187E-1,0E0,0E0,0E0,1.8338697E-1,0E0,1.1475644E-1,0E0,0E0],"parents":[2147483647,0,0,1,1,2,2,6,6,8,8],"right_children":[2,4,6,-1,-1,-1,8,-1,10,-1,-1],"split_conditions":[-2.9895598E-1,5.609561E-1,1.6435522E-1,-5.39256E-3,8.291495E-2,-9.7467534E-2,-2.6579995E-2,-4.1692946E-2,1.2493543E-1,-5.4171397E-3,6.573642E-2],"split_indices":[477,303,627,0,0,0,620,0,189,0,0],"split_type":[0,0,0,0,0,0,0,0,0,0,0],"sum_hessian":[1.9529291E1,6.0289173E0,1.3500373E1,3.0180633E0,3.010854E0,3.0336876E0,1.0466685E1,3.4825003E0,6.984185E0,3.456842E0,3.5273433E0],"tree_param":{"num_deleted":"0","num_feature":"768","num_nodes":"11","size_leaf_vector":"0"}},{"base_weights":[8.6688536E-4,7.137713E-2,-1.4314555E-1,1.6780624E-1,-9.454054E-2,-2.9232416E-2,3.2419473E-1],"categories":[],"categories_nodes":[],"categories_segments":[],"categories_sizes":[],"default_left":[true,true,false,true,false,false,false],"id":56,"left_children":[1,3,-1,5,-1,-1,-1],"loss_changes":[2.1494518E-1,2.4308753E-1,0E0,2.9735503E-1,0E0,0E0,0E0],"parents":[2147483647,0,0,1,1,3,3],"right_children":[2,4,-1,6,-1,-1,-1],"split_conditions":[5.5480456E-1,1.09472066E-1,-4.2943664E-2,2.7193326E-1,-2.8362162E-2,-8.769725E-3,9.7258426E-2],"split_indices":[433,232,0,346,0,0,0],"split_type":[0,0,0,0,0,0,0],"sum_hessian":[1.9161589E1,1.3202065E1,5.9595237E0,8.342268E0,4.859797E0,4.0511627E0,4.2911057E0],"tree_param":{"num_deleted":"0","num_feature":"768","num_nodes":"7","size_leaf_vector":"0"}},{"base_weights":[2.207852E-3,-1.6279194E-1,6.292271E-2,-2.982729E-2,2.158677E-1,-2.2664283E-1,9.0789214E-2,1.7980243E-1,-1.969099E-2],"categories":[],"categories_nodes":[],"categories_segments":[],"categories_sizes":[],"default_left":[true,false,true,true,false,false,true,false,false],"id":57,"left_children":[1,-1,3,5,-1,-1,7,-1,-1],"loss_changes":[2.115941E-1,0E0,2.2509387E-1,2.6921397E-1,0E0,0E0,7.442476E-2,0E0,0E0],"parents":[2147483647,0,0,2,2,3,3,6,6],"right_children":[2,-1,4,6,-1,-1,8,-1,-1],"split_conditions":[2.7737206E-1,-4.8837584E-2,9.125786E-4,3.5451478E-1,6.476031E-2,-6.799285E-2,-6.008378E-1,5.3940732E-2,-5.9072976E-3],"split_indices":[724,0,406,134,0,0,393,0,0],"split_type":[0,0,0,0,0,0,0,0,0],"sum_hessian":[1.9099024E1,4.6851964E0,1.4413828E1,9.4737E0,4.9401283E0,3.265764E0,6.207936E0,3.0904865E0,3.117449E0],"tree_param":{"num_deleted":"0","num_feature":"768","num_nodes":"9","size_leaf_vector":"0"}},{"base_weights":[2.008966E-3,-5.135592E-2,1.7570987E-1,4.760141E-2,-2.5412828E-1,-1.4200269E-1,1.4849651E-1,-9.444668E-3,2.4834302E-1],"categories":[],"categories_nodes":[],"categories_segments":[],"categories_sizes":[],"default_left":[true,true,false,true,false,false,true,false,false],"id":58,"left_children":[1,3,-1,5,-1,-1,7,-1,-1],"loss_changes":[1.9336233E-1,3.328814E-1,0E0,2.4272427E-1,0E0,0E0,1.2930363E-1,0E0,0E0],"parents":[2147483647,0,0,1,1,3,3,6,6],"right_children":[2,4,-1,6,-1,-1,8,-1,-1],"split_conditions":[-1.2751909E-1,-2.5987506E-1,5.2712966E-2,1.5372931E-2,-7.623848E-2,-4.2600807E-2,7.858245E-1,-2.8334004E-3,7.450291E-2],"split_indices":[510,118,0,397,0,0,14,0,0],"split_type":[0,0,0,0,0,0,0,0,0],"sum_hessian":[1.888651E1,1.4986621E1,3.8998895E0,1.0585778E1,4.400843E0,3.5351064E0,7.0506716E0,3.0815544E0,3.969117E0],"tree_param":{"num_deleted":"0","num_feature":"768","num_nodes":"9","size_leaf_vector":"0"}},{"base_weights":[2.4918898E-3,8.1949025E-2,-1.2487518E-1,2.3712964E-1,-8.04843E-3,-2.9180846E-1,5.353712E-2,1.2324187E-1,-1.5698393E-1],"categories":[],"categories_nodes":[],"categories_segments":[],"categories_sizes":[],"default_left":[true,true,true,false,true,false,false,false,false],"id":59,"left_children":[1,3,5,-1,7,-1,-1,-1,-1],"loss_changes":[2.0903274E-1,1.7928693E-1,2.52186E-1,0E0,1.9544703E-1,0E0,0E0,0E0,0E0],"parents":[2147483647,0,0,1,1,2,2,4,4],"right_children":[2,4,6,-1,8,-1,-1,-1,-1],"split_conditions":[2.577272E-1,-3.9189416E-1,6.6834064E-3,7.1138896E-2,2.0785023E-2,-8.754254E-2,1.6061136E-2,3.6972564E-2,-4.709518E-2],"split_indices":[488,462,214,0,195,0,0,0,0],"split_type":[0,0,0,0,0,0,0,0,0],"sum_hessian":[1.864377E1,1.1700857E1,6.942914E0,3.6949275E0,8.00593E0,3.2584896E0,3.6844242E0,4.3467116E0,3.659218E0],"tree_param":{"num_deleted":"0","num_feature":"768","num_nodes":"9","size_leaf_vector":"0"}},{"base_weights":[1.6743094E-3,9.1582656E-2,-1.0587146E-1,1.7019051E-1,-8.8686995E-2,-2.9383036E-1,4.396447E-2,9.251776E-3,2.6442906E-1],"categories":[],"categories_nodes":[],"categories_segments":[],"categories_sizes":[],"default_left":[true,true,true,true,false,false,false,false,false],"id":60,"left_children":[1,3,5,7,-1,-1,-1,-1,-1],"loss_changes":[1.9708247E-1,1.7226729E-1,2.744984E-1,1.1989027E-1,0E0,0E0,0E0,0E0,0E0],"parents":[2147483647,0,0,1,1,2,2,3,3],"right_children":[2,4,6,8,-1,-1,-1,-1,-1],"split_conditions":[-2.461968E-1,-4.235409E-1,7.0178545E-1,-1.1126515E-1,-2.66061E-2,-8.8149115E-2,1.3189342E-2,2.775533E-3,7.932872E-2],"split_indices":[535,634,178,479,0,0,0,0,0],"split_type":[0,0,0,0,0,0,0,0,0],"sum_hessian":[1.8379604E1,1.0091518E1,8.288086E0,7.0661745E0,3.0253437E0,3.2500756E0,5.0380106E0,3.0151446E0,4.05103E0],"tree_param":{"num_deleted":"0","num_feature":"768","num_nodes":"9","size_leaf_vector":"0"}},{"base_weights":[6.8437785E-4,1.12190194E-1,-8.0776244E-2,2.688151E-1,-3.852076E-2,3.761856E-2,-2.9869774E-1,-5.300314E-2,1.0752872E-1],"categories":[],"categories_nodes":[],"categories_segments":[],"categories_sizes":[],"default_left":[true,true,true,false,false,true,false,false,false],"id":61,"left_children":[1,3,5,-1,-1,7,-1,-1,-1],"loss_changes":[1.824129E-1,2.1041033E-1,3.1076738E-1,0E0,0E0,5.8983836E-2,0E0,0E0,0E0],"parents":[2147483647,0,0,1,1,2,2,5,5],"right_children":[2,4,6,-1,-1,8,-1,-1,-1],"split_conditions":[3.0996463E-1,-2.142553E-1,3.0246472E-1,8.064453E-2,-1.1556229E-2,-1.5836984E-1,-8.9609325E-2,-1.5900943E-2,3.2258615E-2],"split_indices":[469,324,579,0,0,710,0,0,0],"split_type":[0,0,0,0,0,0,0,0,0],"sum_hessian":[1.8084469E1,7.4750953E0,1.0609373E1,3.2813437E0,4.193752E0,7.410623E0,3.1987498E0,3.3325777E0,4.0780454E0],"tree_param":{"num_deleted":"0","num_feature":"768","num_nodes":"9","size_leaf_vector":"0"}},{"base_weights":[6.935972E-4,7.764466E-2,-9.818522E-2,-7.955932E-2,1.7910577E-1,-2.3087715E-1,7.284874E-2,2.905144E-1,2.3212606E-2],"categories":[],"categories_nodes":[],"categories_segments":[],"categories_sizes":[],"default_left":[true,true,true,false,true,false,false,false,false],"id":62,"left_children":[1,3,5,-1,7,-1,-1,-1,-1],"loss_changes":[1.5119772E-1,1.9240755E-1,2.1425714E-1,0E0,1.1649838E-1,0E0,0E0,0E0,0E0],"parents":[2147483647,0,0,1,1,2,2,4,4],"right_children":[2,4,6,-1,8,-1,-1,-1,-1],"split_conditions":[4.280131E-1,-5.329819E-1,4.9588597E-1,-2.3867797E-2,-6.950839E-1,-6.9263145E-2,2.1854622E-2,8.715433E-2,6.963782E-3],"split_indices":[153,91,657,0,279,0,0,0,0],"split_type":[0,0,0,0,0,0,0,0,0],"sum_hessian":[1.7869413E1,1.0169721E1,7.6996937E0,4.0737343E0,6.095986E0,4.1388173E0,3.5608766E0,3.0516117E0,3.0443742E0],"tree_param":{"num_deleted":"0","num_feature":"768","num_nodes":"9","size_leaf_vector":"0"}},{"base_weights":[2.3019756E-3,5.324508E-2,-1.8357202E-1,1.1965572E-1,-1.1026032E-1,2.5309104E-2,2.8554392E-1,1.0363848E-1,-6.3882515E-2],"categories":[],"categories_nodes":[],"categories_segments":[],"categories_sizes":[],"default_left":[true,true,false,true,false,true,false,false,false],"id":63,"left_children":[1,3,-1,5,-1,7,-1,-1,-1],"loss_changes":[1.8695073E-1,1.8107975E-1,0E0,1.7236686E-1,0E0,6.538967E-2,0E0,0E0,0E0],"parents":[2147483647,0,0,1,1,3,3,5,5],"right_children":[2,4,-1,6,-1,8,-1,-1,-1],"split_conditions":[-9.92771E-2,-3.3241004E-1,-5.507161E-2,-4.134086E-1,-3.3078097E-2,-6.761168E-2,8.566318E-2,3.1091545E-2,-1.9164756E-2],"split_indices":[387,527,0,415,0,699,0,0,0],"split_type":[0,0,0,0,0,0,0,0,0],"sum_hessian":[1.771121E1,1.4461297E1,3.2499135E0,1.047491E1,3.986387E0,7.412003E0,3.0629067E0,3.8600638E0,3.5519395E0],"tree_param":{"num_deleted":"0","num_feature":"768","num_nodes":"9","size_leaf_vector":"0"}},{"base_weights":[2.7563714E-3,-5.0917834E-2,1.3412294E-1,-2.1217415E-1,6.520284E-2,-2.734227E-2,1.3389109E-1],"categories":[],"categories_nodes":[],"categories_segments":[],"categories_sizes":[],"default_left":[true,true,false,false,true,false,false],"id":64,"left_children":[1,3,-1,-1,5,-1,-1],"loss_changes":[1.3779107E-1,2.743165E-1,0E0,0E0,5.9931748E-2,0E0,0E0],"parents":[2147483647,0,0,1,1,4,4],"right_children":[2,4,-1,-1,6,-1,-1],"split_conditions":[2.2372298E-2,4.623574E-1,4.0236883E-2,-6.365225E-2,-1.1999287E-1,-8.202681E-3,4.0167328E-2],"split_indices":[620,584,0,0,416,0,0],"split_type":[0,0,0,0,0,0,0],"sum_hessian":[1.757352E1,1.2910786E1,4.662735E0,5.0586596E0,7.8521266E0,3.60158E0,4.250547E0],"tree_param":{"num_deleted":"0","num_feature":"768","num_nodes":"7","size_leaf_vector":"0"}},{"base_weights":[2.7708057E-3,7.4815676E-2,-1.03956126E-1,-6.316222E-2,1.6472699E-1,-2.5188583E-1,5.1655658E-2,2.98249E-1,1.5195688E-3],"categories":[],"categories_nodes":[],"categories_segments":[],"categories_sizes":[],"default_left":[true,true,true,false,true,false,false,false,false],"id":65,"left_children":[1,3,5,-1,7,-1,-1,-1,-1],"loss_changes":[1.4929399E-1,1.5392879E-1,1.9338359E-1,0E0,1.5823075E-1,0E0,0E0,0E0,0E0],"parents":[2147483647,0,0,1,1,2,2,4,4],"right_children":[2,4,6,-1,8,-1,-1,-1,-1],"split_conditions":[-3.278014E-2,1.7661767E-1,2.142652E-1,-1.8948667E-2,3.7144903E-2,-7.5565755E-2,1.5496698E-2,8.947471E-2,4.5587067E-4],"split_indices":[665,85,677,0,718,0,0,0,0],"split_type":[0,0,0,0,0,0,0,0,0],"sum_hessian":[1.7404743E1,1.056915E1,6.8355923E0,4.2873254E0,6.2818246E0,3.187125E0,3.6484673E0,3.0000355E0,3.2817893E0],"tree_param":{"num_deleted":"0","num_feature":"768","num_nodes":"9","size_leaf_vector":"0"}},{"base_weights":[3.058036E-3,1.01832174E-1,-6.5024346E-2,2.0001304E-1,-3.826444E-2,-2.1429041E-1,2.943493E-2,-7.389574E-2,1.3424447E-1],"categories":[],"categories_nodes":[],"categories_segments":[],"categories_sizes":[],"default_left":[true,true,true,false,false,false,true,false,false],"id":66,"left_children":[1,3,5,-1,-1,-1,7,-1,-1],"loss_changes":[1.2920557E-1,1.15319856E-1,1.6705891E-1,0E0,0E0,0E0,9.5062636E-2,0E0,0E0],"parents":[2147483647,0,0,1,1,2,2,6,6],"right_children":[2,4,6,-1,-1,-1,8,-1,-1],"split_conditions":[4.0276903E-1,-1.0264921E-1,9.524624E-2,6.0003914E-2,-1.1479332E-2,-6.4287126E-2,-2.0224338E-2,-2.2168722E-2,4.0273342E-2],"split_indices":[167,732,643,0,0,0,369,0,0],"split_type":[0,0,0,0,0,0,0,0,0],"sum_hessian":[1.7228704E1,6.827552E0,1.0401154E1,3.7628417E0,3.0647101E0,3.5394528E0,6.861701E0,3.6037514E0,3.2579496E0],"tree_param":{"num_deleted":"0","num_feature":"768","num_nodes":"9","size_leaf_vector":"0"}},{"base_weights":[2.7310948E-3,-4.9327046E-2,1.3527879E-1,-1.9993846E-1,4.300098E-2,1.4395069E-1,-3.4331676E-2],"categories":[],"categories_nodes":[],"categories_segments":[],"categories_sizes":[],"default_left":[true,true,false,false,true,false,false],"id":67,"left_children":[1,3,-1,-1,5,-1,-1],"loss_changes":[1.3124447E-1,1.9903801E-1,0E0,0E0,7.764897E-2,0E0,0E0],"parents":[2147483647,0,0,1,1,4,4],"right_children":[2,4,-1,-1,6,-1,-1],"split_conditions":[3.0125123E-1,5.9960544E-1,4.058364E-2,-5.998154E-2,-4.0541768E-1,4.3185208E-2,-1.0299503E-2],"split_indices":[376,412,0,0,722,0,0],"split_type":[0,0,0,0,0,0,0],"sum_hessian":[1.7053362E1,1.2695181E1,4.3581815E0,4.381794E0,8.313387E0,3.2323909E0,5.0809965E0],"tree_param":{"num_deleted":"0","num_feature":"768","num_nodes":"7","size_leaf_vector":"0"}},{"base_weights":[3.0291853E-3,1.01221785E-1,-7.634216E-2,-4.1718386E-2,2.3295452E-1,3.67716E-2,-2.6851717E-1,-5.4949816E-2,1.298965E-1],"categories":[],"categories_nodes":[],"categories_segments":[],"categories_sizes":[],"default_left":[true,true,true,false,false,true,false,false,false],"id":68,"left_children":[1,3,5,-1,-1,7,-1,-1,-1],"loss_changes":[1.4754823E-1,1.688174E-1,2.3792346E-1,0E0,0E0,7.10584E-2,0E0,0E0,0E0],"parents":[2147483647,0,0,1,1,2,2,5,5],"right_children":[2,4,6,-1,-1,8,-1,-1,-1],"split_conditions":[6.1061982E-2,-4.2328484E-2,-5.34526E-1,-1.2515516E-2,6.988636E-2,-1.2883806E-1,-8.0555156E-2,-1.6484946E-2,3.8968954E-2],"split_indices":[101,156,341,0,0,154,0,0,0],"split_type":[0,0,0,0,0,0,0,0,0],"sum_hessian":[1.6940275E1,7.4492707E0,9.491004E0,3.9003744E0,3.5488966E0,6.4834914E0,3.007512E0,3.472883E0,3.0106084E0],"tree_param":{"num_deleted":"0","num_feature":"768","num_nodes":"9","size_leaf_vector":"0"}},{"base_weights":[2.498066E-3,-7.90057E-2,7.852552E-2,4.3945506E-2,-2.2304806E-1,1.7166461E-1,-4.131082E-2],"categories":[],"categories_nodes":[],"categories_segments":[],"categories_sizes":[],"default_left":[true,true,true,false,false,false,false],"id":69,"left_children":[1,3,5,-1,-1,-1,-1],"loss_changes":[1.1647378E-1,1.707322E-1,1.1545314E-1,0E0,0E0,0E0,0E0],"parents":[2147483647,0,0,1,1,2,2],"right_children":[2,4,6,-1,-1,-1,-1],"split_conditions":[-2.7015358E-2,4.5129666E-1,2.7103883E-1,1.3183652E-2,-6.6914424E-2,5.1499385E-2,-1.2393246E-2],"split_indices":[620,203,186,0,0,0,0],"split_type":[0,0,0,0,0,0,0],"sum_hessian":[1.6795431E1,8.086877E0,8.708554E0,4.7377534E0,3.3491235E0,4.6567483E0,4.051806E0],"tree_param":{"num_deleted":"0","num_feature":"768","num_nodes":"7","size_leaf_vector":"0"}},{"base_weights":[1.3668621E-3,5.619522E-2,-1.12522684E-1,-2.210329E-2,1.9145186E-1,9.1213934E-2,-1.4771453E-1],"categories":[],"categories_nodes":[],"categories_segments":[],"categories_sizes":[],"default_left":[true,true,false,true,false,false,false],"id":70,"left_children":[1,3,-1,5,-1,-1,-1],"loss_changes":[1.1657971E-1,1.3752103E-1,0E0,1.396978E-1,0E0,0E0,0E0],"parents":[2147483647,0,0,1,1,3,3],"right_children":[2,4,-1,6,-1,-1,-1],"split_conditions":[5.5480456E-1,3.979057E-1,-3.3756807E-2,-3.737662E-1,5.743556E-2,2.7364181E-2,-4.431436E-2],"split_indices":[433,614,0,527,0,0,0],"split_type":[0,0,0,0,0,0,0],"sum_hessian":[1.6656921E1,1.158587E1,5.0710526E0,7.8678465E0,3.7180228E0,4.2803073E0,3.5875392E0],"tree_param":{"num_deleted":"0","num_feature":"768","num_nodes":"7","size_leaf_vector":"0"}},{"base_weights":[1.8190497E-3,9.209726E-2,-5.8190413E-2,1.885995E-1,-2.7068462E-2,6.9331035E-2,-2.1269375E-1],"categories":[],"categories_nodes":[],"categories_segments":[],"categories_sizes":[],"default_left":[true,true,true,false,false,false,false],"id":71,"left_children":[1,3,5,-1,-1,-1,-1],"loss_changes":[1.0042722E-1,9.013582E-2,2.3450863E-1,0E0,0E0,0E0,0E0],"parents":[2147483647,0,0,1,1,2,2],"right_children":[2,4,6,-1,-1,-1,-1],"split_conditions":[6.91813E-1,-2.889975E-1,-4.8671728E-1,5.657985E-2,-8.120539E-3,2.079931E-2,-6.380813E-2],"split_indices":[348,38,207,0,0,0,0],"split_type":[0,0,0,0,0,0,0],"sum_hessian":[1.654817E1,6.39413E0,1.0154039E1,3.2110815E0,3.183049E0,5.864752E0,4.289288E0],"tree_param":{"num_deleted":"0","num_feature":"768","num_nodes":"7","size_leaf_vector":"0"}},{"base_weights":[2.0050374E-3,6.4406596E-2,-9.6804254E-2,1.9342053E-1,-1.1833711E-2,1.5126515E-2,-1.8208918E-1,-1.3657172E-1,9.953123E-2],"categories":[],"categories_nodes":[],"categories_segments":[],"categories_sizes":[],"default_left":[true,true,true,false,true,false,false,false,false],"id":72,"left_children":[1,3,5,-1,7,-1,-1,-1,-1],"loss_changes":[1.1344582E-1,1.1302172E-1,7.081756E-2,0E0,1.2498221E-1,0E0,0E0,0E0,0E0],"parents":[2147483647,0,0,1,1,2,2,4,4],"right_children":[2,4,6,-1,8,-1,-1,-1,-1],"split_conditions":[2.577272E-1,1.02831334E-1,2.8052533E-1,5.802616E-2,2.1875745E-1,4.537955E-3,-5.4626755E-2,-4.0971518E-2,2.9859371E-2],"split_indices":[488,468,186,0,616,0,0,0,0],"split_type":[0,0,0,0,0,0,0,0,0],"sum_hessian":[1.6387857E1,1.0257841E1,6.130017E0,3.2393034E0,7.018538E0,3.0066392E0,3.1233776E0,3.2037392E0,3.8147986E0],"tree_param":{"num_deleted":"0","num_feature":"768","num_nodes":"9","size_leaf_vector":"0"}},{"base_weights":[1.6557327E-3,-1.240797E-1,4.4511195E-2,1.5747505E-1,-2.5594087E-2,7.255573E-2,-1.1402029E-1],"categories":[],"categories_nodes":[],"categories_segments":[],"categories_sizes":[],"default_left":[true,false,true,false,true,false,false],"id":73,"left_children":[1,-1,3,-1,5,-1,-1],"loss_changes":[9.879292E-2,0E0,1.1209209E-1,0E0,8.881471E-2,0E0,0E0],"parents":[2147483647,0,0,2,2,4,4],"right_children":[2,-1,4,-1,6,-1,-1],"split_conditions":[5.4812634E-1,-3.722391E-2,3.0996463E-1,4.724252E-2,8.707747E-2,2.1766718E-2,-3.420609E-2],"split_indices":[357,0,469,0,204,0,0],"split_type":[0,0,0,0,0,0,0],"sum_hessian":[1.630924E1,3.6639926E0,1.2645247E1,4.3651752E0,8.280072E0,4.009335E0,4.2707367E0],"tree_param":{"num_deleted":"0","num_feature":"768","num_nodes":"7","size_leaf_vector":"0"}},{"base_weights":[1.3762009E-3,4.5439713E-2,-1.2541597E-1,-6.845608E-2,1.0658129E-1,2.351845E-1,-5.245062E-3],"categories":[],"categories_nodes":[],"categories_segments":[],"categories_sizes":[],"default_left":[true,true,false,false,true,false,false],"id":74,"left_children":[1,3,-1,-1,5,-1,-1],"loss_changes":[1.0206166E-1,1.01542234E-1,0E0,0E0,1.3350412E-1,0E0,0E0],"parents":[2147483647,0,0,1,1,4,4],"right_children":[2,4,-1,-1,6,-1,-1],"split_conditions":[-6.784955E-2,-8.299909E0,-3.762479E-2,-2.0536825E-2,3.7417787E-1,7.055535E-2,-1.5735187E-3],"split_indices":[562,557,0,0,260,0,0],"split_type":[0,0,0,0,0,0,0],"sum_hessian":[1.6247965E1,1.2533777E1,3.714187E0,4.3363333E0,8.197444E0,3.2996445E0,4.8977995E0],"tree_param":{"num_deleted":"0","num_feature":"768","num_nodes":"7","size_leaf_vector":"0"}},{"base_weights":[1.9563062E-3,-8.0597475E-2,6.8808466E-2,-2.190605E-1,5.9020467E-2,1.3476793E-1,-5.6645703E-2],"categories":[],"categories_nodes":[],"categories_segments":[],"categories_sizes":[],"default_left":[true,true,true,false,false,false,false],"id":75,"left_children":[1,3,5,-1,-1,-1,-1],"loss_changes":[1.0062439E-1,1.7085521E-1,9.0868086E-2,0E0,0E0,0E0,0E0],"parents":[2147483647,0,0,1,1,2,2],"right_children":[2,4,6,-1,-1,-1,-1],"split_conditions":[2.6271385E-1,-2.6162693E-3,-7.4037814E-1,-6.571815E-2,1.770614E-2,4.0430382E-2,-1.699371E-2],"split_indices":[4,569,279,0,0,0,0],"split_type":[0,0,0,0,0,0,0],"sum_hessian":[1.6227821E1,7.1691904E0,9.058631E0,3.313801E0,3.855389E0,5.888448E0,3.170183E0],"tree_param":{"num_deleted":"0","num_feature":"768","num_nodes":"7","size_leaf_vector":"0"}},{"base_weights":[2.1890229E-4,-3.95074E-2,1.303037E-1,4.0793482E-2,-1.7714815E-1,1.2066361E-1,-6.230137E-2],"categories":[],"categories_nodes":[],"categories_segments":[],"categories_sizes":[],"default_left":[true,true,false,true,false,false,false],"id":76,"left_children":[1,3,-1,5,-1,-1,-1],"loss_changes":[9.312804E-2,1.5985532E-1,0E0,8.602254E-2,0E0,0E0,0E0],"parents":[2147483647,0,0,1,1,3,3],"right_children":[2,4,-1,6,-1,-1,-1],"split_conditions":[4.9535024E-1,-6.0622346E-1,3.909111E-2,2.504754E-1,-5.3144448E-2,3.6199085E-2,-1.8690413E-2],"split_indices":[448,589,0,488,0,0,0],"split_type":[0,0,0,0,0,0,0],"sum_hessian":[1.6024708E1,1.2809223E1,3.2154846E0,8.53402E0,4.2752028E0,4.712622E0,3.8213983E0],"tree_param":{"num_deleted":"0","num_feature":"768","num_nodes":"7","size_leaf_vector":"0"}},{"base_weights":[7.200631E-4,5.3258497E-2,-1.0881826E-1,1.1717304E-1,-9.774463E-2,2.0868066E-1,-3.965416E-3],"categories":[],"categories_nodes":[],"categories_segments":[],"categories_sizes":[],"default_left":[true,true,false,true,false,false,false],"id":77,"left_children":[1,3,-1,5,-1,-1,-1],"loss_changes":[1.0313078E-1,1.2825389E-1,0E0,1.0012597E-1,0E0,0E0,0E0],"parents":[2147483647,0,0,1,1,3,3],"right_children":[2,4,-1,6,-1,-1,-1],"split_conditions":[5.5480456E-1,-2.47548E-1,-3.264548E-2,-1.0285364E-3,-2.932339E-2,6.2604204E-2,-1.1896249E-3],"split_indices":[433,73,0,222,0,0,0],"split_type":[0,0,0,0,0,0,0],"sum_hessian":[1.5913252E1,1.110209E1,4.8111615E0,7.95784E0,3.1442504E0,4.121676E0,3.8361638E0],"tree_param":{"num_deleted":"0","num_feature":"768","num_nodes":"7","size_leaf_vector":"0"}},{"base_weights":[9.2358893E-4,-4.343768E-2,1.2233212E-1,-1.3702008E-1,3.834141E-2,1.2095067E-1,-4.5497492E-2],"categories":[],"categories_nodes":[],"categories_segments":[],"categories_sizes":[],"default_left":[true,true,false,false,true,false,false],"id":78,"left_children":[1,3,-1,-1,5,-1,-1],"loss_changes":[9.611651E-2,1.05399944E-1,0E0,0E0,5.9279755E-2,0E0,0E0],"parents":[2147483647,0,0,1,1,4,4],"right_children":[2,4,-1,-1,6,-1,-1],"split_conditions":[7.035217E-1,3.4156543E-1,3.6699638E-2,-4.1106027E-2,3.0530477E-1,3.6285203E-2,-1.36492485E-2],"split_indices":[173,310,0,0,733,0,0],"split_type":[0,0,0,0,0,0,0],"sum_hessian":[1.5859534E1,1.2085758E1,3.7737765E0,5.32113E0,6.764628E0,3.184338E0,3.5802898E0],"tree_param":{"num_deleted":"0","num_feature":"768","num_nodes":"7","size_leaf_vector":"0"}},{"base_weights":[2.0434887E-3,-9.579492E-2,4.5467064E-2,-3.7615582E-2,1.2183908E-1],"categories":[],"categories_nodes":[],"categories_segments":[],"categories_sizes":[],"default_left":[true,false,true,false,false],"id":79,"left_children":[1,-1,3,-1,-1],"loss_changes":[7.5771384E-2,0E0,8.27594E-2,0E0,0E0],"parents":[2147483647,0,0,2,2],"right_children":[2,-1,4,-1,-1],"split_conditions":[-1.9316529E-1,-2.8738478E-2,7.296263E-2,-1.1284675E-2,3.6551725E-2],"split_indices":[129,0,694,0,0],"split_type":[0,0,0,0,0],"sum_hessian":[1.5809691E1,4.48912E0,1.1320572E1,5.665129E0,5.655442E0],"tree_param":{"num_deleted":"0","num_feature":"768","num_nodes":"5","size_leaf_vector":"0"}},{"base_weights":[1.4604859E-3,6.311202E-2,-7.566574E-2,-1.955774E-2,1.783045E-1,5.400811E-2,-2.0147271E-1],"categories":[],"categories_nodes":[],"categories_segments":[],"categories_sizes":[],"default_left":[true,true,true,false,false,false,false],"id":80,"left_children":[1,3,5,-1,-1,-1,-1],"loss_changes":[8.431316E-2,9.720735E-2,1.3952976E-1,0E0,0E0,0E0,0E0],"parents":[2147483647,0,0,1,1,2,2],"right_children":[2,4,6,-1,-1,-1,-1],"split_conditions":[4.280131E-1,-1.8691957E-1,-2.8488463E-1,-5.8673224E-3,5.349135E-2,1.6202435E-2,-6.0441818E-2],"split_indices":[153,710,104,0,0,0,0],"split_type":[0,0,0,0,0,0,0],"sum_hessian":[1.5727356E1,8.8415165E0,6.88584E0,5.6307406E0,3.2107759E0,3.6718435E0,3.2139966E0],"tree_param":{"num_deleted":"0","num_feature":"768","num_nodes":"7","size_leaf_vector":"0"}},{"base_weights":[1.5217332E-3,4.61393E-2,-1.0165309E-1,1.07139155E-1,-5.7861194E-2,1.9571128E-1,-7.711976E-4],"categories":[],"categories_nodes":[],"categories_segments":[],