{"learner":{"attributes":{"scikit_learn":"{\"use_label_encoder\": true, \"n_estimators\": 500, \"objective\": \"binary:logistic\", \"max_depth\": 4, \"learning_rate\": null, \"verbosity\": null, \"booster\": null, \"tree_method\": null, \"gamma\": null, \"min_child_weight\": 3, \"max_delta_step\": null, \"subsample\": null, \"colsample_bytree\": null, \"colsample_bylevel\": null, \"colsample_bynode\": null, \"reg_alpha\": null, \"reg_lambda\": null, \"scale_pos_weight\": 36.38297872340426, \"base_score\": null, \"missing\": NaN, \"num_parallel_tree\": null, \"kwargs\": {\"eta\": 0.3, \"silent\": 1, \"sub_sample\": 0.8}, \"random_state\": null, \"n_jobs\": null, \"monotone_constraints\": null, \"interaction_constraints\": null, \"importance_type\": \"gain\", \"gpu_id\": null, \"validate_parameters\": null, \"classes_\": [0, 1], \"n_classes_\": 2, \"_le\": {\"classes_\": [0, 1]}, \"_estimator_type\": \"classifier\"}"},"feature_names":[],"feature_types":[],"gradient_booster":{"model":{"gbtree_model_param":{"num_trees":"500","size_leaf_vector":"0"},"tree_info":[0,0,0,0,0,0,0,0,0,0,0,0,0,0,0,0,0,0,0,0,0,0,0,0,0,0,0,0,0,0,0,0,0,0,0,0,0,0,0,0,0,0,0,0,0,0,0,0,0,0,0,0,0,0,0,0,0,0,0,0,0,0,0,0,0,0,0,0,0,0,0,0,0,0,0,0,0,0,0,0,0,0,0,0,0,0,0,0,0,0,0,0,0,0,0,0,0,0,0,0,0,0,0,0,0,0,0,0,0,0,0,0,0,0,0,0,0,0,0,0,0,0,0,0,0,0,0,0,0,0,0,0,0,0,0,0,0,0,0,0,0,0,0,0,0,0,0,0,0,0,0,0,0,0,0,0,0,0,0,0,0,0,0,0,0,0,0,0,0,0,0,0,0,0,0,0,0,0,0,0,0,0,0,0,0,0,0,0,0,0,0,0,0,0,0,0,0,0,0,0,0,0,0,0,0,0,0,0,0,0,0,0,0,0,0,0,0,0,0,0,0,0,0,0,0,0,0,0,0,0,0,0,0,0,0,0,0,0,0,0,0,0,0,0,0,0,0,0,0,0,0,0,0,0,0,0,0,0,0,0,0,0,0,0,0,0,0,0,0,0,0,0,0,0,0,0,0,0,0,0,0,0,0,0,0,0,0,0,0,0,0,0,0,0,0,0,0,0,0,0,0,0,0,0,0,0,0,0,0,0,0,0,0,0,0,0,0,0,0,0,0,0,0,0,0,0,0,0,0,0,0,0,0,0,0,0,0,0,0,0,0,0,0,0,0,0,0,0,0,0,0,0,0,0,0,0,0,0,0,0,0,0,0,0,0,0,0,0,0,0,0,0,0,0,0,0,0,0,0,0,0,0,0,0,0,0,0,0,0,0,0,0,0,0,0,0,0,0,0,0,0,0,0,0,0,0,0,0,0,0,0,0,0,0,0,0,0,0,0,0,0,0,0,0,0,0,0,0,0,0,0,0,0,0,0,0,0,0,0,0,0,0,0,0,0,0,0,0,0,0,0,0,0,0,0,0,0,0,0,0,0,0,0,0,0,0,0,0,0,0,0,0,0,0,0,0,0,0,0,0,0,0,0,0,0,0,0,0,0,0,0,0,0,0,0,0,0,0,0,0],"trees":[{"base_weights":[4.4590266E-8,1.08554E0,-1.3719245E0,1.4570696E0,-1.1784226E0,4.2334157E-1,-1.6617694E0,-1.8961039E0,1.5356181E0,8.1124717E-1,-1.9793282E0,-1.9411764E0,1.5200233E0,4.3982074E-2,-1.9317448E0,1.5983367E0,-1.8666667E0,-1.826087E0,1.8278073E0,-1.7037038E0,1.8213494E0,-1.9444444E0,1.3452013E0,2.7849704E-1,-1.9963404E0],"categories":[],"categories_nodes":[],"categories_segments":[],"categories_sizes":[],"default_left":[true,true,true,true,true,true,true,false,true,true,false,false,true,true,true,false,false,false,false,false,false,false,false,false,false],"id":0,"left_children":[1,3,5,7,9,11,13,-1,15,17,-1,-1,19,21,23,-1,-1,-1,-1,-1,-1,-1,-1,-1,-1],"loss_changes":[2.5496455E3,8.056306E2,3.9421436E2,2.1927527E2,2.1719104E2,2.7761487E2,3.0002722E2,0E0,1.743794E2,1.093374E2,0E0,0E0,7.3937225E1,2.3542471E2,8.084302E1,0E0,0E0,0E0,0E0,0E0,0E0,0E0,0E0,0E0,0E0],"parents":[2147483647,0,0,1,1,2,2,3,3,4,4,5,5,6,6,8,8,9,9,12,12,13,13,14,14],"right_children":[2,4,6,8,10,12,14,-1,16,18,-1,-1,20,22,24,-1,-1,-1,-1,-1,-1,-1,-1,-1,-1],"split_conditions":[-7.384986E-2,-5.6329574E-3,-1.1593655E-1,-2.541296E-1,-4.522742E-1,2.9638922E-2,-3.1052166E-1,-5.688312E-1,-1.1150402E-3,8.1108844E-1,-5.9379846E-1,-5.8235294E-1,4.812235E-1,8.095099E-1,-5.299547E-1,4.7950104E-1,-5.6E-1,-5.478261E-1,5.483422E-1,-5.1111114E-1,5.4640484E-1,-5.833334E-1,4.035604E-1,8.354911E-2,-5.9890217E-1],"split_indices":[235,97,139,689,727,306,647,0,509,300,0,0,617,743,184,0,0,0,0,0,0,0,0,0,0],"split_type":[0,0,0,0,0,0,0,0,0,0,0,0,0,0,0,0,0,0,0,0,0,0,0,0,0],"sum_hessian":[1.71E3,9.547554E2,7.552447E2,8.2046814E2,1.3428723E2,1.0492021E2,6.5032446E2,1.825E1,8.0221814E2,3.8537235E1,9.575E1,3.3E1,7.192021E1,8.897873E1,5.6134576E2,7.8821814E2,1.4E1,1.05E1,2.8037235E1,5.75E0,6.617021E1,3.5E1,5.3978725E1,1.5845745E1,5.455E2],"tree_param":{"num_deleted":"0","num_feature":"768","num_nodes":"25","size_leaf_vector":"0"}},{"base_weights":[-4.1775703E-3,8.1231916E-1,-1.0566248E0,1.0882326E0,-9.1175205E-1,-2.893716E-1,-1.5045308E0,1.1574668E0,-2.1255746E0,6.168125E-1,-1.5347422E0,7.221954E-1,-1.354661E0,-1.5646095E0,1.1320658E0,1.2066433E0,-2.1927931E0,1.4283292E0,-1.4811498E0,-1.5096986E0,1.1951444E0,-1.579513E0,1.4966078E0],"categories":[],"categories_nodes":[],"categories_segments":[],"categories_sizes":[],"default_left":[true,true,true,true,true,true,true,true,false,true,false,true,true,false,false,false,false,false,false,false,false,false,false],"id":1,"left_children":[1,3,5,7,9,11,13,15,-1,17,-1,19,21,-1,-1,-1,-1,-1,-1,-1,-1,-1,-1],"loss_changes":[1.3718003E3,4.2862366E2,2.3923749E2,1.7499084E2,1.1956558E2,2.793313E2,7.148651E1,1.2780896E2,0E0,6.473632E1,0E0,1.4234933E2,8.324657E1,0E0,0E0,0E0,0E0,0E0,0E0,0E0,0E0,0E0,0E0],"parents":[2147483647,0,0,1,1,2,2,3,3,4,4,5,5,6,6,7,7,9,9,11,11,12,12],"right_children":[2,4,6,8,10,12,14,16,-1,18,-1,20,22,-1,-1,-1,-1,-1,-1,-1,-1,-1,-1],"split_conditions":[-7.384986E-2,-5.6329574E-3,3.012594E-1,7.100675E-2,-4.522742E-1,-3.9464223E-1,2.019682E-1,2.0535864E-1,-6.376724E-1,3.0678196E-2,-4.604227E-1,9.692268E-2,7.26826E-1,-4.6938288E-1,3.3961976E-1,3.61993E-1,-6.57838E-1,4.2849877E-1,-4.4434497E-1,-4.5290962E-1,3.5854334E-1,-4.7385392E-1,4.4898236E-1],"split_indices":[235,97,230,642,727,702,398,668,0,367,0,101,10,0,0,0,0,0,0,0,0,0,0],"split_type":[0,0,0,0,0,0,0,0,0,0,0,0,0,0,0,0,0,0,0,0,0,0,0],"sum_hessian":[1.5943805E3,8.9796246E2,6.964181E2,7.743995E2,1.23562996E2,2.5730548E2,4.3911258E2,7.5869495E2,1.5704518E1,3.5780964E1,8.778203E1,1.3214583E2,1.2515966E2,4.297272E2,9.3853855E0,7.4835016E2,1.034477E1,2.6031034E1,9.74993E0,2.272276E1,1.09423065E2,1.1642442E2,8.735235E0],"tree_param":{"num_deleted":"0","num_feature":"768","num_nodes":"23","size_leaf_vector":"0"}},{"base_weights":[-1.0550682E-2,6.489294E-1,-9.0035665E-1,9.6147734E-1,-4.6377355E-1,-2.4621707E-1,-1.2992162E0,1.0643828E0,-1.323796E0,-1.8797814E0,2.3959659E-1,7.181709E-1,-1.0352615E0,-1.3540374E0,9.171512E-1,-2.4184425E0,1.1083382E0,-2.358237E0,-1.339032E0,-1.8021944E0,7.987498E-1,1.0525988E0,-1.5127884E0,9.7218907E-1,-1.3877262E0],"categories":[],"categories_nodes":[],"categories_segments":[],"categories_sizes":[],"default_left":[true,true,true,true,true,true,true,true,false,true,true,true,true,false,false,false,false,false,false,false,false,false,false,false,false],"id":2,"left_children":[1,3,5,7,9,11,13,15,-1,17,19,21,23,-1,-1,-1,-1,-1,-1,-1,-1,-1,-1,-1,-1],"loss_changes":[8.188632E2,2.7917282E2,1.5465845E2,1.4863135E2,1.7617061E2,1.7289113E2,4.6048218E1,9.447443E1,0E0,1.2020538E1,1.3702931E2,7.798753E1,8.967709E1,0E0,0E0,0E0,0E0,0E0,0E0,0E0,0E0,0E0,0E0,0E0,0E0],"parents":[2147483647,0,0,1,1,2,2,3,3,4,4,5,5,6,6,7,7,9,9,10,10,11,11,12,12],"right_children":[2,4,6,8,10,12,14,16,-1,18,20,22,24,-1,-1,-1,-1,-1,-1,-1,-1,-1,-1,-1,-1],"split_conditions":[-7.384986E-2,-3.620608E-1,3.012594E-1,2.9777609E-2,-1.03969365E-1,-4.1580677E-1,2.019682E-1,-7.6498514E-1,-3.9713883E-1,-1.4041243E-2,-1.4757551E-1,3.1404504E-1,3.8182728E-2,-4.0621123E-1,2.7514538E-1,-7.2553277E-1,3.3250147E-1,-7.0747113E-1,-4.0170965E-1,-5.4065835E-1,2.3962495E-1,3.1577966E-1,-4.5383653E-1,2.9165673E-1,-4.1631788E-1],"split_indices":[235,702,230,97,48,702,398,296,0,97,689,381,359,0,0,0,0,0,0,0,0,0,0,0,0],"split_type":[0,0,0,0,0,0,0,0,0,0,0,0,0,0,0,0,0,0,0,0,0,0,0,0,0],"sum_hessian":[1.3934546E3,8.004623E2,5.9299225E2,6.250324E2,1.7542989E2,2.2522874E2,3.6776352E2,5.9861127E2,2.6421127E1,5.766585E1,1.1776404E2,1.0139334E2,1.238354E2,3.5926624E2,8.497294E0,6.787417E0,5.9182385E2,2.8811953E1,2.88539E1,2.4839096E1,9.292494E1,8.863487E1,1.2758466E1,1.8232805E1,1.056026E2],"tree_param":{"num_deleted":"0","num_feature":"768","num_nodes":"25","size_leaf_vector":"0"}},{"base_weights":[-1.6252028E-2,5.327245E-1,-8.030966E-1,7.388589E-1,-6.861917E-1,-1.1059668E0,-3.8698405E-2,8.5502386E-1,-8.3617383E-1,5.868633E-1,-1.3367543E0,-2.5940758E-1,-1.2633201E0,5.607385E-1,-9.3390965E-1,-1.2313379E0,9.379848E-1,-1.9108742E0,1.1568823E0,-1.2752036E0,1.1282945E0,-1.9452547E0,-1.2689295E0,1.1065432E0,-1.202198E0,1.0309806E0,-1.2649043E0,1.1252794E0,-1.2507842E0],"categories":[],"categories_nodes":[],"categories_segments":[],"categories_sizes":[],"default_left":[true,true,true,true,true,true,true,true,true,true,true,true,false,true,true,false,false,false,false,false,false,false,false,false,false,false,false,false,false],"id":3,"left_children":[1,3,5,7,9,11,13,15,17,19,21,23,-1,25,27,-1,-1,-1,-1,-1,-1,-1,-1,-1,-1,-1,-1,-1,-1],"loss_changes":[5.1329236E2,1.7637955E2,1.13013916E2,1.103454E2,8.5069145E1,4.625818E1,7.5445366E1,9.782898E1,9.1450035E1,3.6838734E1,3.238449E-1,7.35422E1,0E0,7.3630264E1,3.8188747E1,0E0,0E0,0E0,0E0,0E0,0E0,0E0,0E0,0E0,0E0,0E0,0E0,0E0,0E0],"parents":[2147483647,0,0,1,1,2,2,3,3,4,4,5,5,6,6,7,7,8,8,9,9,10,10,11,11,13,13,14,14],"right_children":[2,4,6,8,10,12,14,16,18,20,22,24,-1,26,28,-1,-1,-1,-1,-1,-1,-1,-1,-1,-1,-1,-1,-1,-1],"split_conditions":[-7.384986E-2,-1.2922645E-2,3.158226E-1,-2.894738E-1,-4.522742E-1,-4.1190398E-1,-3.642277E-1,-5.097996E-1,4.80573E-1,2.0592132E-1,-5.7151513E-3,2.6870525E-1,-3.7899604E-1,3.330973E-1,4.059404E-2,-3.694014E-1,2.8139547E-1,-5.732623E-1,3.470647E-1,-3.825611E-1,3.3848834E-1,-5.8357644E-1,-3.8067886E-1,3.3196297E-1,-3.6065942E-1,3.092942E-1,-3.794713E-1,3.3758384E-1,-3.7523526E-1],"split_indices":[235,97,717,702,727,727,98,384,186,274,97,230,0,116,134,0,0,0,0,0,0,0,0,0,0,0,0,0,0],"split_type":[0,0,0,0,0,0,0,0,0,0,0,0,0,0,0,0,0,0,0,0,0,0,0,0,0,0,0,0,0],"sum_hessian":[1.1862986E3,6.989609E2,4.8733768E2,5.981926E2,1.0076822E2,3.4872058E2,1.3861708E2,5.575297E2,4.0662907E1,3.4112675E1,6.665554E1,5.507362E1,2.9364697E2,8.324771E1,5.536936E1,2.079212E1,5.367376E2,2.6444614E1,1.4218293E1,7.3792E0,2.6733475E1,3.9085772E0,6.2746967E1,2.2418768E1,3.2654854E1,6.6543076E1,1.6704634E1,7.0438914E0,4.8325474E1],"tree_param":{"num_deleted":"0","num_feature":"768","num_nodes":"29","size_leaf_vector":"0"}},{"base_weights":[-2.1183686E-2,4.4573E-1,-7.386394E-1,6.916472E-1,-3.9572886E-1,-1.029869E0,-4.252771E-2,-2.0348275E0,7.543309E-1,1.2265727E-1,-1.630484E0,-2.3876049E-1,-1.1830167E0,-1.2007357E0,3.697778E-1,-2.78856E0,-1.0574113E0,-2.148308E0,8.0226487E-1,-1.453851E0,6.1012816E-1,-1.8982286E0,-1.1513555E0,-1.1439949E0,9.505165E-1,-1.1405108E0,7.365497E-1],"categories":[],"categories_nodes":[],"categories_segments":[],"categories_sizes":[],"default_left":[true,true,true,true,true,true,true,true,true,true,true,true,false,false,true,false,false,false,false,false,false,false,false,false,false,false,false],"id":4,"left_children":[1,3,5,7,9,11,13,15,17,19,21,23,-1,-1,25,-1,-1,-1,-1,-1,-1,-1,-1,-1,-1,-1,-1],"loss_changes":[3.3262335E2,1.2474555E2,7.931085E1,8.11505E1,8.768196E1,3.31485E1,5.6077686E1,4.9635277E0,6.518384E1,7.557818E1,3.007782E0,5.061619E1,0E0,0E0,4.885544E1,0E0,0E0,0E0,0E0,0E0,0E0,0E0,0E0,0E0,0E0,0E0,0E0],"parents":[2147483647,0,0,1,1,2,2,3,3,4,4,5,5,6,6,7,7,8,8,9,9,10,10,11,11,14,14],"right_children":[2,4,6,8,10,12,14,16,18,20,22,24,-1,-1,26,-1,-1,-1,-1,-1,-1,-1,-1,-1,-1,-1,-1],"split_conditions":[-7.384986E-2,-3.620608E-1,3.158226E-1,4.2709488E-1,-7.900924E-1,-4.1190398E-1,-4.8879755E-1,-1.1963908E-2,2.2750475E-2,-1.477384E-1,-1.3942564E-2,-4.6392724E-2,-3.54905E-1,-3.6022073E-1,-1.9422734E-1,-8.36568E-1,-3.172234E-1,-6.4449245E-1,2.4067947E-1,-4.3615532E-1,1.8303846E-1,-5.694686E-1,-3.4540665E-1,-3.4319848E-1,2.8515497E-1,-3.4215325E-1,2.2096491E-1],"split_indices":[235,702,717,137,443,727,506,97,82,689,97,402,0,0,172,0,0,0,0,0,0,0,0,0,0,0,0],"split_type":[0,0,0,0,0,0,0,0,0,0,0,0,0,0,0,0,0,0,0,0,0,0,0,0,0,0,0],"sum_hessian":[9.9095264E2,6.0051904E2,3.9043362E2,4.6484552E2,1.3567352E2,2.7493195E2,1.1550165E2,9.739891E0,4.5510565E2,9.6190575E1,3.948294E1,4.5005924E1,2.2992604E2,2.9820524E1,8.568113E1,4.452987E0,5.286904E0,6.681642E0,4.48424E2,2.2250092E1,7.394048E1,2.3428751E1,1.605419E1,2.5576271E1,1.9429653E1,1.6329622E1,6.93515E1],"tree_param":{"num_deleted":"0","num_feature":"768","num_nodes":"27","size_leaf_vector":"0"}},{"base_weights":[-2.9044274E-2,3.6017E-1,-6.8126357E-1,5.980704E-1,-4.5094794E-1,-1.551676E-1,-1.061686E0,6.659149E-1,-1.9628586E0,-1.4480666E0,4.3673784E-1,-6.537494E-1,7.4519396E-1,6.074971E-1,-1.1216254E0,7.263635E-1,-1.4779088E0,-2.6326833E0,-1.0748738E0,1.0191318E0,-1.9363348E0,-1.7357806E0,9.001022E-1,3.3868265E-1,-1.1776701E0,-1.0015473E0,9.812369E-1],"categories":[],"categories_nodes":[],"categories_segments":[],"categories_sizes":[],"default_left":[true,true,true,true,true,true,true,true,true,true,true,true,true,false,false,false,false,false,false,false,false,false,false,false,false,false,false],"id":5,"left_children":[1,3,5,7,9,11,13,15,17,19,21,23,25,-1,-1,-1,-1,-1,-1,-1,-1,-1,-1,-1,-1,-1,-1],"loss_changes":[2.1408104E2,1.0219384E2,6.2911087E1,7.2341446E1,1.07163956E2,6.0383953E1,1.8963623E1,5.2785187E1,3.5968895E0,7.053788E1,6.643294E1,4.5327034E1,2.0782202E1,0E0,0E0,0E0,0E0,0E0,0E0,0E0,0E0,0E0,0E0,0E0,0E0,0E0,0E0],"parents":[2147483647,0,0,1,1,2,2,3,3,4,4,5,5,6,6,7,7,8,8,9,9,10,10,11,11,12,12],"right_children":[2,4,6,8,10,12,14,16,18,20,22,24,26,-1,-1,-1,-1,-1,-1,-1,-1,-1,-1,-1,-1,-1,-1],"split_conditions":[-7.384986E-2,-4.9120706E-1,3.012594E-1,3.19169E-2,2.7085114E-1,3.2864317E-1,-3.0986482E-1,-1.1150402E-3,-1.8707355E-2,-3.1059483E-1,-2.505224E-1,-6.006151E-1,1.002824E-1,1.8224913E-1,-3.3648765E-1,2.1790905E-1,-4.4337267E-1,-7.89805E-1,-3.2246214E-1,3.0573955E-1,-5.809005E-1,-5.207342E-1,2.7003068E-1,1.016048E-1,-3.5330105E-1,-3.004642E-1,2.9437107E-1],"split_indices":[235,529,230,620,701,532,757,509,97,600,457,598,101,0,0,0,0,0,0,0,0,0,0,0,0,0,0],"split_type":[0,0,0,0,0,0,0,0,0,0,0,0,0,0,0,0,0,0,0,0,0,0,0,0,0,0,0],"sum_hessian":[8.4136E2,5.2719946E2,3.141605E2,4.078423E2,1.193572E2,1.3242897E2,1.8173152E2,3.9803738E2,9.804901E0,5.591631E1,6.344089E1,8.5407715E1,4.7021248E1,5.982982E0,1.7574854E2,3.877649E2,1.0272474E1,4.4690347E0,5.3358665E0,9.058229E0,4.685808E1,1.0669606E1,5.2771286E1,2.9631695E1,5.577602E1,5.211626E0,4.1809624E1],"tree_param":{"num_deleted":"0","num_feature":"768","num_nodes":"27","size_leaf_vector":"0"}},{"base_weights":[-3.4990866E-2,-7.733443E-1,2.621553E-1,1.659469E-1,-1.0836552E0,5.0526506E-1,-7.2926074E-1,6.455779E-1,-1.3775173E0,-1.3332138E0,2.183246E-1,6.238116E-1,-7.69349E-1,9.7296536E-2,-1.1885607E0,-1.3589873E0,9.351462E-1,-1.6867478E0,-9.494295E-1,-1.8571651E0,-1.0962732E0,8.8179713E-1,-1.475478E0,6.7903465E-1,-1.6117066E0,-1.3791199E0,9.868897E-1,-1.0969001E0,7.4919766E-1],"categories":[],"categories_nodes":[],"categories_segments":[],"categories_sizes":[],"default_left":[true,true,true,true,true,true,true,true,true,true,true,true,true,true,false,false,false,false,false,false,false,false,false,false,false,false,false,false,false],"id":6,"left_children":[1,3,5,7,9,11,13,15,17,19,21,23,25,27,-1,-1,-1,-1,-1,-1,-1,-1,-1,-1,-1,-1,-1,-1,-1],"loss_changes":[1.562869E2,5.9757057E1,1.2281205E2,3.9107407E1,5.0255768E1,6.2214653E1,3.8250526E1,2.4528229E1,6.1006546E-2,1.4001373E1,3.0062729E1,4.7309006E1,3.9071148E1,2.947417E1,0E0,0E0,0E0,0E0,0E0,0E0,0E0,0E0,0E0,0E0,0E0,0E0,0E0,0E0,0E0],"parents":[2147483647,0,0,1,1,2,2,3,3,4,4,5,5,6,6,7,7,8,8,9,9,10,10,11,11,12,12,13,13],"right_children":[2,4,6,8,10,12,14,16,18,20,22,24,26,28,-1,-1,-1,-1,-1,-1,-1,-1,-1,-1,-1,-1,-1,-1,-1],"split_conditions":[-2.403336E-2,8.744651E-2,-1.2970516E-2,3.2957903E-1,3.5257983E-1,-2.0707065E-1,-2.0287004E-1,-6.385462E-1,-7.563949E-2,-7.51632E-2,7.018092E-2,-3.094191E-1,-3.8888648E-1,3.9795357E-1,-3.5656822E-1,-4.0769622E-1,2.8054386E-1,-5.0602436E-1,-2.8482887E-1,-5.571495E-1,-3.2888198E-1,2.6453915E-1,-4.4264343E-1,2.037104E-1,-4.83512E-1,-4.13736E-1,2.9606694E-1,-3.2907003E-1,2.2475931E-1],"split_indices":[685,723,97,230,49,727,360,393,235,235,169,351,57,431,0,0,0,0,0,0,0,0,0,0,0,0,0,0,0],"split_type":[0,0,0,0,0,0,0,0,0,0,0,0,0,0,0,0,0,0,0,0,0,0,0,0,0,0,0,0,0],"sum_hessian":[7.104173E2,2.0340092E2,5.0701636E2,5.062564E1,1.527753E2,4.0756564E2,9.9450714E1,3.906724E1,1.1558398E1,1.2818188E2,2.4593407E1,3.733523E2,3.4213364E1,3.580468E1,6.364603E1,4.464961E0,3.460228E1,5.0037403E0,6.5546575E0,3.778627E1,9.0395615E1,1.8015879E1,6.577529E0,3.6503134E2,8.32096E0,2.5555244E1,8.65812E0,1.2402437E1,2.3402245E1],"tree_param":{"num_deleted":"0","num_feature":"768","num_nodes":"29","size_leaf_vector":"0"}},{"base_weights":[-4.2104755E-2,5.943842E-1,-3.265592E-1,-1.526387E0,7.0203507E-1,-9.011069E-1,3.908715E-2,-1.827207E0,-8.607484E-1,-3.4214807E-1,8.6578953E-1,3.9982527E-1,-1.1655874E0,3.8264585E-1,-6.4715713E-1,-1.2802277E0,7.7969354E-1,-1.1849383E0,9.2103153E-1,9.49622E-1,-1.6501667E0,-1.2952111E0,7.211292E-1,-1.8316889E0,4.911961E-1,4.5617706E-1,-1.1337097E0],"categories":[],"categories_nodes":[],"categories_segments":[],"categories_sizes":[],"default_left":[true,true,true,true,true,true,true,false,false,true,true,true,true,true,true,false,false,false,false,false,false,false,false,false,false,false,false],"id":7,"left_children":[1,3,5,7,9,11,13,-1,-1,15,17,19,21,23,25,-1,-1,-1,-1,-1,-1,-1,-1,-1,-1,-1,-1],"loss_changes":[1.0924008E2,4.3624E1,8.7619095E1,2.932415E-1,3.074382E1,5.6266815E1,6.0539097E1,0E0,0E0,2.7156528E1,1.8561287E1,3.3288647E1,3.3958115E1,4.2012184E1,4.651605E1,0E0,0E0,0E0,0E0,0E0,0E0,0E0,0E0,0E0,0E0,0E0,0E0],"parents":[2147483647,0,0,1,1,2,2,3,3,4,4,5,5,6,6,9,9,10,10,11,11,12,12,13,13,14,14],"right_children":[2,4,6,8,10,12,14,-1,-1,16,18,20,22,24,26,-1,-1,-1,-1,-1,-1,-1,-1,-1,-1,-1,-1],"split_conditions":[-1.499646E-1,-3.389133E-1,7.322735E-2,-7.369043E-2,-3.4004945E-2,-5.254998E-1,-3.6201543E-1,-5.481621E-1,-2.5822455E-1,-2.4517855E-2,1.4277041E-1,-3.326224E-1,-1.3039166E-1,-4.346795E-1,-3.6156958E-1,-3.840683E-1,2.3390807E-1,-3.554815E-1,2.7630946E-1,2.848866E-1,-4.9505004E-1,-3.8856333E-1,2.1633877E-1,-5.4950666E-1,1.4735883E-1,1.3685313E-1,-3.4011292E-1],"split_indices":[97,104,568,235,685,702,702,0,0,477,243,226,36,168,0,0,0,0,0,0,0,0,0,0,0,0,0],"split_type":[0,0,0,0,0,0,0,0,0,0,0,0,0,0,0,0,0,0,0,0,0,0,0,0,0,0,0],"sum_hessian":[6.012906E2,1.8538582E2,4.1590475E2,8.318985E0,1.7706683E2,1.6117801E2,2.5472676E2,4.527736E0,3.7912488E0,2.3856445E1,1.5321039E2,2.714498E1,1.3403302E2,1.7004066E2,8.46861E1,1.2915429E1,1.0941016E1,3.4824562E0,1.4972794E2,2.1827682E1,5.317298E0,1.2570985E2,8.3231735E0,7.2043247E0,1.6283633E2,2.5935566E1,5.875053E1],"tree_param":{"num_deleted":"0","num_feature":"768","num_nodes":"27","size_leaf_vector":"0"}},{"base_weights":[-4.542927E-2,2.4131396E-1,-5.926926E-1,4.519903E-1,-5.29525E-1,4.4231614E-1,-8.385979E-1,5.277432E-1,-1.30251E0,-1.0157613E0,5.063904E-1,7.7352154E-1,-1.1301851E0,-1.32961115E-2,-1.2268564E0,-6.957596E-1,6.248336E-1,4.8880324E-1,-1.2887958E0,-1.2656405E0,9.699044E-1,-2.7595907E-1,1.0448257E0,-1.2587289E0,5.58791E-1,1.6910136E-1,-1.3666697E0],"categories":[],"categories_nodes":[],"categories_segments":[],"categories_sizes":[],"default_left":[true,true,true,true,true,true,true,true,false,true,true,true,false,true,true,false,false,false,false,false,false,false,false,false,false,false,false],"id":8,"left_children":[1,3,5,7,9,11,13,15,-1,17,19,21,-1,23,25,-1,-1,-1,-1,-1,-1,-1,-1,-1,-1,-1,-1],"loss_changes":[8.060696E1,5.4995674E1,4.5313663E1,3.5953545E1,3.720034E1,1.8870857E1,4.5814247E1,3.073471E1,0E0,2.1128754E1,2.0885277E1,8.584261E0,0E0,3.4027107E1,1.9213242E1,0E0,0E0,0E0,0E0,0E0,0E0,0E0,0E0,0E0,0E0,0E0,0E0],"parents":[2147483647,0,0,1,1,2,2,3,3,4,4,5,5,6,6,7,7,9,9,10,10,11,11,13,13,14,14],"right_children":[2,4,6,8,10,12,14,16,-1,18,20,22,-1,24,26,-1,-1,-1,-1,-1,-1,-1,-1,-1,-1,-1,-1],"split_conditions":[-3.006298E-1,-2.1462288E-1,-9.2939436E-1,8.9919955E-2,9.04537E-2,4.5051497E-1,-3.0883515E-1,2.8133018E-2,-3.9075303E-1,-5.5489443E-2,-4.584039E-2,-3.429919E-1,-3.3905554E-1,-9.8875225E-2,-2.6791906E-1,-2.0872788E-1,1.8745008E-1,1.4664097E-1,-3.8663876E-1,-3.7969217E-1,2.9097134E-1,-8.278772E-2,3.134477E-1,-3.7761867E-1,1.676373E-1,5.073041E-2,-4.1000092E-1],"split_indices":[727,5,327,22,405,117,347,181,0,362,581,291,0,48,222,0,0,0,0,0,0,0,0,0,0,0,0],"split_type":[0,0,0,0,0,0,0,0,0,0,0,0,0,0,0,0,0,0,0,0,0,0,0,0,0,0,0],"sum_hessian":[5.1175714E2,3.3617468E2,1.7558249E2,2.6434164E2,7.183302E1,3.355436E1,1.4202812E2,2.54071E2,1.0270648E1,4.889991E1,2.293311E1,2.8136295E1,5.418065E0,4.5770428E1,9.62577E1,1.8226042E1,2.3584496E2,7.3895164E0,4.1510395E1,4.396106E0,1.8537004E1,5.775989E0,2.2360306E1,1.4029024E1,3.1741404E1,8.74403E0,8.751367E1],"tree_param":{"num_deleted":"0","num_feature":"768","num_nodes":"27","size_leaf_vector":"0"}},{"base_weights":[-4.9412224E-2,4.0591115E-1,-3.368082E-1,5.641345E-1,-1.0983664E0,-1.2426351E0,-4.9433175E-2,-1.1639512E0,6.59054E-1,3.329667E-1,-1.4416875E0,4.870508E-1,-1.4377581E0,-7.9837304E-1,2.3453592E-1,7.3909795E-1,-9.600216E-1,-1.740839E0,-9.2344135E-1,2.3103969E-1,6.4166826E-1,-1.7553757E0,-1.0294213E0,3.476508E-1,-1.2478094E0,4.2942032E-1,-8.1744176E-1],"categories":[],"categories_nodes":[],"categories_segments":[],"categories_sizes":[],"default_left":[true,true,true,true,true,true,true,false,true,false,true,true,true,true,true,false,false,false,false,false,false,false,false,false,false,false,false],"id":9,"left_children":[1,3,5,7,9,11,13,-1,15,-1,17,19,21,23,25,-1,-1,-1,-1,-1,-1,-1,-1,-1,-1,-1,-1],"loss_changes":[5.752308E1,4.11165E1,7.0064644E1,2.6128304E1,8.604216E0,2.2583847E1,4.3903255E1,0E0,1.9786541E1,0E0,4.8877335E-1,1.4150095E-1,5.78273E0,2.9657482E1,3.1065102E1,0E0,0E0,0E0,0E0,0E0,0E0,0E0,0E0,0E0,0E0,0E0,0E0],"parents":[2147483647,0,0,1,1,2,2,3,3,4,4,5,5,6,6,8,8,10,10,11,11,12,12,13,13,14,14],"right_children":[2,4,6,8,10,12,14,-1,16,-1,18,20,22,24,26,-1,-1,-1,-1,-1,-1,-1,-1,-1,-1,-1,-1],"split_conditions":[-1.2087165E-1,7.908028E-1,-2.4848358E-1,-2.5915104E-1,-5.620198E-1,-7.1478087E-1,7.317859E-2,-3.4918535E-1,4.1278027E-2,9.989001E-2,-7.369043E-2,5.9574175E-1,-7.3996216E-2,-4.9244797E-1,-4.7969267E-2,2.217294E-1,-2.8800648E-1,-5.222517E-1,-2.770324E-1,6.931191E-2,1.9250049E-1,-5.2661276E-1,-3.0882642E-1,1.0429525E-1,-3.7434283E-1,1.288261E-1,-2.4523254E-1],"split_indices":[97,68,241,477,465,720,568,0,235,0,235,357,235,755,406,0,0,0,0,0,0,0,0,0,0,0,0],"split_type":[0,0,0,0,0,0,0,0,0,0,0,0,0,0,0,0,0,0,0,0,0,0,0,0,0,0,0],"sum_hessian":[4.3753888E2,1.6914653E2,2.6839236E2,1.5361403E2,1.5532492E1,6.383999E1,2.0455237E2,7.4119043E0,1.4620213E2,3.0107205E0,1.2521771E1,6.3199615E0,5.7520027E1,5.573787E1,1.488145E2,1.3983258E2,6.369547E0,6.443335E0,6.078436E0,3.3188958E0,3.0010657E0,3.0498476E1,2.7021551E1,1.5764989E1,3.997288E1,1.2605411E2,2.276039E1],"tree_param":{"num_deleted":"0","num_feature":"768","num_nodes":"27","size_leaf_vector":"0"}},{"base_weights":[-5.2096527E-2,1.8403831E-1,-5.321099E-1,-5.5972004E-1,3.5696822E-1,-7.8745234E-1,5.8819544E-1,4.3941304E-1,-1.2523439E0,4.8271763E-1,-8.799621E-1,2.927642E-1,-1.166881E0,9.081737E-1,-4.091488E-1,8.2534945E-1,-1.1252966E0,-1.4687351E0,-1.0138948E0,5.8036333E-1,-5.621347E-1,6.153419E-1,-1.5541215E0,7.0159477E-1,-1.122797E0,2.1036081E-1,-1.3010954E0,3.558591E-1,9.9317527E-1],"categories":[],"categories_nodes":[],"categories_segments":[],"categories_sizes":[],"default_left":[true,true,true,true,true,true,true,true,true,true,true,true,true,true,false,false,false,false,false,false,false,false,false,false,false,false,false,false,false],"id":10,"left_children":[1,3,5,7,9,11,13,15,17,19,21,23,25,27,-1,-1,-1,-1,-1,-1,-1,-1,-1,-1,-1,-1,-1,-1,-1],"loss_changes":[4.3483368E1,3.3293015E1,3.664001E1,3.4409485E1,3.2990944E1,4.2729378E1,8.045472E0,1.3472431E1,1.5254974E-2,1.9782001E1,2.0790318E1,1.6808422E1,1.4458038E1,5.1585674E-1,0E0,0E0,0E0,0E0,0E0,0E0,0E0,0E0,0E0,0E0,0E0,0E0,0E0,0E0,0E0],"parents":[2147483647,0,0,1,1,2,2,3,3,4,4,5,5,6,6,7,7,8,8,9,9,10,10,11,11,12,12,13,13],"right_children":[2,4,6,8,10,12,14,16,18,20,22,24,26,28,-1,-1,-1,-1,-1,-1,-1,-1,-1,-1,-1,-1,-1,-1,-1],"split_conditions":[-4.506964E-1,-1.5158746E-2,2.6022452E-1,-1.4759508E-1,4.124056E-1,2.0539588E-1,4.1725796E-1,1.8082088E-1,-7.492694E-2,-1.40367765E-2,-4.8868626E-1,-5.0036925E-1,-2.9667032E-1,1.0008894E-1,-1.2274465E-1,2.4760485E-1,-3.37589E-1,-4.4062054E-1,-3.0416846E-1,1.7410901E-1,-1.686404E-1,1.8460257E-1,-4.6623647E-1,2.1047844E-1,-3.368391E-1,6.310824E-2,-3.9032862E-1,1.0675774E-1,2.979526E-1],"split_indices":[351,200,568,629,116,11,153,259,235,97,55,529,683,639,0,0,0,0,0,0,0,0,0,0,0,0,0,0,0],"split_type":[0,0,0,0,0,0,0,0,0,0,0,0,0,0,0,0,0,0,0,0,0,0,0,0,0,0,0,0,0],"sum_hessian":[3.8176355E2,2.562983E2,1.2546523E2,4.7927803E1,2.0837051E2,1.0241882E2,2.3046413E1,1.9771841E1,2.815596E1,1.8969536E2,1.8675156E1,2.6682716E1,7.573611E1,1.7516119E1,5.530294E0,1.6239006E1,3.5328367E0,1.2055834E1,1.6100126E1,1.7388925E2,1.5806108E1,5.830405E0,1.2844751E1,2.1094692E1,5.5880237E0,6.674844E0,6.9061264E1,3.0279448E0,1.44881735E1],"tree_param":{"num_deleted":"0","num_feature":"768","num_nodes":"29","size_leaf_vector":"0"}},{"base_weights":[-5.4662473E-2,2.2217453E-1,-4.4641563E-1,-8.574488E-1,4.0086547E-1,-8.2434344E-1,4.9577557E-2,3.648979E-1,-1.2395843E0,5.416841E-1,-5.862633E-1,3.8298454E-2,-1.1159868E0,-1.3423126E0,2.9606402E-1,-1.4750236E-1,7.9632914E-1,6.546681E-1,-8.6654097E-1,-1.8670145E0,6.6110027E-1,6.2435484E-1,-1.1221024E0,1.4504994E-1,-1.2560177E0,-1.1531518E0,4.8980576E-1],"categories":[],"categories_nodes":[],"categories_segments":[],"categories_sizes":[],"default_left":[true,true,true,true,true,true,true,true,false,true,true,true,true,false,true,false,false,false,false,false,false,false,false,false,false,false,false],"id":11,"left_children":[1,3,5,7,9,11,13,15,-1,17,19,21,23,-1,25,-1,-1,-1,-1,-1,-1,-1,-1,-1,-1,-1,-1],"loss_changes":[3.5744076E1,3.762503E1,2.56131E1,1.3419758E1,2.34603E1,1.9536175E1,2.0961412E1,1.7499082E0,0E0,2.3832203E1,3.5206978E1,1.467158E1,1.0413307E1,0E0,1.5092258E1,0E0,0E0,0E0,0E0,0E0,0E0,0E0,0E0,0E0,0E0,0E0,0E0],"parents":[2147483647,0,0,1,1,2,2,3,3,4,4,5,5,6,6,7,7,9,9,10,10,11,11,12,12,14,14],"right_children":[2,4,6,8,10,12,14,16,-1,18,20,22,24,-1,26,-1,-1,-1,-1,-1,-1,-1,-1,-1,-1,-1,-1],"split_conditions":[3.0131006E-1,4.9576166E-1,1.1714356E-1,-1.6255793E-1,1.7337331E-1,-1.6147046E-1,3.4938133E-1,-3.5797033E-1,-3.7187532E-1,-3.0225273E-2,-2.5423092E-1,-5.844717E-1,4.55292E-2,-4.0269378E-1,-3.833126E-1,-4.425071E-2,2.3889875E-1,1.9640043E-1,-2.599623E-1,-5.6010437E-1,1.9833009E-1,1.8730646E-1,-3.3663073E-1,4.3514986E-2,-3.7680534E-1,-3.4594554E-1,1.4694174E-1],"split_indices":[711,234,110,97,424,97,364,18,0,509,692,529,723,0,84,0,0,0,0,0,0,0,0,0,0,0,0],"split_type":[0,0,0,0,0,0,0,0,0,0,0,0,0,0,0,0,0,0,0,0,0,0,0,0,0,0,0],"sum_hessian":[3.2767047E2,1.922486E2,1.3542188E2,2.6761456E1,1.6548714E2,7.648286E1,5.893902E1,6.384453E0,2.0377003E1,1.4522182E2,2.0265331E1,1.954375E1,5.6939106E1,8.198264E0,5.0740757E1,3.2191987E0,3.165254E0,1.3493118E2,1.0290622E1,9.753744E0,1.0511587E1,1.3292413E1,6.2513375E0,5.6872444E0,5.1251865E1,5.399526E0,4.534123E1],"tree_param":{"num_deleted":"0","num_feature":"768","num_nodes":"27","size_leaf_vector":"0"}},{"base_weights":[-5.9311103E-2,1.582481E-1,-5.1477206E-1,4.9527425E-1,-2.0472607E-1,-7.4271464E-1,3.303449E-1,6.285616E-1,-4.7931162E-1,-1.0929307E0,7.681554E-2,2.3487646E-2,-1.1998247E0,7.436834E-1,-1.0332688E0,7.248982E-1,-5.714241E-1,8.3121413E-1,-1.3437061E0,-1.4471837E0,3.850213E-1,-5.7579887E-1,5.7285416E-1,-1.187857E0,4.8372835E-1,-1.0937715E-1,-1.274454E0,9.578785E-1,-4.8780214E-2],"categories":[],"categories_nodes":[],"categories_segments":[],"categories_sizes":[],"default_left":[true,true,true,true,true,true,true,true,true,true,true,true,true,true,false,false,false,false,false,false,false,false,false,false,false,false,false,false,false],"id":12,"left_children":[1,3,5,7,9,11,13,15,17,19,21,23,25,27,-1,-1,-1,-1,-1,-1,-1,-1,-1,-1,-1,-1,-1,-1,-1],"loss_changes":[2.815314E1,2.3648169E1,1.793198E1,1.3304455E1,2.343553E1,2.546162E1,1.2151173E1,1.0643997E1,1.5402209E1,1.235911E1,2.3586084E1,1.624925E1,3.56353E0,2.7760258E0,0E0,0E0,0E0,0E0,0E0,0E0,0E0,0E0,0E0,0E0,0E0,0E0,0E0,0E0,0E0],"parents":[2147483647,0,0,1,1,2,2,3,3,4,4,5,5,6,6,7,7,8,8,9,9,10,10,11,11,12,12,13,13],"right_children":[2,4,6,8,10,12,14,16,18,20,22,24,26,28,-1,-1,-1,-1,-1,-1,-1,-1,-1,-1,-1,-1,-1,-1,-1],"split_conditions":[-3.006298E-1,-9.038691E-2,-1.98515E-1,4.2187166E-1,2.9564124E-1,2.5637108E-1,-4.675658E-1,-1.4090453E-1,4.3840292E-1,-4.690798E-3,3.860485E-1,5.0647542E-2,1.5566781E-1,4.326147E-2,-3.0998066E-1,2.1746947E-1,-1.7142725E-1,2.4936424E-1,-4.0311185E-1,-4.3415514E-1,1.15506396E-1,-1.7273967E-1,1.7185625E-1,-3.5635713E-1,1.451185E-1,-3.2813147E-2,-3.8233623E-1,2.8736356E-1,-1.4634064E-2],"split_indices":[727,642,120,352,16,230,351,1,322,202,231,570,16,594,0,0,0,0,0,0,0,0,0,0,0,0,0,0,0],"split_type":[0,0,0,0,0,0,0,0,0,0,0,0,0,0,0,0,0,0,0,0,0,0,0,0,0,0,0,0,0],"sum_hessian":[2.822956E2,1.9148286E2,9.081271E1,9.910143E1,9.238144E1,7.161743E1,1.9195282E1,8.7490944E1,1.1610486E1,2.1541277E1,7.084016E1,2.7115456E1,4.4501976E1,1.50791235E1,4.1161594E0,8.135552E1,6.1354246E0,4.629697E0,6.9807897E0,1.739311E1,4.1481676E0,3.0522442E1,4.0317715E1,7.030463E0,2.0084991E1,3.0085201E0,4.1493458E1,1.1706293E1,3.3728304E0],"tree_param":{"num_deleted":"0","num_feature":"768","num_nodes":"29","size_leaf_vector":"0"}},{"base_weights":[-5.7773132E-2,-6.167725E-1,1.0950827E-1,2.643196E-1,-9.230773E-1,-6.664532E-2,6.837255E-1,7.657689E-1,-9.430465E-1,-1.164423E0,3.012686E-1,-1.154587E0,9.943524E-2,8.041863E-1,-3.4666002E-1,9.091266E-1,3.498859E-1,-3.52472E-1,7.904847E-1,-1.4404829E-2,-1.3650309E0,5.850364E-1,-2.4142246E-1,9.4094074E-1,5.8988415E-2],"categories":[],"categories_nodes":[],"categories_segments":[],"categories_sizes":[],"default_left":[true,true,true,true,true,true,true,true,false,false,true,true,true,true,false,false,false,false,false,false,false,false,false,false,false],"id":13,"left_children":[1,3,5,7,9,11,13,15,-1,-1,17,19,21,23,-1,-1,-1,-1,-1,-1,-1,-1,-1,-1,-1],"loss_changes":[2.299562E1,1.5526155E1,1.9220465E1,1.0036511E1,1.28325E1,2.6490837E1,5.8134575E0,3.6288357E-1,0E0,0E0,2.7572103E0,4.638197E0,2.1255901E1,4.043768E0,0E0,0E0,0E0,0E0,0E0,0E0,0E0,0E0,0E0,0E0,0E0],"parents":[2147483647,0,0,1,1,2,2,3,3,4,4,5,5,6,6,7,7,10,10,11,11,12,12,13,13],"right_children":[2,4,6,8,10,12,14,16,-1,-1,18,20,22,24,-1,-1,-1,-1,-1,-1,-1,-1,-1,-1,-1],"split_conditions":[-3.306111E-2,-1.8527693E-1,-6.7915335E-2,1.200755E-1,3.0924147E-1,-3.4706974E-1,-2.760768E-2,1.1395003E-2,-2.8291395E-1,-3.493269E-1,-1.0636859E-1,-3.00559E-1,-1.2672934E-1,-3.04681E-1,-1.0399801E-1,2.7273798E-1,1.04965776E-1,-1.05741605E-1,2.3714542E-1,-4.321449E-3,-4.0950927E-1,1.7551093E-1,-7.2426744E-2,2.8228223E-1,1.7696526E-2],"split_indices":[685,642,648,522,313,440,62,565,0,0,58,477,97,755,0,0,0,0,0,0,0,0,0,0,0],"split_type":[0,0,0,0,0,0,0,0,0,0,0,0,0,0,0,0,0,0,0,0,0,0,0,0,0],"sum_hessian":[2.4419336E2,5.5625206E1,1.8856815E2,1.4384622E1,4.1240585E1,1.4497719E2,4.359096E1,1.0421899E1,3.9627223E0,3.4490654E1,6.749931E0,1.8412262E1,1.26564926E2,3.922478E1,4.3661823E0,6.868325E0,3.5535736E0,3.0087922E0,3.741139E0,3.0353293E0,1.5376932E1,5.1903915E1,7.466101E1,3.292069E1,6.30409E0],"tree_param":{"num_deleted":"0","num_feature":"768","num_nodes":"25","size_leaf_vector":"0"}},{"base_weights":[-4.824701E-2,1.7355156E-1,-4.4106996E-1,-3.3183938E-1,3.8479E-1,-9.165118E-1,1.8852793E-1,-8.8781124E-1,2.5663337E-1,5.254582E-1,-5.249006E-1,4.3880537E-1,-1.1611189E0,-9.114643E-1,5.489537E-1,-1.2198347E0,1.468099E-1,-5.4180497E-1,7.471743E-1,-6.202953E-1,6.387828E-1,4.671255E-1,-1.1043946E0,7.922179E-1,2.7334286E-2,-1.1442755E-1,-1.3213617E0,-1.1832697E0,-2.8293365E-1,-5.098675E-1,8.175884E-1],"categories":[],"categories_nodes":[],"categories_segments":[],"categories_sizes":[],"default_left":[true,true,true,true,true,true,true,true,true,true,true,true,true,true,true,false,false,false,false,false,false,false,false,false,false,false,false,false,false,false,false],"id":14,"left_children":[1,3,5,7,9,11,13,15,17,19,21,23,25,27,29,-1,-1,-1,-1,-1,-1,-1,-1,-1,-1,-1,-1,-1,-1,-1,-1],"loss_changes":[1.916029E1,1.5149351E1,2.391757E1,1.3973369E1,1.3033208E1,1.5549206E1,1.4360259E1,7.6771393E0,8.702528E0,1.1672102E1,8.478907E0,1.0924838E0,6.3404694E0,1.2033634E0,8.083868E0,0E0,0E0,0E0,0E0,0E0,0E0,0E0,0E0,0E0,0E0,0E0,0E0,0E0,0E0,0E0,0E0],"parents":[2147483647,0,0,1,1,2,2,3,3,4,4,5,5,6,6,7,7,8,8,9,9,10,10,11,11,12,12,13,13,14,14],"right_children":[2,4,6,8,10,12,14,16,18,20,22,24,26,28,30,-1,-1,-1,-1,-1,-1,-1,-1,-1,-1,-1,-1,-1,-1,-1,-1],"split_conditions":[-1.3090823E-2,2.4254164E-1,6.333673E-1,1.256795E-1,-6.8821535E-2,7.43285E-2,-1.849271E-1,-1.9496648E-1,-1.7135361E-1,-4.2426535E-1,-1.7763829E-1,-3.3440113E-1,-2.844689E-1,-1.729897E-1,3.5581492E-2,-3.659504E-1,4.4042975E-2,-1.625415E-1,2.2415231E-1,-1.8608859E-1,1.9163485E-1,1.4013766E-1,-3.3131838E-1,2.3766539E-1,8.200286E-3,-3.4328267E-2,-3.9640853E-1,-3.5498095E-1,-8.48801E-2,-1.5296026E-1,2.4527653E-1],"split_indices":[191,687,92,633,143,244,104,36,148,664,269,27,183,240,338,0,0,0,0,0,0,0,0,0,0,0,0,0,0,0,0],"split_type":[0,0,0,0,0,0,0,0,0,0,0,0,0,0,0,0,0,0,0,0,0,0,0,0,0,0,0,0,0,0,0],"sum_hessian":[2.1803215E2,1.3970761E2,7.832454E1,4.1012856E1,9.869476E1,4.4365875E1,3.3958664E1,2.0827229E1,2.0185627E1,8.584298E1,1.2851782E1,6.661571E0,3.7704304E1,8.003558E0,2.5955107E1,1.5631773E1,5.1954556E0,7.6421804E0,1.2543447E1,7.3237324E0,7.851925E1,4.8105636E0,8.041218E0,3.0858252E0,3.5757458E0,5.2335224E0,3.2470783E1,4.9711905E0,3.0323675E0,5.0707593E0,2.0884348E1],"tree_param":{"num_deleted":"0","num_feature":"768","num_nodes":"31","size_leaf_vector":"0"}},{"base_weights":[-5.001384E-2,1.3300031E-1,-4.3697035E-1,-9.7926664E-1,2.222373E-1,5.2799374E-1,-6.3321763E-1,-4.0681952E-1,-1.1733531E0,5.165657E-1,-1.15757965E-1,8.696872E-1,-1.1181506E-1,-1.2245737E-1,-1.0862823E0,-8.2998604E-1,5.9961945E-1,-7.005599E-1,3.75503E-1,-1.0810554E0,2.6370457E-1,2.3993798E-2,-1.2263787E0],"categories":[],"categories_nodes":[],"categories_segments":[],"categories_sizes":[],"default_left":[true,true,true,true,true,true,true,false,false,true,true,false,false,true,true,false,false,false,false,false,false,false,false],"id":15,"left_children":[1,3,5,7,9,11,13,-1,-1,15,17,-1,-1,19,21,-1,-1,-1,-1,-1,-1,-1,-1],"loss_changes":[1.346993E1,1.30553E1,1.1894154E1,6.104975E-1,1.2052167E1,2.4718168E0,1.1710714E1,0E0,0E0,7.7245064E0,1.661817E1,0E0,0E0,9.608219E0,4.2284546E0,0E0,0E0,0E0,0E0,0E0,0E0,0E0,0E0],"parents":[2147483647,0,0,1,1,2,2,3,3,4,4,5,5,6,6,9,9,10,10,13,13,14,14],"right_children":[2,4,6,8,10,12,14,-1,-1,16,18,-1,-1,20,22,-1,-1,-1,-1,-1,-1,-1,-1],"split_conditions":[-3.006298E-1,-3.0979192E-1,-3.4620368E-1,-5.128808E-1,-1.5193547E-1,-4.2175114E-1,-2.399029E-2,-1.2204586E-1,-3.5200593E-1,-3.253469E-2,5.737452E-3,2.6090616E-1,-3.3544518E-2,-3.7184775E-1,-5.4626286E-1,-2.4899583E-1,1.7988583E-1,-2.1016799E-1,1.1265091E-1,-3.2431662E-1,7.9111375E-2,7.1981396E-3,-3.679136E-1],"split_indices":[727,104,647,262,732,702,603,0,0,482,570,0,0,319,515,0,0,0,0,0,0,0,0],"split_type":[0,0,0,0,0,0,0,0,0,0,0,0,0,0,0,0,0,0,0,0,0,0,0],"sum_hessian":[1.8838286E2,1.2833981E2,6.004304E1,8.791174E0,1.1954864E2,9.861717E0,5.0181324E1,3.0098536E0,5.7813206E0,6.3619804E1,5.5928837E1,6.194316E0,3.6674013E0,2.418583E1,2.5995495E1,3.1735551E0,6.0446247E1,2.5338997E1,3.0589838E1,6.428473E0,1.7757357E1,3.0054874E0,2.2990007E1],"tree_param":{"num_deleted":"0","num_feature":"768","num_nodes":"23","size_leaf_vector":"0"}},{"base_weights":[-4.8712097E-2,-7.609391E-1,4.6734802E-2,-1.298465E0,2.0209E-1,2.739093E-1,-2.9806978E-1,-2.8648984E-1,7.467669E-1,3.4269878E-1,-1.1653758E0,-6.9437987E-1,2.0187795E-1,5.1059633E-1,-1.9774014E-1,2.8707588E-1,-1.1169444E0,4.784184E-1,-6.934902E-1],"categories":[],"categories_nodes":[],"categories_segments":[],"categories_sizes":[],"default_left":[true,true,true,false,true,true,true,false,false,true,false,true,true,false,false,false,false,false,false],"id":16,"left_children":[1,3,5,-1,7,9,11,-1,-1,13,-1,15,17,-1,-1,-1,-1,-1,-1],"loss_changes":[1.1663136E1,1.0755774E1,1.1970172E1,0E0,2.376624E0,9.509487E0,1.2178649E1,0E0,0E0,8.139464E0,0E0,1.4470228E1,7.175945E0,0E0,0E0,0E0,0E0,0E0,0E0],"parents":[2147483647,0,0,1,1,2,2,4,4,5,5,6,6,9,9,11,11,12,12],"right_children":[2,4,6,-1,8,10,12,-1,-1,14,-1,16,18,-1,-1,-1,-1,-1,-1],"split_conditions":[-1.5869203E-1,2.7902743E-1,2.3512982E-1,-3.895395E-1,-1.01311125E-1,6.270283E-3,6.163627E-1,-8.5946955E-2,2.2403009E-1,-1.3199148E-1,-3.4961277E-1,-4.6629228E-2,3.516837E-1,1.531789E-1,-5.9322044E-2,8.6122766E-2,-3.3508334E-1,1.4352553E-1,-2.0804708E-1],"split_indices":[63,512,383,0,710,524,92,0,0,255,0,130,287,0,0,0,0,0,0],"split_type":[0,0,0,0,0,0,0,0,0,0,0,0,0,0,0,0,0,0,0],"sum_hessian":[1.7004439E2,1.9271042E1,1.5077335E2,1.2144265E1,7.1267767E0,9.101423E1,5.9759117E1,4.006727E0,3.1200495E0,8.758984E1,3.4243903E0,3.3117706E1,2.6641413E1,6.687048E1,2.0719358E1,1.0063855E1,2.305385E1,2.0710508E1,5.930905E0],"tree_param":{"num_deleted":"0","num_feature":"768","num_nodes":"19","size_leaf_vector":"0"}},{"base_weights":[-4.8760463E-2,4.236291E-1,-1.9301485E-1,-6.5820676E-1,5.8889675E-1,-1.1023978E0,-7.759152E-2,7.510753E-1,-4.2705318E-1,4.441343E-1,-2.9864916E-1,1.0586487E-1,8.5137284E-1,-6.6778845E-1,6.6877186E-1,7.187406E-2,-7.1119803E-1],"categories":[],"categories_nodes":[],"categories_segments":[],"categories_sizes":[],"default_left":[true,true,true,false,true,false,true,true,false,true,true,false,false,false,false,false,false],"id":17,"left_children":[1,3,5,-1,7,-1,9,11,-1,13,15,-1,-1,-1,-1,-1,-1],"loss_changes":[1.0646494E1,6.928023E0,1.2452803E1,0E0,5.6362486E0,0E0,1.2481809E1,1.7336454E0,0E0,8.506606E0,1.1638885E1,0E0,0E0,0E0,0E0,0E0,0E0],"parents":[2147483647,0,0,1,1,2,2,4,4,6,6,7,7,9,9,10,10],"right_children":[2,4,6,-1,8,-1,10,12,-1,14,16,-1,-1,-1,-1,-1,-1],"split_conditions":[-1.7253426E-1,-4.8450232E-1,2.8388837E-2,-1.9746204E-1,-3.637214E-2,-3.3071935E-1,1.7413293E-1,-2.5250947E-1,-1.2811597E-1,9.083933E-2,2.7346045E-1,3.1759463E-2,2.5541186E-1,-2.0033655E-1,2.0063157E-1,2.1562219E-2,-2.1335942E-1],"split_indices":[97,384,181,0,235,0,435,237,0,135,116,0,0,0,0,0,0],"split_type":[0,0,0,0,0,0,0,0,0,0,0,0,0,0,0,0,0],"sum_hessian":[1.5403471E2,3.5580997E1,1.1845372E2,4.319969E0,3.126103E1,1.2378287E1,1.0607543E2,2.7182531E1,4.078498E0,3.1268476E1,7.480695E1,3.933563E0,2.3248968E1,4.9237766E0,2.6344702E1,3.984588E1,3.496107E1],"tree_param":{"num_deleted":"0","num_feature":"768","num_nodes":"17","size_leaf_vector":"0"}},{"base_weights":[-3.9991293E-2,-4.3201974E-1,1.2694372E-1,-1.1716336E0,-7.06423E-2,4.5347923E-1,-1.9234109E-1,3.1927836E-1,-9.5094687E-1,5.671774E-1,-8.631602E-1,3.2370612E-1,-6.0702926E-1,-3.0192336E-1,7.046498E-1,-1.0886781E0,-4.9478838E-1,6.717638E-1,-3.7382233E-1,5.751516E-1,-9.888369E-1,1.4177419E-1,-9.118382E-1],"categories":[],"categories_nodes":[],"categories_segments":[],"categories_sizes":[],"default_left":[true,true,true,false,true,true,true,true,true,true,false,true,true,false,false,false,false,false,false,false,false,false,false],"id":18,"left_children":[1,3,5,-1,7,9,11,13,15,17,-1,19,21,-1,-1,-1,-1,-1,-1,-1,-1,-1,-1],"loss_changes":[9.344341E0,1.1308651E1,1.0547151E1,0E0,1.0496365E1,7.9593296E0,1.1202265E1,5.3185625E0,4.982567E-2,4.8309393E0,0E0,8.346421E0,6.716961E0,0E0,0E0,0E0,0E0,0E0,0E0,0E0,0E0,0E0,0E0],"parents":[2147483647,0,0,1,1,2,2,4,4,5,5,6,6,7,7,8,8,9,9,11,11,12,12],"right_children":[2,4,6,-1,8,10,12,14,16,18,-1,20,22,-1,-1,-1,-1,-1,-1,-1,-1,-1,-1],"split_conditions":[3.7813252E-1,-1.8552217E-1,-4.3179512E-1,-3.5149008E-1,6.033719E-1,2.2460678E-1,-2.0295003E-1,-9.149437E-2,-2.6200342E-1,-3.5169914E-2,-2.5894806E-1,4.6760035E-1,-1.4269395E-1,-9.0577014E-2,2.1139495E-1,-3.2660344E-1,-1.4843652E-1,2.0152915E-1,-1.12146705E-1,1.725455E-1,-2.9665107E-1,4.2532258E-2,-2.7355146E-1],"split_indices":[492,104,702,0,483,424,360,620,418,509,0,411,97,0,0,0,0,0,0,0,0,0,0],"split_type":[0,0,0,0,0,0,0,0,0,0,0,0,0,0,0,0,0,0,0,0,0,0,0],"sum_hessian":[1.4094734E2,4.1619823E1,9.9327515E1,1.2924907E1,2.8694918E1,4.8898388E1,5.0429127E1,2.0328121E1,8.366796E0,4.553541E1,3.3629792E0,2.2566399E1,2.786273E1,7.8656235E0,1.2462498E1,5.361374E0,3.0054216E0,4.1238155E1,4.297254E0,1.9409836E1,3.156563E0,8.215395E0,1.9647333E1],"tree_param":{"num_deleted":"0","num_feature":"768","num_nodes":"23","size_leaf_vector":"0"}},{"base_weights":[-4.4246197E-2,1.4058909E-1,-3.9703694E-1,2.918394E-1,-3.957265E-1,-7.0321405E-1,2.6544636E-1,3.8779783E-1,-4.4540697E-1,5.706469E-1,-7.378378E-1,4.2027268E-1,-9.247637E-1,-6.29114E-1,5.567266E-1,-4.7414428E-1,4.829838E-1,-1.023409E0,3.8736954E-1,-9.8566324E-1,1.3945396E-1,1.3303892E-1,-1.0974399E0,8.458655E-3,7.9871196E-1],"categories":[],"categories_nodes":[],"categories_segments":[],"categories_sizes":[],"default_left":[true,true,true,true,true,true,true,true,true,false,true,false,true,false,true,false,false,false,false,false,false,false,false,false,false],"id":19,"left_children":[1,3,5,7,9,11,13,15,17,-1,19,-1,21,-1,23,-1,-1,-1,-1,-1,-1,-1,-1,-1,-1],"loss_changes":[8.247379E0,6.8621893E0,8.999964E0,4.803066E0,6.6101704E0,7.8534794E0,4.118003E0,5.0243406E0,4.2487946E0,0E0,3.2382321E0,0E0,4.778715E0,0E0,1.5108268E0,0E0,0E0,0E0,0E0,0E0,0E0,0E0,0E0,0E0,0E0],"parents":[2147483647,0,0,1,1,2,2,3,3,4,4,5,5,6,6,7,7,8,8,10,10,12,12,14,14],"right_children":[2,4,6,8,10,12,14,16,18,-1,20,-1,22,-1,24,-1,-1,-1,-1,-1,-1,-1,-1,-1,-1],"split_conditions":[-1.3090823E-2,-3.620608E-1,6.735946E-1,4.8174363E-1,1.950707E-1,-2.3260427E-1,1.3757244E-1,-4.1967905E-1,-1.0384011E-1,1.7119408E-1,7.161875E-1,1.2608181E-1,-4.1381514E-1,-1.887342E-1,5.5013854E-2,-1.422433E-1,1.4489515E-1,-3.0702272E-1,1.1621087E-1,-2.9569897E-1,4.183619E-2,3.991168E-2,-3.2923198E-1,2.5375967E-3,2.396136E-1],"split_indices":[191,702,92,364,117,235,538,664,326,0,610,0,490,0,500,0,0,0,0,0,0,0,0,0,0],"split_type":[0,0,0,0,0,0,0,0,0,0,0,0,0,0,0,0,0,0,0,0,0,0,0,0,0],"sum_hessian":[1.2462166E2,8.2171555E1,4.24501E1,6.445108E1,1.7720478E1,2.8990294E1,1.3459805E1,5.744779E1,7.003292E0,4.4584703E0,1.3262007E1,4.627433E0,2.4362862E1,3.0212672E0,1.0438537E1,5.317225E0,5.213056E1,3.9988873E0,3.004405E0,1.02445135E1,3.017494E0,3.4511154E0,2.0911747E1,3.5133257E0,6.9252114E0],"tree_param":{"num_deleted":"0","num_feature":"768","num_nodes":"25","size_leaf_vector":"0"}},{"base_weights":[-4.39387E-2,-3.863289E-1,1.1672257E-1,3.8724867E-1,-6.3948774E-1,2.0424841E-1,-1.0003875E0,-1.066492E-1,7.715443E-1,3.8982537E-1,-8.7078655E-1,-9.452601E-1,2.8525075E-1,-1.0336577E0,1.3268864E-2,-5.219469E-1,3.8265145E-1],"categories":[],"categories_nodes":[],"categories_segments":[],"categories_sizes":[],"default_left":[true,true,true,true,true,true,false,false,false,false,true,false,true,false,false,false,false],"id":20,"left_children":[1,3,5,7,9,11,-1,-1,-1,-1,13,-1,15,-1,-1,-1,-1],"loss_changes":[6.205477E0,7.297483E0,7.7321644E0,1.8851869E0,6.886507E0,6.994916E0,0E0,0E0,0E0,0E0,3.2913074E0,0E0,5.564922E0,0E0,0E0,0E0,0E0],"parents":[2147483647,0,0,1,1,2,2,3,3,4,4,5,5,10,10,12,12],"right_children":[2,4,6,8,10,12,-1,-1,-1,-1,14,-1,16,-1,-1,-1,-1],"split_conditions":[-1.3246813E-1,-4.2862308E-1,6.674032E-2,2.9048446E-1,-3.3624735E-1,6.8186283E-1,-3.0011627E-1,-3.199476E-2,2.314633E-1,1.1694761E-1,1.9337685E-1,-2.8357804E-1,-4.497267E-1,-3.100973E-1,3.9806594E-3,-1.5658408E-1,1.1479544E-1],"split_indices":[144,727,629,468,1,470,0,0,0,0,580,0,168,0,0,0,0],"split_type":[0,0,0,0,0,0,0,0,0,0,0,0,0,0,0,0,0],"sum_hessian":[1.10988976E2,3.4998333E1,7.599065E1,8.49882E0,2.6499512E1,7.122714E1,4.7634997E0,4.035222E0,4.4635983E0,4.736413E0,2.17631E1,3.9864004E0,6.7240746E1,1.8234503E1,3.5285966E0,6.7706833E0,6.0470062E1],"tree_param":{"num_deleted":"0","num_feature":"768","num_nodes":"17","size_leaf_vector":"0"}},{"base_weights":[-4.521992E-2,3.1642094E-1,-2.0193502E-1,5.472248E-1,-2.6972228E-1,2.7497146E-1,-3.857443E-1,8.171817E-1,8.509471E-2,-9.6529275E-1,2.0096466E-1,-5.7678694E-1,4.844412E-1,3.1702023E-2,-7.0512044E-1,-3.9072606E-1,6.57504E-1,-2.1012376E-1,6.6124374E-1,2.8567863E-1,-8.441674E-1,3.9242986E-1,-9.0284574E-1],"categories":[],"categories_nodes":[],"categories_segments":[],"categories_sizes":[],"default_left":[true,true,true,true,true,true,true,false,true,false,false,false,true,true,true,false,false,false,false,false,false,false,false],"id":21,"left_children":[1,3,5,7,9,11,13,-1,15,-1,-1,-1,17,19,21,-1,-1,-1,-1,-1,-1,-1,-1],"loss_changes":[5.8647666E0,4.3866405E0,6.419298E0,2.7763696E0,3.3115923E0,3.9582994E0,7.008466E0,0E0,2.852026E0,0E0,0E0,0E0,2.2379823E0,5.5065265E0,6.806179E0,0E0,0E0,0E0,0E0,0E0,0E0,0E0,0E0],"parents":[2147483647,0,0,1,1,2,2,3,3,4,4,5,5,6,6,8,8,12,12,13,13,14,14],"right_children":[2,4,6,8,10,12,14,-1,16,-1,-1,-1,18,20,22,-1,-1,-1,-1,-1,-1,-1,-1],"split_conditions":[-1.5302506E-1,-2.9613265E-1,1.7413293E-1,-5.6653112E-2,1.9138932E-1,9.083933E-2,-2.0295003E-1,2.4515451E-1,8.2609534E-2,-2.8958783E-1,6.02894E-2,-1.7303608E-1,-1.8930864E-1,-3.1163102E-1,-1.1941072E-1,-1.17217824E-1,1.9725122E-1,-6.3037135E-2,1.9837312E-1,8.570359E-2,-2.5325024E-1,1.1772896E-1,-2.7085373E-1],"split_indices":[97,727,435,158,331,135,360,0,705,0,0,0,648,700,668,0,0,0,0,0,0,0,0],"split_type":[0,0,0,0,0,0,0,0,0,0,0,0,0,0,0,0,0,0,0,0,0,0,0],"sum_hessian":[1.01354E2,3.0334358E1,7.101964E1,2.1811935E1,8.522424E0,1.961949E1,5.1400146E1,1.3283805E1,8.528131E0,3.0154471E0,5.5069766E0,3.5264542E0,1.6093037E1,2.2669847E1,2.8730297E1,4.830299E0,3.6978316E0,3.2270749E0,1.2865961E1,1.8096287E1,4.5735617E0,4.2353945E0,2.4494904E1],"tree_param":{"num_deleted":"0","num_feature":"768","num_nodes":"23","size_leaf_vector":"0"}},{"base_weights":[-3.8155314E-2,2.744411E-1,-2.2593214E-1,-4.818829E-1,4.3562183E-1,-6.168097E-1,5.170967E-2,-2.373293E-1,6.304159E-1,-9.8853105E-1,4.5602906E-2,-3.3928427E-1,4.2942846E-1,3.632202E-1,-7.49166E-1,5.254768E-3,7.7853096E-1,-1.0734938E0,-4.7888112E-1,4.756757E-1,-5.3964573E-1,-7.694391E-1,3.194512E-1,6.733115E-1,-3.4064853E-1],"categories":[],"categories_nodes":[],"categories_segments":[],"categories_sizes":[],"default_left":[true,true,true,false,true,true,true,true,true,true,true,true,true,false,false,false,false,false,false,false,false,false,false,false,false],"id":22,"left_children":[1,3,5,-1,7,9,11,13,15,17,19,21,23,-1,-1,-1,-1,-1,-1,-1,-1,-1,-1,-1,-1],"loss_changes":[5.4954243E0,4.4995985E0,6.3671265E0,0E0,4.020908E0,6.033844E0,5.322792E0,2.5332203E0,2.1419334E0,1.6242886E-1,2.69776E0,5.2848554E0,3.6608996E0,0E0,0E0,0E0,0E0,0E0,0E0,0E0,0E0,0E0,0E0,0E0,0E0],"parents":[2147483647,0,0,1,1,2,2,4,4,5,5,6,6,7,7,8,8,9,9,10,10,11,11,12,12],"right_children":[2,4,6,-1,8,10,12,14,16,18,20,22,24,-1,-1,-1,-1,-1,-1,-1,-1,-1,-1,-1,-1],"split_conditions":[-6.062174E-1,-7.131336E-2,-1.7590296E-1,-1.4456488E-1,5.146168E-2,-8.454038E-2,1.767166E-1,-4.990951E-3,-5.42185E-2,7.935976E-2,-4.877953E-1,3.819356E-1,-4.8210222E-1,1.0896607E-1,-2.2474982E-1,1.5764304E-3,2.335593E-1,-3.2204816E-1,-1.4366435E-1,1.4270271E-1,-1.6189373E-1,-2.3083174E-1,9.5835365E-2,2.0199345E-1,-1.0219456E-1],"split_indices":[529,236,648,0,295,491,274,639,306,179,119,488,248,0,0,0,0,0,0,0,0,0,0,0,0],"split_type":[0,0,0,0,0,0,0,0,0,0,0,0,0,0,0,0,0,0,0,0,0,0,0,0,0],"sum_hessian":[9.156509E1,3.4188755E1,5.7376335E1,5.656501E0,2.8532253E1,2.3321539E1,3.4054794E1,6.355989E0,2.2176264E1,1.4623216E1,8.698324E0,1.6783344E1,1.7271452E1,3.058151E0,3.297838E0,4.4460287E0,1.7730234E1,1.1585485E1,3.03773E0,5.121782E0,3.576542E0,1.0051591E1,6.731753E0,1.3212664E1,4.0587873E0],"tree_param":{"num_deleted":"0","num_feature":"768","num_nodes":"25","size_leaf_vector":"0"}},{"base_weights":[-3.690731E-2,-4.6306404E-1,8.706136E-2,-8.396101E-1,-3.8619787E-2,-7.6915616E-1,1.6402155E-1,-4.2339537E-1,-9.6183944E-1,3.803217E-1,-6.746011E-1,-4.9864176E-1,2.690065E-1,-9.3296194E-1,2.1948156E-1,4.0521726E-1,-1.9505861E-1],"categories":[],"categories_nodes":[],"categories_segments":[],"categories_sizes":[],"default_left":[true,true,true,true,true,false,true,false,false,false,false,true,true,false,false,false,false],"id":23,"left_children":[1,3,5,7,9,-1,11,-1,-1,-1,-1,13,15,-1,-1,-1,-1],"loss_changes":[4.4036584E0,2.9674568E0,4.397579E0,9.6310616E-2,2.8868585E0,0E0,4.3292065E0,0E0,0E0,0E0,0E0,2.8861957E0,3.4104366E0,0E0,0E0,0E0,0E0],"parents":[2147483647,0,0,1,1,2,2,3,3,4,4,6,6,11,11,12,12],"right_children":[2,4,6,8,10,-1,12,-1,-1,-1,-1,14,16,-1,-1,-1,-1],"split_conditions":[-2.403336E-2,8.187561E-1,-1.1423859E-1,-1.4645573E-1,1.9183946E-1,-2.3074685E-1,9.846863E-2,-1.2701862E-1,-2.8855184E-1,1.14096515E-1,-2.0238033E-1,-2.547168E-1,-1.1599359E-1,-2.798886E-1,6.584447E-2,1.21565185E-1,-5.8517586E-2],"split_indices":[685,54,196,43,259,0,454,0,0,0,0,556,312,0,0,0,0],"split_type":[0,0,0,0,0,0,0,0,0,0,0,0,0,0,0,0,0],"sum_hessian":[8.159202E1,1.7770054E1,6.382196E1,8.898025E0,8.872029E0,4.5217047E0,5.9300255E1,3.0332294E0,5.864795E0,5.5910296E0,3.2810001E0,7.5971994E0,5.1703056E1,4.547631E0,3.049569E0,4.0068962E1,1.1634094E1],"tree_param":{"num_deleted":"0","num_feature":"768","num_nodes":"17","size_leaf_vector":"0"}},{"base_weights":[-4.2110514E-2,8.7403424E-2,-4.5833448E-1,2.3119207E-1,-3.5735983E-1,-7.227915E-1,3.2782784E-1,3.281711E-1,-7.549063E-1,-6.77408E-1,5.377126E-1,1.3001005E-1,-9.6462196E-1,5.2475846E-1,-8.347534E-2,7.127547E-2,-9.5100474E-1],"categories":[],"categories_nodes":[],"categories_segments":[],"categories_sizes":[],"default_left":[true,true,true,true,true,true,false,true,false,true,false,false,false,false,false,false,false],"id":24,"left_children":[1,3,5,7,9,11,-1,13,-1,15,-1,-1,-1,-1,-1,-1,-1],"loss_changes":[4.21023E0,3.9095E0,4.08714E0,4.6302843E0,4.6647615E0,3.0476193E0,0E0,3.476725E0,0E0,2.423565E0,0E0,0E0,0E0,0E0,0E0,0E0,0E0],"parents":[2147483647,0,0,1,1,2,2,3,3,4,4,5,5,7,7,9,9],"right_children":[2,4,6,8,10,12,-1,14,-1,16,-1,-1,-1,-1,-1,-1,-1],"split_conditions":[-4.914673E-1,4.3771353E-1,1.8491279E-1,3.5215265E-1,-8.165549E-2,5.643948E-2,9.834836E-2,2.1212567E-1,-2.264719E-1,-1.5875673E-1,1.6131377E-1,3.900302E-2,-2.893866E-1,1.5742755E-1,-2.5042603E-2,2.1382643E-2,-2.8530145E-1],"split_indices":[529,286,105,435,663,209,0,342,0,503,0,0,0,0,0,0,0],"split_type":[0,0,0,0,0,0,0,0,0,0,0,0,0,0,0,0,0],"sum_hessian":[7.635887E1,5.8839993E1,1.7518883E1,4.4827717E1,1.4012276E1,1.3169428E1,4.349454E0,4.142129E1,3.4064252E0,1.050074E1,3.5115352E0,3.0115957E0,1.0157832E1,2.7847542E1,1.35737505E1,3.008265E0,7.492475E0],"tree_param":{"num_deleted":"0","num_feature":"768","num_nodes":"17","size_leaf_vector":"0"}},{"base_weights":[-4.1501794E-2,-3.3290896E-1,1.1310405E-1,1.2677145E-1,-6.654955E-1,1.995981E-1,-7.384039E-1,5.2112746E-1,-6.18869E-1,-9.6493137E-1,1.121847E-1,-4.3587267E-1,3.224154E-1,7.227328E-1,1.4911254E-1,2.0370719E-1,-9.6241045E-1,4.519551E-1,-2.1702337E-1],"categories":[],"categories_nodes":[],"categories_segments":[],"categories_sizes":[],"default_left":[true,true,true,true,true,true,false,true,false,false,false,true,true,false,false,false,false,false,false],"id":25,"left_children":[1,3,5,7,9,11,-1,13,-1,-1,-1,15,17,-1,-1,-1,-1,-1,-1],"loss_changes":[3.2326047E0,3.8813121E0,3.6148036E0,3.6351726E0,3.5010562E0,3.5375524E0,0E0,4.8559356E-1,0E0,0E0,0E0,2.7133029E0,2.6871326E0,0E0,0E0,0E0,0E0,0E0,0E0],"parents":[2147483647,0,0,1,1,2,2,3,3,4,4,5,5,7,7,11,11,12,12],"right_children":[2,4,6,8,10,12,-1,14,-1,-1,-1,16,18,-1,-1,-1,-1,-1,-1],"split_conditions":[6.258388E-2,-1.1487694E-1,8.714309E-2,1.9571099E-1,4.945448E-1,6.7950755E-2,-2.2152118E-1,2.5805038E-1,-1.856607E-1,-2.8947943E-1,3.3655412E-2,-3.9343238E-2,6.211965E-1,2.1681984E-1,4.4733763E-2,6.1112158E-2,-2.8872314E-1,1.3558654E-1,-6.510702E-2],"split_indices":[482,597,22,342,518,376,0,765,0,0,0,611,178,0,0,0,0,0,0],"split_type":[0,0,0,0,0,0,0,0,0,0,0,0,0,0,0,0,0,0,0],"sum_hessian":[6.9915E1,2.3835548E1,4.6079453E1,1.0265729E1,1.3569819E1,4.252542E1,3.5540316E0,6.911474E0,3.3542552E0,9.623595E0,3.9462242E0,6.474851E0,3.605057E1,3.8709474E0,3.0405266E0,3.2004356E0,3.2744155E0,2.920058E1,6.849991E0],"tree_param":{"num_deleted":"0","num_feature":"768","num_nodes":"19","size_leaf_vector":"0"}},{"base_weights":[-4.401341E-2,2.6350105E-1,-1.8174054E-1,-2.573156E-1,4.863874E-1,-6.529757E-1,3.764435E-3,6.785604E-1,-5.891105E-2,-9.624473E-1,-3.5614625E-3,-7.986943E-1,1.244692E-1,2.8798562E-1,7.9244584E-1,4.4429797E-1,-1.7272222E-1],"categories":[],"categories_nodes":[],"categories_segments":[],"categories_sizes":[],"default_left":[true,true,true,false,true,true,true,true,false,false,false,false,true,false,false,false,false],"id":26,"left_children":[1,3,5,-1,7,9,11,13,-1,-1,-1,-1,15,-1,-1,-1,-1],"loss_changes":[2.8061016E0,2.5110245E0,3.9861224E0,0E0,1.5845406E0,2.5847116E0,3.3629568E0,2.6011658E-1,0E0,0E0,0E0,0E0,2.9427888E0,0E0,0E0,0E0,0E0],"parents":[2147483647,0,0,1,1,2,2,4,4,5,5,6,6,7,7,12,12],"right_children":[2,4,6,-1,8,10,12,14,-1,-1,-1,-1,16,-1,-1,-1,-1],"split_conditions":[-1.499646E-1,-8.840365E-3,-2.4843213E-1,-7.719468E-2,-7.3356524E-2,1.6537692E-1,6.8062E-2,-2.9677653E-1,-1.7673315E-2,-2.887342E-1,-1.0684388E-3,-2.396083E-1,2.513426E-1,8.639569E-2,2.3773377E-1,1.332894E-1,-5.181667E-2],"split_indices":[97,685,241,0,235,517,376,0,0,0,0,0,576,0,0,0,0],"split_type":[0,0,0,0,0,0,0,0,0,0,0,0,0,0,0,0,0],"sum_hessian":[6.412425E1,1.9553148E1,4.4571102E1,5.8137465E0,1.3739402E1,1.1877895E1,3.2693207E1,9.978437E0,3.7609642E0,7.7179585E0,4.1599364E0,3.540257E0,2.9152948E1,3.0493383E0,6.929099E0,1.3803275E1,1.5349674E1],"tree_param":{"num_deleted":"0","num_feature":"768","num_nodes":"17","size_leaf_vector":"0"}},{"base_weights":[-3.7791383E-2,-3.5067284E-1,8.9613296E-2,-9.631203E-1,-4.016712E-2,2.828037E-1,-2.9068542E-1,2.526845E-1,-7.1905625E-1,-4.7361898E-1,3.8698393E-1,2.0218669E-1,-7.1376497E-1,-1.359142E-1,6.3144004E-1,4.8360723E-1,-2.5951236E-1,-1.7557526E-1,6.101776E-1,-9.720333E-1,-1.8260238E-1],"categories":[],"categories_nodes":[],"categories_segments":[],"categories_sizes":[],"default_left":[true,true,true,false,true,true,true,true,false,false,true,true,true,false,false,false,false,false,false,false,false],"id":27,"left_children":[1,3,5,-1,7,9,11,13,-1,-1,15,17,19,-1,-1,-1,-1,-1,-1,-1,-1],"loss_changes":[2.4559064E0,3.346918E0,3.3161998E0,0E0,2.737892E0,2.5234933E0,3.3391843E0,1.5168099E0,0E0,0E0,1.7903564E0,1.3179591E0,9.837723E-1,0E0,0E0,0E0,0E0,0E0,0E0,0E0,0E0],"parents":[2147483647,0,0,1,1,2,2,4,4,5,5,6,6,7,7,10,10,11,11,12,12],"right_children":[2,4,6,-1,8,10,12,14,-1,-1,16,18,20,-1,-1,-1,-1,-1,-1,-1,-1],"split_conditions":[3.7813252E-1,-1.8552217E-1,-2.2078413E-1,-2.889361E-1,6.033719E-1,-6.7813885E-1,1.8788108E-1,6.3174105E-1,-2.1571688E-1,-1.420857E-1,-2.5086504E-1,-1.9303587E-1,-1.9124201E-1,-4.0774263E-2,1.8943202E-1,1.4508218E-1,-7.785371E-2,-5.267258E-2,1.8305328E-1,-2.9161E-1,-5.4780714E-2],"split_indices":[492,104,267,0,483,589,414,92,0,0,26,664,658,0,0,0,0,0,0,0,0],"split_type":[0,0,0,0,0,0,0,0,0,0,0,0,0,0,0,0,0,0,0,0,0],"sum_hessian":[5.982102E1,1.6803186E1,4.3017834E1,4.94594E0,1.1857246E1,2.8696484E1,1.4321349E1,8.72245E0,3.134796E0,3.0445724E0,2.5651913E1,6.856216E0,7.4651327E0,4.6217475E0,4.1007023E0,2.2535748E1,3.1161644E0,3.855779E0,3.0004373E0,4.464391E0,3.0007415E0],"tree_param":{"num_deleted":"0","num_feature":"768","num_nodes":"21","size_leaf_vector":"0"}},{"base_weights":[-4.2968232E-2,8.225101E-2,-3.8778517E-1,2.854757E-1,-2.0462534E-1,-7.3025954E-1,6.568253E-2,4.33741E-1,-2.5783813E-1,-6.5035176E-1,1.2934569E-1,-2.586784E-1,-9.3728834E-1,4.373116E-1,-3.179317E-1,-1.5129812E-1,5.741711E-1,-8.9295876E-1,-1.9820094E-1,5.6867546E-1,-3.3224288E-1],"categories":[],"categories_nodes":[],"categories_segments":[],"categories_sizes":[],"default_left":[true,true,true,true,true,true,true,true,false,true,true,false,false,false,false,false,false,false,false,false,false],"id":28,"left_children":[1,3,5,7,9,11,13,15,-1,17,19,-1,-1,-1,-1,-1,-1,-1,-1,-1,-1],"loss_changes":[2.4392288E0,2.4910562E0,2.381839E0,2.1129293E0,2.746407E0,6.0150194E-1,1.1916695E0,1.7208626E0,0E0,6.8153644E-1,2.4314034E0,0E0,0E0,0E0,0E0,0E0,0E0,0E0,0E0,0E0,0E0],"parents":[2147483647,0,0,1,1,2,2,3,3,4,4,5,5,6,6,7,7,9,9,10,10],"right_children":[2,4,6,8,10,12,14,16,-1,18,20,-1,-1,-1,-1,-1,-1,-1,-1,-1,-1],"split_conditions":[-2.8331485E-1,-2.3939776E-1,-2.6550315E-2,-7.5179726E-2,7.607399E-2,-4.692431E-1,3.05108E-1,-1.5995655E-2,-7.735144E-2,-1.5885308E-1,1.4041311E-2,-7.760353E-2,-2.8118652E-1,1.3119349E-1,-9.537952E-2,-4.5389436E-2,1.7225134E-1,-2.6788765E-1,-5.9460286E-2,1.7060265E-1,-9.967287E-2],"split_indices":[727,267,446,235,517,320,11,762,0,345,759,0,0,0,0,0,0,0,0,0,0],"split_type":[0,0,0,0,0,0,0,0,0,0,0,0,0,0,0,0,0,0,0,0,0],"sum_hessian":[5.4754063E1,4.0726E1,1.4028061E1,2.3841467E1,1.6884535E1,7.6443768E0,6.3836846E0,1.8888615E1,4.952852E0,6.826449E0,1.0058086E1,3.018396E0,4.625981E0,3.1713953E0,3.2122893E0,3.6413162E0,1.5247298E1,3.8082E0,3.018249E0,5.0344305E0,5.0236564E0],"tree_param":{"num_deleted":"0","num_feature":"768","num_nodes":"21","size_leaf_vector":"0"}},{"base_weights":[-4.3959174E-2,3.3017167E-1,-1.5672511E-1,6.0340005E-1,-9.476894E-2,-4.49304E-1,3.524702E-2,7.5059074E-1,2.83586E-1,2.24778E-1,-6.985743E-1,-6.8632144E-1,1.7511758E-1,-8.920066E-1,-1.5651979E-1,3.1233123E-1,-5.094195E-1],"categories":[],"categories_nodes":[],"categories_segments":[],"categories_sizes":[],"default_left":[true,true,true,true,false,true,true,false,false,false,true,false,true,false,false,false,false],"id":29,"left_children":[1,3,5,7,-1,9,11,-1,-1,-1,13,-1,15,-1,-1,-1,-1],"loss_changes":[2.2249846E0,1.4797198E0,2.2770998E0,1.445713E-1,0E0,2.8493514E0,2.667222E0,0E0,0E0,0E0,1.112392E0,0E0,2.21948E0,0E0,0E0,0E0,0E0],"parents":[2147483647,0,0,1,1,2,2,3,3,5,5,6,6,10,10,12,12],"right_children":[2,4,6,8,-1,10,12,-1,-1,-1,14,-1,16,-1,-1,-1,-1],"split_conditions":[-1.7548932E-1,-9.8080605E-2,-1.0359183E-1,5.455478E-1,-2.8430684E-2,-4.2862308E-1,-4.3422619E-1,2.2517723E-1,8.50758E-2,6.74334E-2,7.381733E-2,-2.0589644E-1,-1.5970532E-2,-2.67602E-1,-4.695594E-2,9.369937E-2,-1.5282586E-1],"split_indices":[97,235,144,357,0,727,168,0,0,0,530,0,509,0,0,0,0],"split_type":[0,0,0,0,0,0,0,0,0,0,0,0,0,0,0,0,0],"sum_hessian":[5.0511707E1,1.1252064E1,3.9259644E1,6.5929594E0,4.659105E0,1.502303E1,2.4236612E1,3.5925639E0,3.0003953E0,4.0821767E0,1.0940854E1,3.3009162E0,2.0935696E1,7.5876102E0,3.3532436E0,1.7892855E1,3.0428417E0],"tree_param":{"num_deleted":"0","num_feature":"768","num_nodes":"17","size_leaf_vector":"0"}},{"base_weights":[-4.0695753E-2,-1.7903535E-1,2.4136148E-1,-4.4439974E-1,1.5492788E-1,-2.3062763E-1,5.101919E-1,-6.314865E-1,1.266688E-1,5.235194E-1,-3.3598283E-1,6.886986E-1,6.549559E-2,-4.184145E-2,-8.018076E-1,1.6012833E-1,7.165325E-1,1.2252387E-1,-6.959192E-1],"categories":[],"categories_nodes":[],"categories_segments":[],"categories_sizes":[],"default_left":[true,true,true,true,true,false,true,true,false,true,true,false,false,false,false,false,false,false,false],"id":30,"left_children":[1,3,5,7,9,-1,11,13,-1,15,17,-1,-1,-1,-1,-1,-1,-1,-1],"loss_changes":[1.9195868E0,2.9789984E0,2.1795604E0,2.062575E0,2.940938E0,0E0,8.0145836E-1,1.38698E0,0E0,5.2484894E-1,1.2672818E0,0E0,0E0,0E0,0E0,0E0,0E0,0E0,0E0],"parents":[2147483647,0,0,1,1,2,2,3,3,4,4,6,6,7,7,9,9,10,10],"right_children":[2,4,6,8,10,-1,12,14,-1,16,18,-1,-1,-1,-1,-1,-1,-1,-1],"split_conditions":[1.9222204E-2,1.8030785E-1,6.635668E-1,-1.2794447E-1,-1.7191184E-1,-6.918829E-2,4.4079024E-1,1.3411224E-1,3.800064E-2,-1.3412422E-1,3.0874425E-1,2.0660959E-1,1.9648677E-2,-1.25524355E-2,-2.4054228E-1,4.80385E-2,2.1495977E-1,3.675716E-2,-2.0877577E-1],"split_indices":[306,274,173,108,143,0,604,599,0,402,547,0,0,0,0,0,0,0,0],"split_type":[0,0,0,0,0,0,0,0,0,0,0,0,0,0,0,0,0,0,0],"sum_hessian":[4.70879E1,3.1837784E1,1.5250113E1,1.7556696E1,1.4281088E1,5.585567E0,9.664545E0,1.3144615E1,4.4120812E0,8.118804E0,6.162284E0,6.504759E0,3.1597865E0,3.2251017E0,9.919514E0,3.4510472E0,4.667757E0,3.0001388E0,3.1621451E0],"tree_param":{"num_deleted":"0","num_feature":"768","num_nodes":"19","size_leaf_vector":"0"}},{"base_weights":[-3.0852934E-2,1.1319972E-1,-3.0355263E-1,-1.1157521E-1,4.0201876E-1,-6.212749E-1,1.32659E-1,-5.030462E-1,1.7551418E-1,-1.01471424E-1,5.722758E-1,-8.5317457E-1,-1.0552968E-1,-2.1207258E-1,4.2239973E-1,-8.670745E-2,-7.569161E-1,5.2140975E-1,-2.091699E-1,7.1853936E-1,1.7482555E-1],"categories":[],"categories_nodes":[],"categories_segments":[],"categories_sizes":[],"default_left":[true,true,true,true,true,true,true,true,true,false,true,false,false,false,false,false,false,false,false,false,false],"id":31,"left_children":[1,3,5,7,9,11,13,15,17,-1,19,-1,-1,-1,-1,-1,-1,-1,-1,-1,-1],"loss_changes":[1.7799188E0,1.9797338E0,2.2487714E0,2.0599241E0,1.1948526E0,1.0126522E0,8.298321E-1,7.462139E-1,1.5544026E0,0E0,4.5923162E-1,0E0,0E0,0E0,0E0,0E0,0E0,0E0,0E0,0E0,0E0],"parents":[2147483647,0,0,1,1,2,2,3,3,4,4,5,5,6,6,7,7,8,8,10,10],"right_children":[2,4,6,8,10,12,14,16,18,-1,20,-1,-1,-1,-1,-1,-1,-1,-1,-1,-1],"split_conditions":[-1.3090823E-2,1.6976571E-1,6.333673E-1,3.399709E-1,-2.1390305E-1,-1.0480854E-1,-3.5316414E-1,6.3811014E-3,-3.09637E-1,-3.0441428E-2,-4.3137258E-1,-2.559524E-1,-3.1658906E-2,-6.3621774E-2,1.2671992E-1,-2.6012236E-2,-2.2707485E-1,1.5642293E-1,-6.275097E-2,2.1556182E-1,5.2447665E-2],"split_indices":[191,363,92,724,533,491,21,179,1,0,702,0,0,0,0,0,0,0,0,0,0],"split_type":[0,0,0,0,0,0,0,0,0,0,0,0,0,0,0,0,0,0,0,0,0],"sum_hessian":[4.343529E1,2.8804375E1,1.4630918E1,1.6543217E1,1.226116E1,8.219704E0,6.411214E0,6.6809454E0,9.86227E0,3.2005095E0,9.06065E0,5.218846E0,3.0008578E0,3.050185E0,3.3610291E0,3.0388572E0,3.6420882E0,5.005796E0,4.856475E0,6.0327115E0,3.0279388E0],"tree_param":{"num_deleted":"0","num_feature":"768","num_nodes":"21","size_leaf_vector":"0"}},{"base_weights":[-2.7434515E-2,2.8538302E-1,-1.5717067E-1,5.493808E-1,-3.305704E-1,2.4518932E-1,-2.912934E-1,2.1827243E-1,6.85219E-1,5.855121E-1,-1.329988E-1,-5.492447E-1,5.678131E-2,4.147598E-2,-8.173192E-1,-4.0419582E-1,3.2968405E-1],"categories":[],"categories_nodes":[],"categories_segments":[],"categories_sizes":[],"default_left":[true,true,true,true,false,true,true,false,false,false,false,true,true,false,false,false,false],"id":32,"left_children":[1,3,5,7,-1,9,11,-1,-1,-1,-1,13,15,-1,-1,-1,-1],"loss_changes":[1.7201084E0,2.207118E0,1.680825E0,2.5949597E-1,0E0,1.1073622E0,2.0804672E0,0E0,0E0,0E0,0E0,2.124654E0,1.4694232E0,0E0,0E0,0E0,0E0],"parents":[2147483647,0,0,1,1,2,2,3,3,5,5,6,6,11,11,12,12],"right_children":[2,4,6,8,-1,10,12,-1,-1,-1,-1,14,16,-1,-1,-1,-1],"split_conditions":[-2.9831952E-1,1.9392978E-1,-6.233252E-1,1.08636655E-2,-9.9171124E-2,-1.6030815E-1,-3.2038845E-2,6.548173E-2,2.055657E-1,1.7565364E-1,-3.989964E-2,-1.0093872E-1,7.1510565E-1,1.2442795E-2,-2.4519578E-1,-1.2125875E-1,9.890522E-2],"split_indices":[129,723,506,447,0,235,546,0,0,0,0,558,560,0,0,0,0],"split_type":[0,0,0,0,0,0,0,0,0,0,0,0,0,0,0,0,0],"sum_hessian":[4.0278957E1,1.1456215E1,2.882274E1,8.094844E0,3.361371E0,6.9987693E0,2.1823973E1,3.1132042E0,4.9816394E0,3.3952549E0,3.6035144E0,1.2202782E1,9.62119E0,4.072977E0,8.129805E0,3.3988616E0,6.2223287E0],"tree_param":{"num_deleted":"0","num_feature":"768","num_nodes":"17","size_leaf_vector":"0"}},{"base_weights":[-2.0578563E-2,1.3716541E-1,-2.695859E-1,-3.067527E-1,3.288949E-1,2.1757124E-1,-5.233657E-1,-7.32927E-1,2.1798663E-1,5.306348E-1,-1.0060307E-1,4.318572E-3,-7.966415E-1,7.6814663E-1,2.2803892E-1],"categories":[],"categories_nodes":[],"categories_segments":[],"categories_sizes":[],"default_left":[true,true,true,true,true,false,true,false,false,true,false,false,false,false,false],"id":33,"left_children":[1,3,5,7,9,-1,11,-1,-1,13,-1,-1,-1,-1,-1],"loss_changes":[1.5423558E0,2.1541967E0,1.9930736E0,1.9027705E0,1.5550251E0,0E0,1.4869409E0,0E0,0E0,6.837673E-1,0E0,0E0,0E0,0E0,0E0],"parents":[2147483647,0,0,1,1,2,2,3,3,4,4,6,6,9,9],"right_children":[2,4,6,8,10,-1,12,-1,-1,14,-1,-1,-1,-1,-1],"split_conditions":[3.6340442E-1,1.9794339E-1,1.7461768E-1,6.4635587E-1,4.831928E-2,6.527138E-2,-1.0799085E-1,-2.1987812E-1,6.539599E-2,-5.997527E-1,-3.0180922E-2,1.2955717E-3,-2.3899247E-1,2.30444E-1,6.841168E-2],"split_indices":[230,532,435,92,694,0,23,0,0,529,0,0,0,0,0],"split_type":[0,0,0,0,0,0,0,0,0,0,0,0,0,0,0],"sum_hessian":[3.7324863E1,2.3124712E1,1.4200151E1,6.79412E0,1.6330591E1,4.91259E0,9.287561E0,3.530241E0,3.2638786E0,1.0951211E1,5.37938E0,3.5045736E0,5.7829876E0,5.273468E0,5.6777434E0],"tree_param":{"num_deleted":"0","num_feature":"768","num_nodes":"15","size_leaf_vector":"0"}},{"base_weights":[-1.8711526E-2,9.2520006E-2,-3.483853E-1,3.0651224E-1,-1.6315961E-1,-6.251152E-1,8.859275E-2,5.3384596E-1,-1.593067E-1,1.2661606E-1,-5.346025E-1,7.038495E-1,1.4758377E-1,5.3303593E-1,-2.1709037E-1],"categories":[],"categories_nodes":[],"categories_segments":[],"categories_sizes":[],"default_left":[true,true,true,true,true,false,false,true,false,true,false,false,false,false,false],"id":34,"left_children":[1,3,5,7,9,-1,-1,11,-1,13,-1,-1,-1,-1,-1],"loss_changes":[1.3379086E0,1.5498966E0,1.1669849E0,1.7021587E0,1.4823117E0,0E0,0E0,5.851035E-1,0E0,1.2599837E0,0E0,0E0,0E0,0E0,0E0],"parents":[2147483647,0,0,1,1,2,2,3,3,4,4,7,7,9,9],"right_children":[2,4,6,8,10,-1,-1,12,-1,14,-1,-1,-1,-1,-1],"split_conditions":[-3.676617E-1,-2.790212E-1,-3.0345178E-1,-4.7727334E-1,1.3892412E-1,-1.8753457E-1,2.6577827E-2,-9.19863E-2,-4.7792014E-2,-1.2740344E-2,-1.6038077E-1,2.1115486E-1,4.427513E-2,1.5991078E-1,-6.512711E-2],"split_indices":[702,163,319,71,723,0,0,97,0,232,0,0,0,0,0],"split_type":[0,0,0,0,0,0,0,0,0,0,0,0,0,0,0],"sum_hessian":[3.4605995E1,2.6413479E1,8.192517E0,1.42707205E1,1.2142759E1,4.7523823E0,3.4401352E0,9.492202E0,4.778518E0,7.191523E0,4.9512362E0,6.020308E0,3.4718935E0,3.042745E0,4.148778E0],"tree_param":{"num_deleted":"0","num_feature":"768","num_nodes":"15","size_leaf_vector":"0"}},{"base_weights":[-1.324807E-2,1.15816705E-1,-2.9100534E-1,2.294407E-1,-4.3877348E-1,-6.2808603E-1,3.8754262E-2,-1.14361174E-1,4.073807E-1,2.9054606E-1,-5.054259E-1,7.905704E-2,6.0176986E-1],"categories":[],"categories_nodes":[],"categories_segments":[],"categories_sizes":[],"default_left":[true,true,true,true,false,false,false,true,true,false,false,false,false],"id":35,"left_children":[1,3,5,7,-1,-1,-1,9,11,-1,-1,-1,-1],"loss_changes":[1.2305301E0,1.5821015E0,1.2333007E0,1.2804086E0,0E0,0E0,0E0,1.3596475E0,8.146124E-1,0E0,0E0,0E0,0E0],"parents":[2147483647,0,0,1,1,2,2,3,3,7,7,8,8],"right_children":[2,4,6,8,-1,-1,-1,10,12,-1,-1,-1,-1],"split_conditions":[-3.4097552E-1,7.906642E-1,-1.9385177E-1,-9.2875585E-2,-1.3163204E-1,-1.8842582E-1,1.1626279E-2,-2.5079802E-1,-4.6277583E-1,8.716382E-2,-1.5162776E-1,2.3717113E-2,1.8053097E-1],"split_indices":[98,68,239,144,0,0,0,746,285,0,0,0,0],"split_type":[0,0,0,0,0,0,0,0,0,0,0,0,0],"sum_hessian":[3.238552E1,2.2509237E1,9.876282E0,1.9168333E1,3.3409052E0,4.436553E0,5.439729E0,6.659216E0,1.2509116E1,3.3979878E0,3.2612283E0,5.1750836E0,7.3340325E0],"tree_param":{"num_deleted":"0","num_feature":"768","num_nodes":"13","size_leaf_vector":"0"}},{"base_weights":[-1.5021061E-2,-1.5112692E-1,2.567915E-1,6.105892E-2,-4.9366054E-1,-9.890636E-2,4.8273268E-1,2.814794E-1,-3.136547E-1,-7.7257717E-1,-1.0501767E-1,-1.2738638E-1,5.072338E-1],"categories":[],"categories_nodes":[],"categories_segments":[],"categories_sizes":[],"default_left":[true,true,true,true,true,false,false,true,false,false,false,false,false],"id":36,"left_children":[1,3,5,7,9,-1,-1,11,-1,-1,-1,-1,-1],"loss_changes":[1.2065195E0,1.6045351E0,9.239076E-1,1.2665676E0,8.2897377E-1,0E0,0E0,9.423463E-1,0E0,0E0,0E0,0E0,0E0],"parents":[2147483647,0,0,1,1,2,2,3,3,4,4,7,7],"right_children":[2,4,6,8,10,-1,-1,12,-1,-1,-1,-1,-1],"split_conditions":[-1.2634726E-1,-1.2806885E-1,-1.5808704E-1,-5.1981795E-1,-2.523619E-1,-2.967191E-2,1.4481981E-1,-1.437583E-1,-9.4096415E-2,-2.3177315E-1,-3.15053E-2,-3.8215913E-2,1.5217015E-1],"split_indices":[124,406,277,739,704,0,0,491,0,0,0,0,0],"split_type":[0,0,0,0,0,0,0,0,0,0,0,0,0],"sum_hessian":[3.0563791E1,2.0661749E1,9.902042E0,1.3265838E1,7.395911E0,4.064916E0,5.8371263E0,8.509216E0,4.756622E0,3.7306545E0,3.6652567E0,3.1819997E0,5.327216E0],"tree_param":{"num_deleted":"0","num_feature":"768","num_nodes":"13","size_leaf_vector":"0"}},{"base_weights":[-1.601409E-2,-1.1220969E-1,3.3937418E-1,1.6103896E-1,-2.9357323E-1,-2.6139343E-1,3.6972576E-1,6.579964E-2,-5.5608976E-1,5.858906E-1,5.649311E-2,3.8417807E-1,-2.713608E-1,-1.8585534E-1,-7.388793E-1],"categories":[],"categories_nodes":[],"categories_segments":[],"categories_sizes":[],"default_left":[true,true,false,true,true,false,true,true,true,false,false,false,false,false,false],"id":37,"left_children":[1,3,-1,5,7,-1,9,11,13,-1,-1,-1,-1,-1,-1],"loss_changes":[1.0608456E0,1.251303E0,0E0,1.0080267E0,1.4476845E0,0E0,4.6348476E-1,8.7800074E-1,4.5477962E-1,0E0,0E0,0E0,0E0,0E0,0E0],"parents":[2147483647,0,0,1,1,3,3,4,4,6,6,7,7,8,8],"right_children":[2,4,-1,6,8,-1,10,12,14,-1,-1,-1,-1,-1,-1],"split_conditions":[-5.609112E-2,2.4432601E-2,1.0181226E-1,-2.0884272E-1,-1.5767592E-1,-7.841803E-2,1.7410251E-1,-2.1755113E-1,-1.02439195E-1,1.7576718E-1,1.6947934E-2,1.15253426E-1,-8.140825E-2,-5.5756606E-2,-2.216638E-1],"split_indices":[648,659,0,210,190,0,383,343,302,0,0,0,0,0,0],"split_type":[0,0,0,0,0,0,0,0,0,0,0,0,0,0,0],"sum_hessian":[2.8916954E1,2.3295616E1,5.6213374E0,9.338289E0,1.3957328E1,3.0042994E0,6.3339896E0,6.2080913E0,7.749236E0,3.2326455E0,3.101344E0,3.1212568E0,3.0868344E0,3.2279325E0,4.5213037E0],"tree_param":{"num_deleted":"0","num_feature":"768","num_nodes":"15","size_leaf_vector":"0"}},{"base_weights":[-1.3892791E-2,-3.0145946E-1,9.9621944E-2,8.495536E-2,-5.8276266E-1,2.3904213E-1,-2.3722835E-1,4.5416805E-1,-4.215624E-2,5.9436804E-1,1.5791474E-1,-3.4548044E-1,2.9674998E-1],"categories":[],"categories_nodes":[],"categories_segments":[],"categories_sizes":[],"default_left":[true,true,true,false,false,true,false,true,true,false,false,false,false],"id":38,"left_children":[1,3,5,-1,-1,7,-1,9,11,-1,-1,-1,-1],"loss_changes":[9.532628E-1,9.466049E-1,1.0443377E0,0E0,0E0,9.4902456E-1,0E0,2.71394E-1,8.8150007E-1,0E0,0E0,0E0,0E0],"parents":[2147483647,0,0,1,1,2,2,5,5,7,7,8,8],"right_children":[2,4,6,-1,-1,8,-1,10,12,-1,-1,-1,-1],"split_conditions":[3.7813252E-1,5.8415365E-1,-3.4097552E-1,2.5486609E-2,-1.748288E-1,1.9851768E-2,-7.1168505E-2,3.4554082E-1,-3.9536916E-3,1.7831042E-1,4.7374424E-2,-1.0364414E-1,8.9025E-2],"split_indices":[492,669,98,0,0,694,0,230,683,0,0,0,0],"split_type":[0,0,0,0,0,0,0,0,0,0,0,0,0],"sum_hessian":[2.728261E1,7.252975E0,2.0029634E1,3.3496668E0,3.9033084E0,1.4371658E1,5.6579766E0,7.793931E0,6.5777273E0,4.607281E0,3.1866498E0,3.4608426E0,3.1168847E0],"tree_param":{"num_deleted":"0","num_feature":"768","num_nodes":"13","size_leaf_vector":"0"}},{"base_weights":[-1.0060738E-2,-4.1814753E-1,7.621391E-2,-2.6431468E-1,1.9426805E-1,3.2766125E-1,-1.5106241E-1,4.5501062E-1,9.610318E-3],"categories":[],"categories_nodes":[],"categories_segments":[],"categories_sizes":[],"default_left":[true,false,true,false,true,true,false,false,false],"id":39,"left_children":[1,-1,3,-1,5,7,-1,-1,-1],"loss_changes":[9.836743E-1,0E0,9.8248094E-1,0E0,8.683326E-1,5.2777183E-1,0E0,0E0,0E0],"parents":[2147483647,0,0,2,2,4,4,5,5],"right_children":[2,-1,4,-1,6,8,-1,-1,-1],"split_conditions":[-3.706213E-2,-1.2544426E-1,1.8740371E-1,-7.9294406E-2,4.6987942E-1,-1.261562E-1,-4.5318726E-2,1.3650319E-1,2.8830953E-3],"split_indices":[102,0,396,0,147,498,0,0,0],"split_type":[0,0,0,0,0,0,0,0,0],"sum_hessian":[2.603414E1,3.8720925E0,2.2162046E1,5.3862925E0,1.6775755E1,1.213821E1,4.6375446E0,8.360141E0,3.7780693E0],"tree_param":{"num_deleted":"0","num_feature":"768","num_nodes":"9","size_leaf_vector":"0"}},{"base_weights":[-1.0658943E-2,9.400338E-2,-3.1132942E-1,-3.2329187E-1,1.9719002E-1,5.606799E-1,4.534859E-2,4.910818E-1,-1.4335793E-1],"categories":[],"categories_nodes":[],"categories_segments":[],"categories_sizes":[],"default_left":[true,true,false,false,true,false,true,false,false],"id":40,"left_children":[1,3,-1,-1,5,-1,7,-1,-1],"loss_changes":[8.5393393E-1,9.338585E-1,0E0,0E0,9.0304065E-1,0E0,1.159963E0,0E0,0E0],"parents":[2147483647,0,0,1,1,4,4,6,6],"right_children":[2,4,-1,-1,6,-1,8,-1,-1],"split_conditions":[-7.384986E-2,-2.490825E-1,-9.339883E-2,-9.698757E-2,-1.4944583E-1,1.6820398E-1,3.87187E-1,1.4732455E-1,-4.300738E-2],"split_indices":[235,298,0,0,97,0,203,0,0],"split_type":[0,0,0,0,0,0,0,0,0],"sum_hessian":[2.5205832E1,1.920722E1,5.998611E0,3.3849847E0,1.5822235E1,3.8686419E0,1.1953593E1,3.0788515E0,8.8747425E0],"tree_param":{"num_deleted":"0","num_feature":"768","num_nodes":"9","size_leaf_vector":"0"}},{"base_weights":[-2.7764535E-3,-3.6880144E-1,7.867101E-2,-4.9317E-2,4.7354317E-1,2.3853943E-1,-2.8101578E-1,-5.5455465E-2,4.811138E-1,-6.077562E-1,1.0563837E-1],"categories":[],"categories_nodes":[],"categories_segments":[],"categories_sizes":[],"default_left":[true,false,true,true,false,true,true,false,false,false,false],"id":41,"left_children":[1,-1,3,5,-1,7,9,-1,-1,-1,-1],"loss_changes":[7.8171706E-1,0E0,1.1087792E0,1.2092333E0,0E0,6.099055E-1,1.3209105E0,0E0,0E0,0E0,0E0],"parents":[2147483647,0,0,2,2,3,3,5,5,6,6],"right_children":[2,-1,4,6,-1,8,10,-1,-1,-1,-1],"split_conditions":[-4.3893164E-1,-1.1064044E-1,3.923647E-2,4.1380522E-1,1.4206296E-1,-3.9989433E-1,2.7757887E-2,-1.663664E-2,1.4433414E-1,-1.8232687E-1,3.1691514E-2],"split_indices":[168,0,696,153,0,262,570,0,0,0,0],"split_type":[0,0,0,0,0,0,0,0,0,0,0],"sum_hessian":[2.424849E1,3.7714589E0,2.047703E1,1.6125467E1,4.3515635E0,7.178083E0,8.947384E0,3.5938282E0,3.5842547E0,4.539481E0,4.407903E0],"tree_param":{"num_deleted":"0","num_feature":"768","num_nodes":"11","size_leaf_vector":"0"}},{"base_weights":[-1.9143223E-3,2.0354463E-1,-1.4083292E-1,4.1407233E-1,-1.4508319E-1,2.8883567E-1,-2.9119074E-1,3.5906885E-2,-5.120799E-1],"categories":[],"categories_nodes":[],"categories_segments":[],"categories_sizes":[],"default_left":[true,true,true,false,false,false,true,false,false],"id":42,"left_children":[1,3,5,-1,-1,-1,7,-1,-1],"loss_changes":[7.1452576E-1,8.0154413E-1,1.04848E0,0E0,0E0,0E0,8.5332364E-1,0E0,0E0],"parents":[2147483647,0,0,1,1,2,2,6,6],"right_children":[2,4,6,-1,-1,-1,8,-1,-1],"split_conditions":[-2.6105133E-1,-9.121731E-3,-4.3276346E-1,1.24221705E-1,-4.352496E-2,8.665071E-2,3.4706917E-1,1.0772066E-2,-1.5362397E-1],"split_indices":[663,451,727,0,0,0,20,0,0],"split_type":[0,0,0,0,0,0,0,0,0],"sum_hessian":[2.3029789E1,9.102336E0,1.3927454E1,5.558172E0,3.5441632E0,3.3716118E0,1.0555842E1,4.592544E0,5.9632983E0],"tree_param":{"num_deleted":"0","num_feature":"768","num_nodes":"9","size_leaf_vector":"0"}},{"base_weights":[-6.90917E-4,1.202136E-1,-2.3056594E-1,-8.624458E-2,3.64502E-1,-4.9823043E-1,7.0284486E-2,2.4327213E-1,-3.293606E-1,9.439003E-2,5.3627884E-1],"categories":[],"categories_nodes":[],"categories_segments":[],"categories_sizes":[],"default_left":[true,true,true,true,true,false,false,false,false,false,false],"id":43,"left_children":[1,3,5,7,9,-1,-1,-1,-1,-1,-1],"loss_changes":[6.7255026E-1,8.3142865E-1,7.065805E-1,8.335786E-1,2.953586E-1,0E0,0E0,0E0,0E0,0E0,0E0],"parents":[2147483647,0,0,1,1,2,2,3,3,4,4],"right_children":[2,4,6,8,10,-1,-1,-1,-1,-1,-1],"split_conditions":[-1.3090823E-2,1.6976571E-1,6.164135E-1,4.2866322E-1,-1.051373E-1,-1.4946914E-1,2.1085346E-2,7.298164E-2,-9.8808184E-2,2.831701E-2,1.6088367E-1],"split_indices":[191,363,92,203,379,0,0,0,0,0,0],"split_type":[0,0,0,0,0,0,0,0,0,0,0],"sum_hessian":[2.2201338E1,1.486174E1,7.3395977E0,8.405154E0,6.456586E0,3.5368307E0,3.802767E0,3.568206E0,4.8369484E0,3.112228E0,3.3443577E0],"tree_param":{"num_deleted":"0","num_feature":"768","num_nodes":"11","size_leaf_vector":"0"}},{"base_weights":[1.2275983E-3,-2.831282E-1,9.5534526E-2,2.1390463E-1,-2.4098462E-1,-8.372355E-2,3.6063477E-1,5.2010256E-1,6.309876E-2],"categories":[],"categories_nodes":[],"categories_segments":[],"categories_sizes":[],"default_left":[true,false,true,true,false,false,true,false,false],"id":44,"left_children":[1,-1,3,5,-1,-1,7,-1,-1],"loss_changes":[6.268923E-1,0E0,7.5043607E-1,6.201598E-1,0E0,0E0,4.0544772E-1,0E0,0E0],"parents":[2147483647,0,0,2,2,3,3,6,6],"right_children":[2,-1,4,6,-1,-1,8,-1,-1],"split_conditions":[1.8353086E-2,-8.493847E-2,-3.6806595E-1,2.875267E-3,-7.229539E-2,-2.5117068E-2,-1.7841786E-1,1.5603077E-1,1.8929629E-2],"split_indices":[295,0,497,685,0,0,360,0,0],"split_type":[0,0,0,0,0,0,0,0,0],"sum_hessian":[2.1368275E1,4.8231716E0,1.6545105E1,1.2509328E1,4.035776E0,4.2724576E0,8.236871E0,4.8756685E0,3.3612015E0],"tree_param":{"num_deleted":"0","num_feature":"768","num_nodes":"9","size_leaf_vector":"0"}},{"base_weights":[1.81486E-3,1.6791384E-1,-1.6291334E-1,-1.6741796E-1,3.4513023E-1,-3.5346878E-1,1.8215983E-1,5.228727E-1,5.9861507E-2,-5.9611523E-1,-1.39354905E-2],"categories":[],"categories_nodes":[],"categories_segments":[],"categories_sizes":[],"default_left":[true,true,true,false,true,true,false,false,false,false,false],"id":45,"left_children":[1,3,5,-1,7,9,-1,-1,-1,-1,-1],"loss_changes":[6.23141E-1,7.313634E-1,8.1663764E-1,0E0,3.612703E-1,6.2691337E-1,0E0,0E0,0E0,0E0,0E0],"parents":[2147483647,0,0,1,1,2,2,4,4,5,5],"right_children":[2,4,6,-1,8,10,-1,-1,-1,-1,-1],"split_conditions":[-4.3185788E-1,8.428772E-2,2.933019E-1,-5.022539E-2,-1.08467154E-1,-8.11501E-2,5.464795E-2,1.5686181E-1,1.7958453E-2,-1.7883457E-1,-4.1806474E-3],"split_indices":[702,482,106,0,630,620,0,0,0,0,0],"split_type":[0,0,0,0,0,0,0,0,0,0,0],"sum_hessian":[2.0774847E1,1.0334753E1,1.0440093E1,3.5924158E0,6.7423377E0,6.710247E0,3.7298458E0,3.6408927E0,3.1014447E0,3.4727597E0,3.2374873E0],"tree_param":{"num_deleted":"0","num_feature":"768","num_nodes":"11","size_leaf_vector":"0"}},{"base_weights":[7.8773167E-4,-3.4038723E-1,8.43434E-2,3.3111486E-1,-5.7210587E-2,1.2079275E-1,-4.2183343E-1,3.413893E-1,-2.2261856E-1],"categories":[],"categories_nodes":[],"categories_segments":[],"categories_sizes":[],"default_left":[true,false,true,false,true,true,false,false,false],"id":46,"left_children":[1,-1,3,-1,5,7,-1,-1,-1],"loss_changes":[6.265667E-1,0E0,6.3540906E-1,0E0,8.341817E-1,7.491796E-1,0E0,0E0,0E0],"parents":[2147483647,0,0,2,2,4,4,5,5],"right_children":[2,-1,4,-1,6,8,-1,-1,-1],"split_conditions":[1.6168293E-1,-1.02116175E-1,-1.9955887E-1,9.933446E-2,1.3528556E-1,-1.2967256E-1,-1.2655003E-1,1.0241679E-1,-6.6785574E-2],"split_indices":[82,0,406,0,101,498,0,0,0],"split_type":[0,0,0,0,0,0,0,0,0],"sum_hessian":[1.9972223E1,3.3243682E0,1.6647854E1,5.580395E0,1.1067459E1,7.8862367E0,3.1812224E0,4.8053317E0,3.080905E0],"tree_param":{"num_deleted":"0","num_feature":"768","num_nodes":"9","size_leaf_vector":"0"}},{"base_weights":[-3.9768736E-3,1.3763164E-1,-2.2143093E-1,2.814407E-1,-1.8742077E-1,1.0906098E-1,-4.8522946E-1,-5.9937235E-2,4.5503256E-1],"categories":[],"categories_nodes":[],"categories_segments":[],"categories_sizes":[],"default_left":[true,true,true,true,false,false,false,false,false],"id":47,"left_children":[1,3,5,7,-1,-1,-1,-1,-1],"loss_changes":[6.5414363E-1,6.5494335E-1,7.8272176E-1,5.802249E-1,0E0,0E0,0E0,0E0,0E0],"parents":[2147483647,0,0,1,1,2,2,3,3],"right_children":[2,4,6,8,-1,-1,-1,-1,-1],"split_conditions":[2.996316E-1,1.4133105E-1,-2.3321386E-1,6.239985E-1,-5.6226235E-2,3.2718297E-2,-1.4556885E-1,-1.7981172E-2,1.3650978E-1],"split_indices":[711,424,284,220,0,0,0,0,0],"split_type":[0,0,0,0,0,0,0,0,0],"sum_hessian":[1.9253328E1,1.1882432E1,7.370896E0,8.330872E0,3.5515602E0,3.5322278E0,3.838668E0,3.0289662E0,5.3019056E0],"tree_param":{"num_deleted":"0","num_feature":"768","num_nodes":"9","size_leaf_vector":"0"}},{"base_weights":[-5.280062E-3,1.0090248E-1,-2.979725E-1,3.24143E-1,-5.899352E-2,1.5898491E-1,-3.215114E-1],"categories":[],"categories_nodes":[],"categories_segments":[],"categories_sizes":[],"default_left":[true,true,false,false,true,false,false],"id":48,"left_children":[1,3,-1,-1,5,-1,-1],"loss_changes":[6.387717E-1,5.5880034E-1,0E0,0E0,6.036269E-1,0E0,0E0],"parents":[2147483647,0,0,1,1,4,4],"right_children":[2,4,-1,-1,6,-1,-1],"split_conditions":[-7.384986E-2,-1.20814875E-1,-8.939175E-2,9.72429E-2,-1.8062857E-1,4.7695477E-2,-9.645342E-2],"split_indices":[235,97,0,0,479,0,0],"split_type":[0,0,0,0,0,0,0],"sum_hessian":[1.858586E1,1.4119036E1,4.4668226E0,5.4636674E0,8.655369E0,4.9443088E0,3.71106E0],"tree_param":{"num_deleted":"0","num_feature":"768","num_nodes":"7","size_leaf_vector":"0"}},{"base_weights":[-5.918659E-3,1.07787125E-1,-2.4905208E-1,-1.7551455E-1,2.5354645E-1,4.1158766E-1,1.3877932E-3],"categories":[],"categories_nodes":[],"categories_segments":[],"categories_sizes":[],"default_left":[true,true,false,false,true,false,false],"id":49,"left_children":[1,3,-1,-1,5,-1,-1],"loss_changes":[5.553665E-1,6.1121154E-1,0E0,0E0,3.7684947E-1,0E0,0E0],"parents":[2147483647,0,0,1,1,4,4],"right_children":[2,4,-1,-1,6,-1,-1],"split_conditions":[-3.006298E-1,-4.3840426E-1,-7.471563E-2,-5.2654367E-2,-1.892283E-1,1.23476304E-1,4.1633798E-4],"split_indices":[727,107,0,0,312,0,0],"split_type":[0,0,0,0,0,0,0],"sum_hessian":[1.8117706E1,1.2723844E1,5.3938627E0,4.2531567E0,8.470687E0,4.818451E0,3.6522362E0],"tree_param":{"num_deleted":"0","num_feature":"768","num_nodes":"7","size_leaf_vector":"0"}},{"base_weights":[-3.731081E-3,1.4226283E-1,-1.7295946E-1,4.2122215E-1,-6.142859E-2,-4.2382404E-1,7.569614E-2,-2.768908E-1,1.6939302E-1],"categories":[],"categories_nodes":[],"categories_segments":[],"categories_sizes":[],"default_left":[true,true,true,false,true,false,false,false,false],"id":50,"left_children":[1,3,5,-1,7,-1,-1,-1,-1],"loss_changes":[4.8729175E-1,6.283318E-1,6.012796E-1,0E0,3.9507374E-1,0E0,0E0,0E0,0E0],"parents":[2147483647,0,0,1,1,2,2,4,4],"right_children":[2,4,6,-1,8,-1,-1,-1,-1],"split_conditions":[9.365267E-2,-1.5669023E-3,-3.6591417E-1,1.2636665E-1,1.909365E-2,-1.2714721E-1,2.2708843E-2,-8.3067246E-2,5.0817907E-2],"split_indices":[594,646,21,0,447,0,0,0,0],"split_type":[0,0,0,0,0,0,0,0,0],"sum_hessian":[1.7727442E1,9.602594E0,8.124847E0,3.6018496E0,6.000745E0,3.6937857E0,4.431062E0,3.0004056E0,3.0003393E0],"tree_param":{"num_deleted":"0","num_feature":"768","num_nodes":"9","size_leaf_vector":"0"}},{"base_weights":[-3.2971522E-3,1.201605E-1,-2.0115414E-1,2.9897085E-1,-1.9272578E-1,7.691249E-2,-4.398176E-1,4.9288648E-1,-6.3232514E-3],"categories":[],"categories_nodes":[],"categories_segments":[],"categories_sizes":[],"default_left":[true,true,true,true,false,false,false,false,false],"id":51,"left_children":[1,3,5,7,-1,-1,-1,-1,-1],"loss_changes":[4.6856004E-1,7.193941E-1,5.22537E-1,4.7192788E-1,0E0,0E0,0E0,0E0,0E0],"parents":[2147483647,0,0,1,1,2,2,3,3],"right_children":[2,4,6,8,-1,-1,-1,-1,-1],"split_conditions":[-4.019454E-1,-1.5193547E-1,-3.6776762E-2,-4.869388E-2,-5.7817735E-2,2.3073748E-2,-1.3194528E-1,1.4786595E-1,-1.8969754E-3],"split_indices":[263,732,558,191,0,0,0,0,0],"split_type":[0,0,0,0,0,0,0,0,0],"sum_hessian":[1.7192574E1,1.0828537E1,6.364037E0,6.9189334E0,3.9096038E0,3.2524023E0,3.1116347E0,3.8555276E0,3.0634055E0],"tree_param":{"num_deleted":"0","num_feature":"768","num_nodes":"9","size_leaf_vector":"0"}},{"base_weights":[-2.9810525E-3,-2.6937917E-1,8.8620946E-2,-2.3132192E-1,2.1443266E-1,-1.18569076E-1,3.965969E-1,5.3592926E-1,1.5821365E-1],"categories":[],"categories_nodes":[],"categories_segments":[],"categories_sizes":[],"default_left":[true,false,true,false,true,false,true,false,false],"id":52,"left_children":[1,-1,3,-1,5,-1,7,-1,-1],"loss_changes":[4.541431E-1,0E0,6.0802865E-1,0E0,6.825333E-1,0E0,1.477791E-1,0E0,0E0],"parents":[2147483647,0,0,2,2,4,4,6,6],"right_children":[2,-1,4,-1,6,-1,8,-1,-1],"split_conditions":[1.2554264E-1,-8.081375E-2,5.274573E-1,-6.939658E-2,2.761155E-2,-3.5570726E-2,2.8662527E-1,1.6077879E-1,4.7464095E-2],"split_indices":[454,0,92,0,705,0,230,0,0],"split_type":[0,0,0,0,0,0,0,0,0],"sum_hessian":[1.6632158E1,3.75911E0,1.2873049E1,3.396645E0,9.476403E0,3.474331E0,6.0020723E0,3.0002666E0,3.001806E0],"tree_param":{"num_deleted":"0","num_feature":"768","num_nodes":"9","size_leaf_vector":"0"}},{"base_weights":[3.9631384E-4,1.1947572E-1,-2.1305452E-1,3.4873304E-1,-1.0008075E-1],"categories":[],"categories_nodes":[],"categories_segments":[],"categories_sizes":[],"default_left":[true,true,false,false,false],"id":53,"left_children":[1,3,-1,-1,-1],"loss_changes":[4.613917E-1,6.212987E-1,0E0,0E0,0E0],"parents":[2147483647,0,0,1,1],"right_children":[2,4,-1,-1,-1],"split_conditions":[-3.1170696E-1,-5.0964475E-1,-6.391636E-2,1.0461991E-1,-3.0024227E-2],"split_indices":[727,587,0,0,0],"split_type":[0,0,0,0,0],"sum_hessian":[1.6150984E1,1.0649907E1,5.501077E0,4.92204E0,5.727867E0],"tree_param":{"num_deleted":"0","num_feature":"768","num_nodes":"5","size_leaf_vector":"0"}},{"base_weights":[1.4229149E-3,-1.465554E-1,1.5516986E-1,1.3105127E-1,-3.5926494E-1,-7.6711014E-2,3.5310516E-1],"categories":[],"categories_nodes":[],"categories_segments":[],"categories_sizes":[],"default_left":[true,true,true,false,false,false,false],"id":54,"left_children":[1,3,5,-1,-1,-1,-1],"loss_changes":[4.0667713E-1,5.852189E-1,4.2924532E-1,0E0,0E0,0E0,0E0],"parents":[2147483647,0,0,1,1,2,2],"right_children":[2,4,6,-1,-1,-1,-1],"split_conditions":[-8.355825E-2,2.4196136E-1,-3.5313827E-1,3.9315384E-2,-1.0777949E-1,-2.3013305E-2,1.0593155E-1],"split_indices":[620,711,21,0,0,0,0],"split_type":[0,0,0,0,0,0,0],"sum_hessian":[1.5875415E1,8.113302E0,7.762113E0,3.686264E0,4.4270377E0,3.85658E0,3.9055328E0],"tree_param":{"num_deleted":"0","num_feature":"768","num_nodes":"7","size_leaf_vector":"0"}},{"base_weights":[1.9198039E-3,9.267976E-2,-2.4453665E-1,-1.7504156E-1,2.1007097E-1,-3.607458E-2,4.0657708E-1],"categories":[],"categories_nodes":[],"categories_segments":[],"categories_sizes":[],"default_left":[true,true,false,false,true,false,false],"id":55,"left_children":[1,3,-1,-1,5,-1,-1],"loss_changes":[3.9200807E-1,4.388305E-1,0E0,0E0,4.6681675E-1,0E0,0E0],"parents":[2147483647,0,0,1,1,4,4],"right_children":[2,4,-1,-1,6,-1,-1],"split_conditions":[-7.384986E-2,-2.471128E-1,-7.3361E-2,-5.251247E-2,1.0779277E-2,-1.0822374E-2,1.2197313E-1],"split_indices":[235,535,0,0,447,0,0],"split_type":[0,0,0,0,0,0,0],"sum_hessian":[1.5511902E1,1.1792976E1,3.718926E0,3.4450748E0,8.347901E0,4.068312E0,4.279589E0],"tree_param":{"num_deleted":"0","num_feature":"768","num_nodes":"7","size_leaf_vector":"0"}},{"base_weights":[1.1943474E-3,-1.1138816E-1,2.0680858E-1,-3.2240945E-1,1.2463676E-1],"categories":[],"categories_nodes":[],"categories_segments":[],"categories_sizes":[],"default_left":[true,true,false,false,false],"id":56,"left_children":[1,3,-1,-1,-1],"loss_changes":[3.9749873E-1,5.931814E-1,0E0,0E0,0E0],"parents":[2147483647,0,0,1,1],"right_children":[2,4,-1,-1,-1],"split_conditions":[-8.7047085E-2,1.4995217E-1,6.2042575E-2,-9.672284E-2,3.739103E-2],"split_indices":[533,274,0,0,0],"split_type":[0,0,0,0,0],"sum_hessian":[1.51764965E1,1.01029625E1,5.073534E0,5.1407804E0,4.962182E0],"tree_param":{"num_deleted":"0","num_feature":"768","num_nodes":"5","size_leaf_vector":"0"}},{"base_weights":[7.509312E-4,-1.8741009E-1,1.1783396E-1,2.7231532E-1,-1.6311164E-1,3.1629357E-2,4.4957396E-1],"categories":[],"categories_nodes":[],"categories_segments":[],"categories_sizes":[],"default_left":[true,false,true,true,false,false,false],"id":57,"left_children":[1,-1,3,5,-1,-1,-1],"loss_changes":[3.730319E-1,0E0,4.9725214E-1,2.8897637E-1,0E0,0E0,0E0],"parents":[2147483647,0,0,2,2,3,3],"right_children":[2,-1,4,6,-1,-1,-1],"split_conditions":[1.2487875E-1,-5.6223027E-2,-2.2967893E-1,-3.9584216E-1,-4.8933495E-2,9.488808E-3,1.348722E-1],"split_indices":[466,0,440,593,0,0,0],"split_type":[0,0,0,0,0,0,0],"sum_hessian":[1.4930153E1,5.496391E0,9.433763E0,6.10666E0,3.327103E0,3.0897543E0,3.0169055E0],"tree_param":{"num_deleted":"0","num_feature":"768","num_nodes":"7","size_leaf_vector":"0"}},{"base_weights":[3.894401E-3,-1.360904E-1,1.7027766E-1,-3.3696815E-1,1.424346E-1,-5.6488447E-2,3.6678573E-1],"categories":[],"categories_nodes":[],"categories_segments":[],"categories_sizes":[],"default_left":[true,true,true,false,false,false,false],"id":58,"left_children":[1,3,5,-1,-1,-1,-1],"loss_changes":[3.8741547E-1,5.542766E-1,3.5893035E-1,0E0,0E0,0E0,0E0],"parents":[2147483647,0,0,1,1,2,2],"right_children":[2,4,6,-1,-1,-1,-1],"split_conditions":[-2.0293532E-2,-7.793841E-2,-5.2801824E-1,-1.0109045E-1,4.273038E-2,-1.6946536E-2,1.10035725E-1],"split_indices":[696,379,589,0,0,0,0],"split_type":[0,0,0,0,0,0,0],"sum_hessian":[1.4638674E1,8.048891E0,6.5897827E0,4.554363E0,3.4945278E0,3.3901553E0,3.1996274E0],"tree_param":{"num_deleted":"0","num_feature":"768","num_nodes":"7","size_leaf_vector":"0"}},{"base_weights":[5.1566334E-3,1.2590975E-1,-1.8188213E-1,3.0497888E-1,-1.19993344E-1],"categories":[],"categories_nodes":[],"categories_segments":[],"categories_sizes":[],"default_left":[true,true,false,false,false],"id":59,"left_children":[1,3,-1,-1,-1],"loss_changes":[3.6863378E-1,4.7222567E-1,0E0,0E0,0E0],"parents":[2147483647,0,0,1,1],"right_children":[2,4,-1,-1,-1],"split_conditions":[-2.3491651E-1,3.4897134E-1,-5.456464E-2,9.1493666E-2,-3.5998005E-2],"split_indices":[267,609,0,0,0],"split_type":[0,0,0,0,0],"sum_hessian":[1.43077345E1,8.893119E0,5.4146147E0,5.006844E0,3.886275E0],"tree_param":{"num_deleted":"0","num_feature":"768","num_nodes":"5","size_leaf_vector":"0"}},{"base_weights":[4.1077086E-3,2.640091E-1,-8.954149E-2,-2.1493308E-1,2.0829107E-1,8.3674654E-2,-4.2273358E-1],"categories":[],"categories_nodes":[],"categories_segments":[],"categories_sizes":[],"default_left":[true,false,true,true,false,false,false],"id":60,"left_children":[1,-1,3,5,-1,-1,-1],"loss_changes":[3.9102417E-1,0E0,4.870426E-1,5.830411E-1,0E0,0E0,0E0],"parents":[2147483647,0,0,2,2,3,3],"right_children":[2,-1,4,6,-1,-1,-1],"split_conditions":[-1.7548932E-1,7.920273E-2,-2.3933962E-1,-2.608629E-1,6.2487323E-2,2.5102397E-2,-1.2682007E-1],"split_indices":[97,0,527,129,0,0,0],"split_type":[0,0,0,0,0,0,0],"sum_hessian":[1.409413E1,3.2514272E0,1.0842702E1,7.8261347E0,3.0165675E0,3.456501E0,4.3696337E0],"tree_param":{"num_deleted":"0","num_feature":"768","num_nodes":"7","size_leaf_vector":"0"}},{"base_weights":[4.9998607E-3,1.09183535E-1,-1.9055746E-1,2.4544273E-1,-1.4398958E-1,3.883592E-1,4.1265488E-2],"categories":[],"categories_nodes":[],"categories_segments":[],"categories_sizes":[],"default_left":[true,true,false,true,false,false,false],"id":61,"left_children":[1,3,-1,5,-1,-1,-1],"loss_changes":[3.2081845E-1,3.8869137E-1,0E0,1.8907416E-1,0E0,0E0,0E0],"parents":[2147483647,0,0,1,1,3,3],"right_children":[2,4,-1,6,-1,-1,-1],"split_conditions":[-1.3090823E-2,-8.602207E-2,-5.7167243E-2,-3.4902358E-1,-4.3196876E-2,1.1650776E-1,1.2379647E-2],"split_indices":[191,218,0,632,0,0,0],"split_type":[0,0,0,0,0,0,0],"sum_hessian":[1.3725361E1,9.242875E0,4.482486E0,6.0287185E0,3.2141564E0,3.0157425E0,3.012976E0],"tree_param":{"num_deleted":"0","num_feature":"768","num_nodes":"7","size_leaf_vector":"0"}},{"base_weights":[6.1017624E-3,-1.7590676E-1,1.1552922E-1,2.8951204E-1,-1.3638979E-1],"categories":[],"categories_nodes":[],"categories_segments":[],"categories_sizes":[],"default_left":[true,false,true,false,false],"id":62,"left_children":[1,-1,3,-1,-1],"loss_changes":[3.089056E-1,0E0,4.6255618E-1,0E0,0E0],"parents":[2147483647,0,0,2,2],"right_children":[2,-1,4,-1,-1],"split_conditions":[-1.8623663E-2,-5.277203E-2,2.3060521E-1,8.6853616E-2,-4.091694E-2],"split_indices":[47,0,333,0,0],"split_type":[0,0,0,0,0],"sum_hessian":[1.3489488E1,4.8368807E0,8.652607E0,5.0297112E0,3.622896E0],"tree_param":{"num_deleted":"0","num_feature":"768","num_nodes":"5","size_leaf_vector":"0"}},{"base_weights":[4.191875E-3,-1.385686E-1,1.4303617E-1,-3.5979444E-1,9.422574E-2,-1.1998318E-1,3.497242E-1],"categories":[],"categories_nodes":[],"categories_segments":[],"categories_sizes":[],"default_left":[true,true,true,false,false,false,false],"id":63,"left_children":[1,3,5,-1,-1,-1,-1],"loss_changes":[3.0320022E-1,4.230795E-1,4.627184E-1,0E0,0E0,0E0,0E0],"parents":[2147483647,0,0,1,1,2,2],"right_children":[2,4,6,-1,-1,-1,-1],"split_conditions":[4.6633044E-1,-4.100331E-1,-9.180875E-2,-1.07938334E-1,2.8267724E-2,-3.5994954E-2,1.04917265E-1],"split_indices":[617,211,379,0,0,0,0],"split_type":[0,0,0,0,0,0,0],"sum_hessian":[1.329661E1,6.556828E0,6.7397814E0,3.0822248E0,3.4746032E0,3.1503382E0,3.5894432E0],"tree_param":{"num_deleted":"0","num_feature":"768","num_nodes":"7","size_leaf_vector":"0"}},{"base_weights":[2.3213017E-3,-1.016117E-1,1.976895E-1,1.0873616E-1,-2.909416E-1],"categories":[],"categories_nodes":[],"categories_segments":[],"categories_sizes":[],"default_left":[true,true,false,false,false],"id":64,"left_children":[1,3,-1,-1,-1],"loss_changes":[3.0408305E-1,4.215262E-1,0E0,0E0,0E0],"parents":[2147483647,0,0,1,1],"right_children":[2,4,-1,-1,-1],"split_conditions":[1.9222204E-2,5.8365926E-2,5.9306853E-2,3.2620847E-2,-8.728248E-2],"split_indices":[306,594,0,0,0],"split_type":[0,0,0,0,0],"sum_hessian":[1.298634E1,8.790056E0,4.196284E0,4.365552E0,4.424504E0],"tree_param":{"num_deleted":"0","num_feature":"768","num_nodes":"5","size_leaf_vector":"0"}},{"base_weights":[1.7919617E-3,-1.9718657E-1,1.0964083E-1,2.6768333E-1,-1.14575624E-1],"categories":[],"categories_nodes":[],"categories_segments":[],"categories_sizes":[],"default_left":[true,false,true,false,false],"id":65,"left_children":[1,-1,3,-1,-1],"loss_changes":[3.1784815E-1,0E0,3.706616E-1,0E0,0E0],"parents":[2147483647,0,0,2,2],"right_children":[2,-1,4,-1,-1],"split_conditions":[3.2812297E-1,-5.9155975E-2,-4.1434956E-1,8.0305E-2,-3.4372687E-2],"split_indices":[445,0,702,0,0],"split_type":[0,0,0,0,0],"sum_hessian":[1.2803999E1,4.209399E0,8.5946E0,4.9275074E0,3.6670923E0],"tree_param":{"num_deleted":"0","num_feature":"768","num_nodes":"5","size_leaf_vector":"0"}},{"base_weights":[5.4417405E-4,-1.8596047E-1,1.0189024E-1,-7.590269E-2,3.3341336E-1],"categories":[],"categories_nodes":[],"categories_segments":[],"categories_sizes":[],"default_left":[true,false,true,false,false],"id":66,"left_children":[1,-1,3,-1,-1],"loss_changes":[2.7652112E-1,0E0,4.1534227E-1,0E0,0E0],"parents":[2147483647,0,0,2,2],"right_children":[2,-1,4,-1,-1],"split_conditions":[-7.142924E-2,-5.5788144E-2,5.1003075E-1,-2.2770809E-2,1.00024015E-1],"split_indices":[252,0,297,0,0],"split_type":[0,0,0,0,0],"sum_hessian":[1.2627139E1,4.151793E0,8.475347E0,5.174141E0,3.3012054E0],"tree_param":{"num_deleted":"0","num_feature":"768","num_nodes":"5","size_leaf_vector":"0"}},{"base_weights":[2.3987321E-3,1.6128294E-1,-1.1235027E-1,7.277099E-2,-3.3169654E-1],"categories":[],"categories_nodes":[],"categories_segments":[],"categories_sizes":[],"default_left":[true,false,true,false,false],"id":67,"left_children":[1,-1,3,-1,-1],"loss_changes":[2.6336035E-1,0E0,3.6521822E-1,0E0,0E0],"parents":[2147483647,0,0,2,2],"right_children":[2,-1,4,-1,-1],"split_conditions":[1.4920321E-1,4.8384886E-2,8.482854E-2,2.1831298E-2,-9.950896E-2],"split_indices":[342,0,389,0,0],"split_type":[0,0,0,0,0],"sum_hessian":[1.2451228E1,5.0514045E0,7.3998237E0,4.3753796E0,3.024444E0],"tree_param":{"num_deleted":"0","num_feature":"768","num_nodes":"5","size_leaf_vector":"0"}},{"base_weights":[-8.3445915E-4,1.2725651E-1,-1.5004073E-1,3.2803443E-1,-1.330511E-1],"categories":[],"categories_nodes":[],"categories_segments":[],"categories_sizes":[],"default_left":[true,true,false,false,false],"id":68,"left_children":[1,3,-1,-1,-1],"loss_changes":[2.7298212E-1,4.4550282E-1,0E0,0E0,0E0],"parents":[2147483647,0,0,1,1],"right_children":[2,4,-1,-1,-1],"split_conditions":[-2.790212E-1,1.7339125E-1,-4.501222E-2,9.841033E-2,-3.991533E-2],"split_indices":[163,8,0,0,0],"split_type":[0,0,0,0,0],"sum_hessian":[1.2284259E1,6.6889887E0,5.5952697E0,3.6294088E0,3.0595798E0],"tree_param":{"num_deleted":"0","num_feature":"768","num_nodes":"5","size_leaf_vector":"0"}},{"base_weights":[8.931384E-4,-2.2247636E-1,9.1688395E-2,-1.3433968E-1,2.3959212E-1],"categories":[],"categories_nodes":[],"categories_segments":[],"categories_sizes":[],"default_left":[true,false,true,false,false],"id":69,"left_children":[1,-1,3,-1,-1],"loss_changes":[2.8607604E-1,0E0,3.6722976E-1,0E0,0E0],"parents":[2147483647,0,0,2,2],"right_children":[2,-1,4,-1,-1],"split_conditions":[5.2061483E-2,-6.674291E-2,1.2140857E-1,-4.0301904E-2,7.1877636E-2],"split_indices":[482,0,363,0,0],"split_type":[0,0,0,0,0],"sum_hessian":[1.2099896E1,3.0777867E0,9.02211E0,3.6048489E0,5.4172606E0],"tree_param":{"num_deleted":"0","num_feature":"768","num_nodes":"5","size_leaf_vector":"0"}},{"base_weights":[-1.9459957E-3,1.5784658E-1,-1.1448401E-1,-3.0308485E-1,9.636172E-2],"categories":[],"categories_nodes":[],"categories_segments":[],"categories_sizes":[],"default_left":[true,false,true,false,false],"id":70,"left_children":[1,-1,3,-1,-1],"loss_changes":[2.506934E-1,0E0,3.5408598E-1,0E0,0E0],"parents":[2147483647,0,0,2,2],"right_children":[2,-1,4,-1,-1],"split_conditions":[-2.6105133E-1,4.735398E-2,-1.04048856E-1,-9.0925455E-2,2.8908517E-2],"split_indices":[663,0,581,0,0],"split_type":[0,0,0,0,0],"sum_hessian":[1.1935877E1,4.7660136E0,7.169863E0,3.5536566E0,3.6162066E0],"tree_param":{"num_deleted":"0","num_feature":"768","num_nodes":"5","size_leaf_vector":"0"}},{"base_weights":[-2.7983356E-3,1.05813384E-1,-1.7400344E-1,-1.2374749E-1,3.0654353E-1],"categories":[],"categories_nodes":[],"categories_segments":[],"categories_sizes":[],"default_left":[true,true,false,false,false],"id":71,"left_children":[1,3,-1,-1,-1],"loss_changes":[2.5607395E-1,4.2693466E-1,0E0,0E0,0E0],"parents":[2147483647,0,0,1,1],"right_children":[2,4,-1,-1,-1],"split_conditions":[2.4259096E-1,-1.6217977E-1,-5.2201033E-2,-3.712425E-2,9.196306E-2],"split_indices":[383,277,0,0,0],"split_type":[0,0,0,0,0],"sum_hessian":[1.1781047E1,7.441894E0,4.3391533E0,3.6505413E0,3.7913527E0],"tree_param":{"num_deleted":"0","num_feature":"768","num_nodes":"5","size_leaf_vector":"0"}},{"base_weights":[-1.409358E-3,9.301764E-2,-1.9885969E-1,3.1956688E-1,-6.8344906E-2],"categories":[],"categories_nodes":[],"categories_segments":[],"categories_sizes":[],"default_left":[true,true,false,false,false],"id":72,"left_children":[1,3,-1,-1,-1],"loss_changes":[2.5356436E-1,3.5853583E-1,0E0,0E0,0E0],"parents":[2147483647,0,0,1,1],"right_children":[2,4,-1,-1,-1],"split_conditions":[-3.006298E-1,-1.2674156E-1,-5.965791E-2,9.587007E-2,-2.0503473E-2],"split_indices":[727,97,0,0,0],"split_type":[0,0,0,0,0],"sum_hessian":[1.1607745E1,8.21025E0,3.397495E0,3.007443E0,5.2028074E0],"tree_param":{"num_deleted":"0","num_feature":"768","num_nodes":"5","size_leaf_vector":"0"}},{"base_weights":[6.0656876E-4,1.2612781E-1,-1.4478828E-1,2.9604578E-1,-8.329414E-2],"categories":[],"categories_nodes":[],"categories_segments":[],"categories_sizes":[],"default_left":[true,true,false,false,false],"id":73,"left_children":[1,3,-1,-1,-1],"loss_changes":[2.4547662E-1,2.8144065E-1,0E0,0E0,0E0],"parents":[2147483647,0,0,1,1],"right_children":[2,4,-1,-1,-1],"split_conditions":[-5.257771E-2,5.0787628E-2,-4.3436486E-2,8.881374E-2,-2.4988243E-2],"split_indices":[629,511,0,0,0],"split_type":[0,0,0,0,0],"sum_hessian":[1.1450028E1,6.216102E0,5.233926E0,3.2033656E0,3.0127366E0],"tree_param":{"num_deleted":"0","num_feature":"768","num_nodes":"5","size_leaf_vector":"0"}},{"base_weights":[2.4049398E-3,-1.902646E-1,1.01940274E-1,-9.6903294E-2,2.4759686E-1],"categories":[],"categories_nodes":[],"categories_segments":[],"categories_sizes":[],"default_left":[true,false,true,false,false],"id":74,"left_children":[1,-1,3,-1,-1],"loss_changes":[2.5560158E-1,0E0,2.7806818E-1,0E0,0E0],"parents":[2147483647,0,0,2,2],"right_children":[2,-1,4,-1,-1],"split_conditions":[-2.4887998E-1,-5.7079382E-2,-2.5146955E-1,-2.907099E-2,7.427906E-2],"split_indices":[241,0,370,0,0],"split_type":[0,0,0,0,0],"sum_hessian":[1.13168745E1,3.5444298E0,7.7724447E0,3.427752E0,4.3446927E0],"tree_param":{"num_deleted":"0","num_feature":"768","num_nodes":"5","size_leaf_vector":"0"}},{"base_weights":[9.120414E-4,1.0912614E-1,-1.712625E-1,-9.202048E-2,2.5553113E-1],"categories":[],"categories_nodes":[],"categories_segments":[],"categories_sizes":[],"default_left":[true,true,false,false,false],"id":75,"left_children":[1,3,-1,-1,-1],"loss_changes":[2.4564633E-1,2.617781E-1,0E0,0E0,0E0],"parents":[2147483647,0,0,1,1],"right_children":[2,4,-1,-1,-1],"split_conditions":[-1.2166682E-1,4.3001678E-2,-5.1378753E-2,-2.7606146E-2,7.6659344E-2],"split_indices":[498,